  0.19834044  0.30714135  0.00194620 -0.11759254 -0.00990474  0.22273876 -0.22590159 -0.21226089  0.03782805  0.20121192 -0.31611310  0.28185244 -0.30526440  0.11851325  0.33344943 -0.12624424 -0.02463082 -0.19038608  0.06307226  0.08912355  0.02223963 -0.06320011 -0.27157479 -0.16600556 -0.20898778 -0.32208264 -0.04437688  0.26647480  0.00294373 -0.05949437  0.18293558  0.05120580  0.30359101  0.46106469  0.07045642  0.21546370  0.41382860 -0.07899072  0.22470559  0.13281224
 -0.27248701 -0.14966414  0.23500528  0.21224132  0.45349979 -0.14750817  0.01906941  0.39904294 -0.02862630  0.01414703 -0.46952669  0.15974942 -0.29820039  0.46051086 -0.17068878 -0.17894644  0.33391671  0.00398308  0.17912160 -0.30295105 -0.11299900 -0.27093915  0.12099643 -0.00952581  0.02038984 -0.30068470 -0.06050251 -0.16164986 -0.19167803  0.00062277 -0.12111514  0.28849545 -0.14427719 -0.17048546  0.00245059 -0.00145343  0.50808747  0.30257015  0.07766082  0.04328182
 -0.03394289 -0.32963563 -0.02036188  0.03647806 -0.04790537 -0.33225358 -0.00452368 -0.32032523 -0.09091442 -0.01423208  0.00820065  0.01858185 -0.14650068 -0.04235381  0.25387900 -0.04254501 -0.03305994 -0.00747228  0.13848098  0.23050967 -0.28459269 -0.01729986  0.29641489 -0.29385246 -0.01236147 -0.14168481 -0.29964922 -0.35929315  0.05360671  0.11151313 -0.02734797 -0.04747748 -0.28121035  0.12323735  0.14776026 -0.03145747  0.74325078 -0.00651567  0.16855913  0.21346954
 -0.01328618 -0.03080548  0.01495769  0.03848897  0.02789135 -0.00132923  0.00286747 -0.44410334  0.28604538  0.03146812 -0.40522143  0.51770494  0.18964477 -0.05866009 -0.29375000  0.02448760  0.01480078 -0.02535186 -0.41681705  0.02530285  0.01031516 -0.12301022 -0.02383962 -0.00655665  0.00829855  0.20125091  0.26536124 -0.02835150  0.00086918  0.15080798 -0.01530124 -0.00180822 -0.04771819 -0.16349437  0.52446509  0.00971265 -0.34361912  0.00905796 -0.05171208  0.05996690
  0.29950395  0.07276843 -0.24233763  0.27405209  0.22557540  0.06135347 -0.01793313 -0.34356730  0.08765806 -0.00756147 -0.02152002  0.13701370  0.59265721 -0.35089131 -0.40065120  0.27574276  0.08063830  0.03687925 -0.14194818  0.06837484  0.05347913  0.25432509  0.07243556 -0.00554165 -0.00405182 -0.23781874  0.05041752  0.06740279  0.36733263 -0.02418908 -0.22652959 -0.04123131  0.05150139  0.29891980  0.02295316  0.00941954  0.31243248 -0.40499055 -0.02680191 -0.05337408
