  0.29375406  0.00036623  0.54141277 -0.02386265 -0.08437973  0.29699602 -0.19219281 -0.23756482  0.10535730  0.52625604 -0.19548608  0.14560405  0.19681732 -0.02018744  0.42728235  0.15964908 -0.04086626  0.12079275  0.38169877  0.16268869  0.21360364 -0.24886148  0.21369157 -0.12485619 -0.29822270  0.34493855 -0.26783406  0.16556729 -0.28302284 -0.00997763 -0.14286262 -0.12401984  0.13063618 -0.09515448 -0.12100934  0.11232757 -0.08595210 -0.41832956  0.27197178 -0.00860204
 -0.15713221 -0.03328251 -0.14187582  0.21831264  0.30419442  0.56087627 -0.12112542 -0.00664379 -0.30961085  0.07407426  0.25758759  0.09826668 -0.18205893  0.25903688  0.16323111 -0.16242819 -0.03210722  0.06635178  0.33595898  0.03006144  0.04767262  0.03003421 -0.16059335 -0.50323089 -0.17852815  0.29511855  0.28823320 -0.16442339  0.02326812  0.70097908  0.13060169  0.42605181 -0.00438420  0.03959596 -0.16700295  0.40167985 -0.01672759  0.19499082  0.39982403  0.29977884
 -0.25316571 -0.16062360 -0.09493952 -0.02960881 -0.01296829  0.32441211 -0.05416321 -0.08876122  0.00372091 -0.09337813 -0.42488755  0.13991878 -0.40112876 -0.04549309  0.34914498 -0.35046583 -0.13958667 -0.12746983 -0.45854508 -0.02992994  0.19369563 -0.00535319 -0.32923408  0.06236499  0.70568924  0.13440725 -0.09476166 -0.34502658  0.26096831 -0.03779403 -0.07329312 -0.16834439  0.07410358 -0.02278294  0.12029656 -0.23804802 -0.01094081  0.20481858 -0.49039935  0.40848811
  0.01454252 -0.53919654 -0.02275972 -0.00075788  0.00593453  0.55571591 -0.00004506 -0.00628461  0.00166969 -0.19403485  0.36312263 -0.17829116 -0.01411354  0.01155614  0.01410523 -0.01705897  0.30924028  0.00735396  0.18657214 -0.00252085 -0.03764065 -0.00152124 -0.02793384  0.00223645  0.56994132  0.43246357  0.06523335  0.01097029  0.00439905  0.02420192 -0.00416727 -0.02463571  0.00366613  0.26331111 -0.04040685  0.03052754 -0.20390756 -0.05523501  0.43183740  0.29973467
  0.05533695 -0.00136925  0.52069438 -0.23573399 -0.34309689  0.15314884  0.27178773  0.01173816  0.24881280 -0.13911677 -0.40887388  0.52281557  0.06533823 -0.36872522 -0.16141445  0.06314358  0.03026149 -0.07970923 -0.10785459  0.00375780 -0.03438676  0.00407623  0.05345150  0.39735890  0.21649307 -0.44214656  0.04854725  0.06434830  0.06320555  0.32489686  0.09284702 -0.45351752  0.05397654  0.02895371  0.08186549 -0.15852893  0.05258190  0.19385293 -0.25011437 -0.47948874
