  0.21781937  0.42647393 -0.01642496  0.20890222 -0.24726721  0.04563105 -0.11165757 -0.33507213  0.25348583  0.02398160 -0.27421502  0.42774291 -0.32810003 -0.19738163 -0.12139801  0.15089503  0.03719468  0.63364898  0.22642329 -0.02300545  0.15772185 -0.25717011  0.23351024  0.11688545 -0.33446655 -0.10727793  0.20030982  0.48020009  0.12817346 -0.05155812  0.33184183 -0.57144644 -0.34284457  0.51871090  0.37417273 -0.15182900  0.38091881 -0.43466234  0.17357029 -0.25147145
 -0.37968584  0.08699560 -0.30060807 -0.14219438  0.38117550  0.11484578  0.22708065 -0.01858722  0.07482833 -0.94216762  0.51057660 -0.49180020 -0.39720820 -0.08985477 -0.20639390 -0.48606594 -0.41621823 -0.12355595 -0.25170160  0.21187742  0.10840635 -0.08473703 -0.45041496  0.11324363 -0.27775596  0.24165793 -0.43587094  0.40913827  0.43795640  0.24804849 -0.34898442 -0.19792924 -0.29960333 -0.21870806 -0.14950377 -0.30022466  0.46590012  0.36125106  0.19041589 -0.01514669
 -0.44253967  0.14409863  0.17623803 -0.12922431 -0.30073554 -0.35472571 -0.20671083 -0.36619941  0.17770759  0.00974286  0.04883975 -0.42046639  0.25643824  0.40680787  0.24441690  0.19076998  0.33861195  0.56433673  0.38738150  0.27654634  0.10417612 -0.04046747  0.12629545  0.00384609 -0.13935560 -0.12491048  0.28728820 -0.20318857 -0.47347090  0.05736113  0.28293872  0.05443370 -0.40473157  0.15913056 -0.25575526 -0.35162691  0.10475131  0.17265017 -0.03420953  0.41883576
 -0.15074908 -0.31679496  0.47443743 -0.39603402 -0.42542014  0.31833761 -0.45100499  0.36717680  0.18679447 -0.02967267  0.00614212 -0.37555608 -0.48978858 -0.00831606  0.10527625 -0.33020268  0.17760223  0.01981127  0.16756830  0.20444712  0.47056541  0.12142084  0.49817196 -0.12912405  0.22756934 -0.00314714 -0.26925815 -0.34977763  0.20480996  0.03486798 -0.43069364 -0.05110550  0.14911240 -0.10553303 -0.34025744  0.19485512  0.37522310 -0.25450575  0.05399522  0.08446475
 -0.28501466 -0.25172982  0.40000592 -0.10856030  0.09127324 -0.03914369  0.03070689 -0.10733653  0.70138922  0.91450787 -0.25063754  0.48282326  0.21398008  0.38647843 -0.41160806 -0.18590749  0.41885152  0.00215732  0.09184066  0.12362073  0.51660809  0.18076162  0.13225793  0.43635567  0.23020894 -0.60227155 -0.34955310  0.11701905 -0.41903103 -0.37032990 -0.29358510 -0.03983581  0.44481915  0.02805841  0.02114311  0.17239871  0.08292141 -0.34915991 -0.23835968 -0.12175774
