  0.09726850  0.35336013  0.48112916 -0.38862430  0.39810125  0.25410651 -0.11305893  0.31681593 -0.14054292  0.41729374  0.46081080 -0.03074958 -0.27358114  0.15184926 -0.32506600 -0.08566169 -0.08039372 -0.24735097  0.43295958  0.37620520  0.35029131 -0.20949093 -0.41713885 -0.32430304  0.07511373  0.12689698  0.43201144 -0.08677236 -0.05172644  0.03672262 -0.25455066 -0.45445957 -0.10991891 -0.27342313 -0.34308546 -0.21181926  0.48068179  0.04385401 -0.39500499 -0.15986285 -0.03885397 -0.43419583  0.30938598  0.18756330  0.21765184  0.48431843 -0.39809993 -0.36274342 -0.26303410 -0.46514194 -0.48653983 -0.41274441 -0.17463446 -0.40368023 -0.23704899  0.40047769  0.22321514 -0.30503916 -0.18629627 -0.32851290  0.23168189  0.05915155 -0.28297395 -0.37823851  0.28572690 -0.12606094 -0.09005928  0.26640717  0.41779156  0.01493428 -0.39345711 -0.12106386  0.08073697  0.41592738 -0.43350205 -0.20161266  0.40024432 -0.33160350 -0.06435762 -0.36279132 -0.29674696 -0.05089895 -0.27553720  0.02861709  0.04541931 -0.01258768 -0.07090670 -0.23136702  0.18237169  0.24279557 -0.05988139 -0.08594791 -0.19805437  0.15714317  0.03581206 -0.41232904 -0.46891945  0.44575094  0.35407594  0.44887023 -0.03931477  0.46061722 -0.17219558 -0.45858107  0.37654349 -0.10569855 -0.16019503  0.27678632  0.06269635  0.27544567  0.41399327  0.26594765 -0.27545502 -0.36154568 -0.20543703  0.26996251  0.12586485  0.22365447 -0.46140634 -0.19176531 -0.03355182 -0.02128960  0.22228490  0.26839188 -0.36414837 -0.24190495  0.35606096 -0.33306962 -0.29615564  0.21013565 -0.38420087  0.16452640  0.17075165 -0.05639757  0.20594380  0.04729340  0.33790203 -0.45425312 -0.17592218 -0.09940350  0.32119072 -0.26193073 -0.33345769 -0.45426614 -0.12347819 -0.03889644  0.31569467 -0.49761507 -0.31524374  0.35428657 -0.18938210  0.15120276 -0.16700473 -0.46709893 -0.08040705 -0.03115473 -0.20900549 -0.22434769  0.13577406 -0.00516269  0.48578641  0.25157164 -0.34063787  0.15653643 -0.30482757  0.36530430 -0.29617174 -0.46692707  0.41104969  0.02790461 -0.06633202  0.23223895  0.26597239  0.10020881  0.27797129 -0.35750738 -0.43868923  0.09366438 -0.35512395 -0.25393437 -0.05205041 -0.04450738  0.39726709  0.28094361 -0.01160758 -0.18314131 -0.25021253  0.27938551  0.09250955  0.38556001 -0.22577875  0.07829440  0.13713018 -0.06641803 -0.26517053  0.33230130 -0.20111499 -0.06134348  0.36537310 -0.29006639  0.46656003
 -0.21850434  0.42466003  0.21506304  0.38183666  0.20286923  0.35805131  0.44397683 -0.20237397 -0.49587242 -0.30878586  0.24666290 -0.03946702 -0.41081984  0.02805542  0.44913017 -0.09397976  0.27772057  0.22843139 -0.50135916  0.16357751 -0.49696573  0.07728875 -0.19899511 -0.06314732  0.31226030 -0.36660236  0.23579493 -0.24895509 -0.50113239  0.44575637 -0.28246730 -0.20222142  0.38786793  0.45007742 -0.30287081  0.10816933  0.32529200 -0.34213797  0.42209011  0.34521690 -0.13549641  0.18389082 -0.17927552 -0.03147340 -0.27329299 -0.21541175  0.38931886 -0.48081274 -0.47228360  0.40250951  0.19718992 -0.45485426 -0.00587920 -0.48757700 -0.00392116 -0.17957916 -0.34021241 -0.25417368  0.08539897 -0.32739966 -0.29448282  0.31683127 -0.01569159 -0.39264716  0.28084542  0.19530662  0.22930320  0.11985191  0.36684999  0.16506495 -0.02123736 -0.25497377 -0.13742755  0.31302769  0.22703735  0.10273816 -0.38895564  0.12978484  0.13536349 -0.34777908  0.04578484 -0.15396010 -0.28921446 -0.44667155 -0.12811903  0.22030798 -0.11275939  0.04517928  0.47962338 -0.51396952  0.23106835 -0.30151171  0.31645688 -0.27060647 -0.17949899  0.11285275  0.44134101 -0.43215564 -0.24752215  0.32969663  0.25408164  0.24829607 -0.41413511 -0.37617985  0.06833891  0.32171174  0.23713675  0.19137138 -0.03539111 -0.11349653  0.35826095 -0.47447982  0.24791613 -0.41553727 -0.40577640 -0.36486761  0.32011254 -0.00314603  0.19577006  0.31529938 -0.00140012 -0.05727517 -0.47019445 -0.16896935  0.18786488 -0.13442217  0.45829646  0.14231654 -0.05531611 -0.28053887 -0.02225442 -0.29694090  0.47365058  0.07247645 -0.16171792  0.05517618 -0.09135447 -0.40929124 -0.23769652  0.38920865 -0.00682861 -0.36364247  0.43033127 -0.24349131 -0.26389760 -0.46025497 -0.09323744 -0.42873544  0.05156817 -0.38259176  0.40136305 -0.43509389  0.07480599  0.44574932 -0.08957857 -0.22296381 -0.17436739 -0.11697380  0.43365664  0.28452679  0.11653912 -0.07467881 -0.49864532  0.10385784 -0.48860900 -0.14678471 -0.32732012 -0.06618846 -0.04219129 -0.05109170 -0.16305222  0.46487681  0.09909415 -0.21896284 -0.26493221  0.34888085 -0.16546406  0.15566142  0.43401421  0.39998949  0.28692066  0.34917050  0.47863572 -0.12455964  0.30866677 -0.09710971  0.16637485 -0.35183975  0.29957401  0.11351948  0.44616364 -0.07027100 -0.44739587  0.46146694 -0.45217449 -0.42137552 -0.17036133 -0.26439212  0.02762610  0.30274283  0.19990165
  0.39974660  0.30263300 -0.16597026 -0.30380659 -0.44668204 -0.30147697  0.04615663  0.22416304 -0.35252460 -0.03908550  0.02574445 -0.48876644 -0.04604916  0.41540845  0.33421807  0.37159406  0.09714133  0.49835698  0.18771791 -0.27230139  0.46193344 -0.36475397 -0.20159642  0.44166393 -0.29861826 -0.10465335 -0.21043141 -0.04499589  0.44074329 -0.39009694 -0.32751832  0.33825134  0.41026702  0.00417000 -0.46797782  0.46107195  0.20011314  0.07574921  0.18317029  0.34610596 -0.46441172 -0.29193924  0.35668180 -0.01060926 -0.37600061  0.19188848 -0.13788554  0.22228358  0.19139076 -0.44906018  0.45097642  0.15405928 -0.31330839 -0.25029757  0.09592606 -0.11200061  0.14474916  0.38505268  0.34249356  0.08502143  0.49469113 -0.48507581 -0.07674281  0.40481971  0.01894177 -0.04481544  0.36589393 -0.28091993 -0.46909859  0.04892209 -0.43517221 -0.43403918  0.25646629  0.42101864  0.05486352  0.37988997  0.11244206  0.41649429  0.10170603 -0.19670293  0.46681434  0.05202876  0.45672924 -0.34721659  0.30097014  0.05188032  0.03997425 -0.05495758 -0.06354212 -0.11786929 -0.47036327 -0.06966642 -0.10418269 -0.04894440 -0.16761942  0.41126913  0.40277684 -0.30469008 -0.37250586  0.42844508  0.23568349 -0.31154368  0.49582027 -0.00232716 -0.38888507  0.04997643 -0.12309857  0.22333017 -0.03378808  0.47772490 -0.47517782 -0.06937325  0.02704873  0.47863087  0.08036016 -0.17497494  0.02768304 -0.38239970  0.26719106  0.46104393 -0.00348443  0.29353779 -0.11195981  0.38914187 -0.25809756  0.21858941  0.29928221 -0.35600552  0.41352507  0.42699517 -0.42468867  0.15557294 -0.38231367 -0.42919723 -0.34761969 -0.27229608  0.11932997  0.02722746  0.44818717 -0.41766211  0.00163847  0.46984806  0.00984356 -0.47432372  0.44562784 -0.41248408 -0.15187134 -0.02914846 -0.29718025 -0.38678226 -0.07000610  0.19761720  0.40528771  0.31657082  0.08496058 -0.35503224  0.03282045 -0.11790788 -0.21292450 -0.05540387 -0.19254917 -0.13922034 -0.40136382 -0.07629038 -0.06968317 -0.25009200  0.15031611 -0.45156210  0.27582668  0.09708096 -0.37076326 -0.22398044  0.06571218  0.13821026 -0.19877859  0.01105170  0.22533321  0.14877042  0.48099462  0.42686393  0.26030744 -0.09118186  0.12185778  0.16256047 -0.27774040 -0.29608633  0.30493650  0.25275559  0.08395738 -0.40984580 -0.30451222  0.38943828 -0.05124712 -0.20816429 -0.18917305  0.37669073  0.03928847  0.45871713  0.42281755 -0.18719698  0.05332864
 -0.44779866  0.08893731 -0.38102346  0.18712139  0.38639186  0.12595712 -0.09158936  0.03125577  0.10319072 -0.16843090 -0.21216546 -0.49176479  0.44964334  0.44675626 -0.27294492 -0.34967902  0.24862810  0.47675602  0.23126739  0.33579056 -0.33063349  0.11807851 -0.21777574 -0.04101197  0.42655888 -0.34353544  0.49572051  0.38256263 -0.42367336 -0.19458466 -0.06718477 -0.37715982  0.38891979  0.04656523  0.30482997  0.27002891 -0.33301272 -0.29264221 -0.20499607  0.26355926  0.03216168  0.07614948  0.26517031 -0.02484296  0.01616210  0.48544120  0.11871408 -0.24194598  0.45552607 -0.15665807 -0.41270601 -0.38151228  0.45507516 -0.13680563  0.07116811  0.37538562  0.01346489  0.06084731  0.25215741  0.08431409  0.36104954 -0.32007097  0.20224405  0.24508730  0.22157566  0.00217780  0.01030742  0.38389593  0.20503043  0.30097060  0.14317873 -0.26705985 -0.12718860 -0.09600552  0.20377303  0.38472328 -0.11479745 -0.18166068 -0.36128124 -0.16322983  0.15782816 -0.27778924 -0.04856898  0.10904431  0.08150601 -0.48130719 -0.01943115 -0.40875474  0.07601226 -0.27070383  0.17215779 -0.06620568 -0.09380758 -0.12848986 -0.32418431 -0.37575554  0.36932195  0.18095995  0.50249400  0.06897737 -0.02223987  0.14101565  0.29752408  0.34600306 -0.45800026 -0.00142622  0.22758405 -0.07676688  0.31209448  0.36090650  0.25437515 -0.03559000 -0.42222782 -0.29951081 -0.43187877  0.15401554 -0.28594739  0.04360170  0.24002450  0.28457601  0.26719864 -0.09373022 -0.28787651 -0.33330234  0.27069943 -0.11930883 -0.21622516  0.13328531 -0.44448259 -0.21937739 -0.30319723  0.02722068  0.41648591  0.48900911 -0.13257338  0.45205334 -0.01926550 -0.41197773 -0.13155474 -0.21373328  0.44278392 -0.38299284  0.24514172 -0.48477001 -0.18760397  0.30827996  0.16429322  0.02153370 -0.15299773 -0.10053383 -0.19868868 -0.39055226  0.30089689  0.00852347 -0.22873792  0.06681619  0.38452142  0.05048354 -0.30443367  0.43545968  0.32645153 -0.11219048 -0.04186931  0.23826610 -0.12812000  0.32036709  0.18524155  0.34794442  0.40439054 -0.44976020 -0.36908861  0.34351972 -0.33704569  0.37123370  0.35361634 -0.02963030  0.17510598  0.01408644  0.48851425 -0.48099359  0.41047989 -0.21328445 -0.37467891  0.20831866  0.29216207 -0.10661471 -0.22826773  0.17302208  0.44000484 -0.03636426  0.10546007  0.26425472  0.34996801 -0.43727159  0.00204336 -0.27833340  0.38308396 -0.31271132 -0.43051656  0.28693029 -0.26356080
 -0.32872633  0.10356657 -0.12443864 -0.44873897 -0.03091997  0.36056210  0.24249573  0.49940085  0.36435925  0.27320794  0.41675760 -0.34567784  0.40264913  0.13407158  0.46052789 -0.18854467  0.41848971  0.14038020 -0.24814976 -0.12298240 -0.26211606  0.50681778 -0.28159933 -0.20680160  0.00275420 -0.06528640 -0.32818015  0.18807922  0.00427346  0.45883357  0.42112392  0.19491577  0.07562807 -0.19493988  0.25021140 -0.45454877 -0.33614277 -0.01263816 -0.46458669  0.51468646 -0.25527406  0.43578297 -0.34903981 -0.37530508  0.04087078 -0.42329540 -0.10244685 -0.08098012  0.17735358  0.11212985  0.26210867  0.38437673  0.08907026  0.44993414 -0.35435423 -0.43949808 -0.14540214 -0.21131325  0.21951847  0.32819197 -0.28493371  0.10809242 -0.00712232  0.26417172  0.38948848 -0.27846020  0.28939584 -0.46603695  0.18980891  0.30574047 -0.47047647  0.41539245  0.22222778 -0.33855463 -0.47814504 -0.25449227 -0.27946264 -0.09824917  0.14636684  0.37934881  0.49469874 -0.11160389  0.24288109  0.06392721 -0.18013502  0.37158666  0.10842275  0.15666633 -0.36097133 -0.19424468 -0.03487807 -0.16462799  0.38860803  0.42576233 -0.42951360  0.25780333 -0.36738952  0.34236835  0.26826381  0.30359714  0.14499144  0.28760029  0.20535638 -0.15065485  0.44970981  0.23289278  0.09555128 -0.33084710 -0.35969940 -0.24374210 -0.43353613 -0.35403062  0.14886382  0.31355552  0.21691498  0.47576272  0.18912940 -0.17245051  0.13693720  0.33654132  0.14274741 -0.38832391 -0.31457011  0.05303539 -0.43346262 -0.21385725 -0.15852092 -0.26786820 -0.33412236 -0.34629039 -0.42196821  0.34241812  0.48650218  0.33038601 -0.26733322  0.47313529  0.09786784  0.36165859 -0.32579871  0.26103342 -0.36769720 -0.25052284  0.41463229  0.28684173 -0.43457258  0.13107870  0.26030519  0.25037638  0.45313766 -0.10821317  0.08195671  0.09133866 -0.00266906  0.25982774 -0.36326611  0.05694536 -0.46103223 -0.03006925  0.27892833 -0.30637560  0.11173665  0.34503458 -0.47608939  0.08597601  0.16261470 -0.25709501  0.04545777 -0.25303002 -0.40984862  0.20272110  0.48769339 -0.30212997  0.42489878  0.37444706  0.45832654  0.46940853 -0.00514219  0.21694404  0.22428374 -0.04543691 -0.38692803 -0.19233385 -0.45627529  0.10633549 -0.43839739 -0.32724552 -0.34621326 -0.41086192  0.12940860  0.41855779 -0.23073892 -0.27053698  0.25390995 -0.21633933  0.30486382 -0.09520916  0.01462040 -0.16114791  0.14088727  0.09612867 -0.46119957
  0.15623630  0.32889419 -0.49538675  0.05500736  0.31481771 -0.49823280 -0.42634323  0.05013528  0.23901593  0.03608466  0.16749813 -0.45200063  0.07954547 -0.22747482 -0.39244345  0.24998894 -0.07584788 -0.30421079 -0.11966311 -0.15440542 -0.03071324  0.11464727 -0.39514667  0.25997236 -0.07101407  0.02183988 -0.21048677  0.28545654 -0.31662691  0.40835116  0.34679731  0.33952888  0.23716248  0.35132605 -0.10554915  0.05189470  0.35300841 -0.03197661 -0.39805448  0.09194077 -0.49597400  0.26936410  0.13986206  0.08349381 -0.45818811  0.24734199 -0.16659338 -0.03411216  0.44305461  0.21366620  0.31140449 -0.08773798 -0.17176646  0.41617766 -0.32784555  0.25713901 -0.06206368 -0.03841496  0.04251145  0.12122404 -0.13015000 -0.11077793 -0.03933437 -0.39307523 -0.25953947  0.35502881  0.15873181 -0.40661895 -0.17703560  0.26058997  0.18523406 -0.17309826  0.02986463 -0.17499370  0.41030581  0.07158666 -0.42774157 -0.25637791 -0.46261616 -0.48477804  0.45719701  0.34869714 -0.07260649 -0.21466009  0.26478402  0.09945706 -0.45761241 -0.29737247 -0.43905327  0.08480217  0.32375518 -0.06929815  0.47393099 -0.21567062  0.03753717 -0.28569707 -0.36073104 -0.30382221 -0.19240884 -0.03784841  0.45671011  0.49274546  0.28895419 -0.01354574 -0.18234358  0.19917375 -0.44204697 -0.11017518  0.44270527 -0.40475246 -0.09504019  0.39981727  0.44386184  0.33227267 -0.31492270  0.20856447 -0.06835407 -0.27262003  0.41110842 -0.00748811  0.31210360  0.23478640  0.42313763  0.28595923 -0.48095991 -0.03940182 -0.49981525 -0.34176789  0.15670044 -0.19229825  0.12029852  0.11330236 -0.19963719 -0.09082272 -0.40031996  0.11794149 -0.39172694 -0.34244405 -0.49230969 -0.44909708 -0.24727262 -0.08742725  0.45064111 -0.30349194 -0.25523871 -0.36436755  0.40498591  0.17632032 -0.13707471  0.31600734 -0.33125473 -0.32505811  0.05070643 -0.40820485  0.46081255  0.06965751  0.05230413  0.46090817  0.22780044 -0.29108445 -0.23147909 -0.15199048  0.32212792  0.06879307  0.25709587  0.42171749 -0.31335552  0.36527851 -0.42081786 -0.30575776  0.41608804 -0.16818371  0.10672202  0.36663644  0.02823187  0.35139100 -0.49782343 -0.06687466  0.02761881 -0.13499076 -0.25096020  0.19627113  0.03985843  0.29965383  0.28797376  0.00057804 -0.13078299 -0.15981822 -0.03861213 -0.40308316  0.04899536  0.22980690 -0.05517412 -0.12897503 -0.20149579 -0.29817133 -0.20734859 -0.01494056 -0.43297990 -0.12825189  0.17921711
  0.48843193  0.21769911 -0.18701168  0.38908761 -0.22066611 -0.30993053  0.40864247  0.22577758  0.22986557 -0.21706576  0.48002962 -0.06934480  0.33513020  0.30549754 -0.24542130 -0.12770986 -0.29619854  0.11188210  0.34282956 -0.19307991 -0.33473243  0.06574040  0.23076204  0.00504262  0.32999613  0.39679715  0.26264065 -0.21056200  0.44852063 -0.37336822  0.45966126  0.42068785  0.32228011 -0.25539006  0.27238320 -0.44520254 -0.12219604  0.11393398  0.20339140  0.52319019  0.31668857  0.11233016 -0.11058083  0.07882019 -0.17514452  0.02968989  0.32356101 -0.10406976  0.50948777  0.03917661  0.07745246 -0.44266511  0.49339769 -0.29555855 -0.04002331  0.23034070 -0.47976244 -0.34824038  0.45622525  0.40822662 -0.28072295  0.36008590  0.27733842  0.49089069 -0.44760678 -0.00101298 -0.50323261 -0.11503739 -0.42765336  0.16501657 -0.12011172  0.36515491 -0.24840856  0.23857915 -0.08662488  0.05138888 -0.25536647 -0.28169237  0.42995841 -0.26053758  0.24240589 -0.00971886 -0.22679909  0.21434438  0.17443787  0.21562303 -0.06746520  0.18131926  0.35676391 -0.10987382  0.10813798 -0.39358840 -0.22374418 -0.09626724 -0.38175788 -0.14234058  0.43330375 -0.37408276  0.20878057  0.46917104  0.32648911 -0.43182741  0.31201157 -0.46812982  0.36252732 -0.22070655  0.09145889 -0.40323784 -0.01012095  0.01895123 -0.16611879 -0.27951995 -0.50988143  0.09547935  0.43890717  0.17884846 -0.17474427 -0.11795629 -0.12725789 -0.30601447  0.27330700  0.46831186 -0.22152244 -0.47729916 -0.15959365 -0.14557982 -0.17047545 -0.28616238 -0.07087062 -0.48078266 -0.33475233 -0.31851844 -0.39755696  0.49077472 -0.31217437  0.42671295 -0.26511397  0.24779051 -0.50150113  0.19933943 -0.25297224 -0.17875101  0.42520004 -0.24850914  0.43557496  0.38006911  0.44194335 -0.23705945 -0.24415559 -0.19456061 -0.04983953 -0.47188991 -0.22778896  0.22682985 -0.44891548  0.11713056 -0.41196270 -0.10982882  0.34040104  0.02481759 -0.08733858 -0.49213851  0.20741064  0.01600211 -0.50343456  0.38941367 -0.05861711 -0.25883302  0.15570312 -0.03339319 -0.52731270  0.43214187  0.31388197  0.42037804 -0.30360087  0.25237865  0.30220251 -0.35631831 -0.46989696 -0.41458270 -0.01582742  0.01982733 -0.34379557  0.30478499 -0.20351564 -0.24705303 -0.03623951 -0.07835952  0.17675903 -0.16373077  0.48408956 -0.36498809 -0.09807299  0.25289122  0.20742767 -0.05356026  0.18392939 -0.31320882  0.22018618 -0.13217450  0.18286148
  0.21262562 -0.18098343  0.01110707  0.16142522  0.04707430 -0.20135570  0.00064825  0.22824459 -0.13511446  0.11889717 -0.25853111  0.40957208  0.29480865 -0.43992772 -0.28389884 -0.44323093  0.02968629  0.14454519  0.23852849  0.36986714  0.13076648  0.36740217 -0.24622761 -0.13925944  0.05209806  0.18023759 -0.47134454  0.22701665 -0.10580829 -0.10614088 -0.09555805 -0.38588314  0.22021977  0.42290437  0.28286266 -0.22540329 -0.27111505 -0.20904239 -0.48957154  0.10161526  0.41785832 -0.23999874  0.01925781  0.22072084 -0.17181574  0.24353631  0.28563253  0.36592563 -0.10394338  0.03208443  0.24369925 -0.46533462 -0.09262677 -0.49454802 -0.09643847  0.46767136  0.19390870 -0.05963370  0.20274688 -0.40389082  0.34225394 -0.38476602 -0.28177047  0.07044367 -0.45386861 -0.49088434  0.35313291 -0.21683698 -0.19178093  0.37169453  0.39280817 -0.26597484 -0.36038216 -0.08000664  0.46269097 -0.02426622 -0.32853699  0.25622958 -0.15043865  0.07542465 -0.20377761 -0.39880592  0.11812095  0.21162291 -0.38532813 -0.47033420  0.18721996  0.31648687 -0.02205520 -0.10207957  0.42057910 -0.17185312  0.02108877 -0.35324191  0.40657684  0.07533369 -0.33574100  0.26838983  0.36751131 -0.01713317  0.15269452  0.26988437  0.22334985  0.29577949 -0.30438175  0.19295940 -0.22124974 -0.12537788 -0.04299057  0.13629384  0.45808779  0.26128119  0.24553262  0.08426122 -0.01903171  0.36827733  0.12200540 -0.32372870  0.19285739 -0.39194556  0.08230503  0.12155837 -0.05566409 -0.38842924  0.27649754 -0.14094845  0.19489446  0.44849968 -0.36513181  0.06939964 -0.06331185  0.29029087 -0.15536282 -0.33310854  0.09338165  0.04790595  0.36774755  0.38018548  0.43064189 -0.16708215  0.02463600  0.39689351 -0.39764412 -0.22168675 -0.01074385  0.09139354 -0.34534092 -0.38066794  0.27571292  0.35557529 -0.26451757 -0.13385384 -0.01473561  0.18794245 -0.01415189 -0.23002013 -0.44474627 -0.31105600 -0.27345191 -0.30191021  0.26628374  0.17115718 -0.50367944 -0.38117135  0.34590974  0.09758445  0.17467047  0.22166728 -0.01416307  0.11340501 -0.43730765 -0.48142100  0.01835322 -0.32698227 -0.19518529 -0.48453215  0.27215296 -0.03288495 -0.35756177  0.05552408 -0.16966347 -0.11444331  0.42934764  0.32335410 -0.41872304 -0.07709405 -0.39910570 -0.35603195  0.11928467 -0.16512605 -0.15052888 -0.10707602 -0.48664983 -0.14692483  0.01901720  0.36651166  0.45790274 -0.29910248  0.09534340 -0.04918292  0.32129764
  0.17217955 -0.01647989 -0.14623883  0.35203810  0.29512490 -0.12397498  0.13102146 -0.23088720  0.02535234 -0.30654364  0.10639457  0.41784846 -0.37030437 -0.06342741 -0.49411306  0.05932315  0.04415856 -0.34346459 -0.31474871  0.38564698  0.01263661  0.08483997  0.40568622  0.37246013 -0.38932084  0.27908485  0.33730988 -0.18141296 -0.11850041 -0.20472961 -0.35291661 -0.44632264  0.27878876  0.00084288  0.40571384  0.07391204  0.37686624  0.03673358  0.34302305 -0.09778331  0.23018791 -0.05058458 -0.17993721  0.35988108  0.38598549 -0.17405282 -0.08079835 -0.06985855 -0.01752004  0.10445031 -0.18421419  0.49511399 -0.31071229 -0.27853053  0.36757157 -0.20003570 -0.49944832  0.20487873  0.11854851 -0.11795161 -0.49985380  0.26562897 -0.06427721  0.27893201 -0.23353107 -0.15856626 -0.14715886 -0.35666776  0.37816436 -0.30413880  0.04554590  0.10834921  0.14527356  0.36560563 -0.03177278  0.03125595 -0.30845030  0.38742572  0.46139423  0.17402648 -0.00812716 -0.22282315  0.16913727  0.18115734 -0.00135692  0.03670559  0.48111834 -0.00080858 -0.25841914  0.09966329  0.38123617 -0.25827655 -0.13471129 -0.18304454 -0.47934807  0.13175402  0.15838543 -0.12651076  0.27508258  0.03654621  0.06934654 -0.17937481 -0.35510766 -0.28538251 -0.31377221  0.11311664  0.24587068 -0.12222535  0.00053939  0.20726187 -0.44820191  0.49240925  0.48443581  0.22093250  0.17356367 -0.01692412 -0.24236501  0.15467890  0.48226422 -0.00078710 -0.24566062  0.36349771  0.24093376  0.11962557 -0.31954927  0.26158336 -0.24862259  0.33883420 -0.36492919 -0.47354181 -0.12462128  0.20441615 -0.15291842  0.02026918  0.41903177  0.03330733 -0.36661644  0.16490006  0.41107950  0.13392042 -0.12784069  0.46287488  0.12632682 -0.14340786  0.18380426 -0.20011268  0.33966484  0.44143608  0.45456306  0.32192588 -0.05935426 -0.29110085  0.18542032 -0.31842373  0.32852151  0.36586781  0.44315635 -0.42010440  0.20469869 -0.42177617 -0.39364951 -0.41992589  0.28263670 -0.04657120  0.10034004  0.20166523  0.48673284  0.23372025 -0.13343811  0.39780894 -0.13236274  0.23871786  0.36068049  0.49396072 -0.40469338  0.04448135 -0.20615538  0.43496806 -0.01408599 -0.25159575  0.25689055  0.42655642 -0.04269992 -0.05769248 -0.39187069 -0.21418179 -0.19182804 -0.44871772 -0.13428960 -0.48713282 -0.37049742 -0.02794269 -0.40706235  0.41213560  0.42548239  0.19327397  0.11379713  0.41221166 -0.07300920  0.48035577  0.31001738
  0.59208752  0.49011546  0.43344729  0.55297755  0.57855204 -0.05083733 -0.22454615  0.42769417  0.36858341 -0.00430391  0.15134633  0.24790672  0.38898463  0.51465282  0.29363688 -0.35118378 -0.18068264  0.31915468 -0.06652452 -0.26889720  0.35347394  0.35999524 -0.19413295  0.24957771  0.25476880 -0.53318277 -0.12873503  0.17107648 -0.10644529 -0.18387646 -0.06365000 -0.35439579 -0.49465188 -0.42111643 -0.60899610  0.24482565 -0.27460803 -0.59289847 -0.07758405 -0.62217692 -0.29591732 -0.56376331 -0.00983620 -0.51671281 -0.63536242 -0.29731354 -0.46709146 -0.39461226 -0.52600425 -0.05424410 -0.14463005 -0.61038024 -0.12123023 -0.75625018 -0.76400932 -0.27120404 -0.69294062 -0.30926115 -0.50757365 -0.19782608  0.12581747  0.06958095  0.11252320 -0.68872896 -0.65987221  0.21386018 -0.69542343 -0.16644582 -0.58364291  0.06674762  0.03692840 -0.04450872  0.34037126 -0.12619590  0.28963624 -0.43059915  0.45510403 -0.29490606  0.06322333 -0.17169114  0.55980434 -0.17744459  0.11349605  0.32381035 -0.05728388  0.22674123 -0.07458980  0.12108339  0.78796482  0.28719549  0.80039847  0.79887828  0.24429299  0.80585370  1.02964354  0.56908554  1.09473247  1.52181559  1.66984980  1.20908449  0.31472811  0.99027901  1.16291047  1.16344792  1.34334427  0.40523875  0.75562788  0.92355943  0.31105406  0.06926816  0.02013238  0.13957708  0.15218525  0.38196607  0.69606356  0.30969180 -0.19720087 -0.20723975  0.57734679 -0.29010618  0.16829668  0.43126016  0.52207392  0.36263960  0.13326413  0.38229213 -0.33392476 -0.19660204  0.25686794 -0.53306656 -0.45780962 -0.14762305 -0.05504924 -0.13665778 -0.62066505 -0.14518991 -0.02045877 -0.02116568 -0.28194079 -0.69982965  0.10502685 -0.16367183 -0.42373556 -0.57333851 -0.57843054 -0.50258283 -0.00964929 -0.50154769 -0.39855838 -0.09085531 -0.41562321 -0.82951891 -0.23068251 -0.44509838  0.02636058 -0.58294176 -0.53074807 -0.75127247 -0.19316800 -0.65734790 -0.63812805  0.00098026 -0.14890721 -0.03008111 -0.43894539 -0.03777709 -0.41512022 -0.68139723 -0.24951453  0.14826147 -0.52017635 -0.29156173 -0.19333992 -0.11483950 -0.00142053  0.12190454  0.27935703 -0.12202685 -0.50031563 -0.23202281 -0.32591091 -0.04226206 -0.19091252  0.33022477  0.43136077 -0.23710920 -0.33437621 -0.21317379 -0.12794828  0.30421097 -0.05545789  0.04916365  0.15165857  0.66251046 -0.11610937  0.53905503  0.41911258  0.25800821  0.65238625 -0.05812353  0.10172671
  0.64694710  0.18314439  0.47680414  0.23655925 -0.16695103  0.18775797  0.06465460  0.21374826  0.13561563  0.22230403  0.26183523  0.46907827  0.43969173  0.03393551  0.34781031 -0.37534035  0.07960056  0.51010691 -0.10433924 -0.20446700 -0.15587431  0.26320604  0.20750661 -0.24907633  0.40369225  0.02328271  0.43604872 -0.09394244 -0.10266464 -0.36569080  0.27146525 -0.07143872  0.16583623  0.06187725  0.45676332  0.30842471  0.55890154 -0.15567417 -0.10543047  0.10119077  0.51398308  0.61308987  0.07191140  0.46402458  0.14719789 -0.09029571  0.57733392  0.70463422 -0.11991691 -0.08164379 -0.07318689  0.14469375  0.61730270  0.58079419  0.33121089  0.44486275  0.01387371  0.18212864 -0.24398608  0.29929308  0.16956188  0.35375699  0.53391741 -0.36576330 -0.29064335  0.27320186  0.20256876 -0.47853332  0.35323857  0.29664466 -0.17150310  0.07223257  0.11655481  0.10139459 -0.26765369 -0.54691196  0.19088190 -0.50677834 -0.65825662 -0.74627354 -0.40464851 -0.53975130 -0.40551162 -0.57941943 -0.73906257 -0.84677646 -0.89520739 -0.49758947 -0.44667603 -0.85948886 -0.80144035 -0.77360301 -0.95866238 -0.68933995 -0.48535986 -0.51752414 -0.60227950 -0.35442629  0.18315949  1.51590247  1.04209889  1.30924326  0.54307325  0.30883212 -0.10365335 -0.66227097 -0.91267674 -0.44975216 -0.59840879 -0.90051958 -0.43223812 -0.19468215 -0.57472685 -0.85714527 -0.65682684 -0.12269353 -0.50880368 -0.35326126 -0.37296364 -0.65713359  0.06663317  0.05014149 -0.24044170 -0.72887449 -0.54634194 -0.73595594 -0.37230484 -0.39951735 -0.52140455  0.05720608 -0.33170711 -0.42913439 -0.08529525  0.43563423  0.44677087 -0.42298946 -0.32191210  0.53471004  0.20837788  0.21487471 -0.19768256 -0.03124356  0.25679423  0.46938262  0.29131741 -0.28319890  0.41893680 -0.17386652  0.37297790  0.03028265  0.12034918  0.35562106 -0.04478349  0.71973315  0.41790564  0.17642688  0.73383391 -0.23046769  0.46312000 -0.14344754  0.43182591  0.71080904 -0.00217456 -0.09142384  0.68138396 -0.04950972 -0.03920511 -0.18776859 -0.09579571  0.54793533  0.37643176  0.04333222 -0.12914501 -0.02116034 -0.16360771  0.46467089  0.00060483  0.57620828 -0.37858298 -0.31757916 -0.11201261  0.00562865  0.29385168  0.10045380 -0.02166521 -0.02569358  0.55793417  0.01884132  0.06883345  0.35536899  0.21311111 -0.16484675  0.38335757  0.51517530  0.04957350  0.38479511 -0.20485327  0.31646206  0.46146348 -0.05308981  0.15687986
  0.01754937  0.19404958  0.23856596  0.38208777  0.43308538  0.11943616 -0.20828781  0.41220392  0.13759199 -0.12500838 -0.29006141 -0.44285911 -0.41042214  0.23727791 -0.03241389 -0.00692091  0.20705863  0.37182200  0.42639976 -0.09842403 -0.09659985 -0.42521124 -0.40848365 -0.28499124 -0.08644894  0.25272603 -0.23224368 -0.49091194  0.02844105  0.04256550  0.00057113 -0.45400959 -0.26338494 -0.26086292  0.42807817 -0.33029957  0.35857322 -0.28020965 -0.41809566 -0.00383480  0.09478195 -0.20815707  0.05330608  0.18435980 -0.47087918 -0.47910783 -0.32256112  0.23617944  0.39271416 -0.39616137 -0.36224461 -0.20388570 -0.32137262 -0.27072827  0.01112304  0.09217843  0.48199774  0.27887935  0.10126647  0.01043877 -0.17855517 -0.39816241  0.05642917  0.05805989 -0.15902535 -0.01549267  0.22776031 -0.30045214  0.20429766  0.30966464  0.19571306 -0.20092040 -0.39849244 -0.25098088  0.48343939 -0.36937163 -0.23008872 -0.33912174  0.36680780 -0.33737457 -0.23528313 -0.49543682 -0.04126028 -0.05665576 -0.26616511  0.46986275 -0.46447735 -0.28416738  0.24874208  0.13678912  0.22627138 -0.42981309  0.23862669 -0.21729946  0.12824678 -0.42039867  0.26720785 -0.14399293 -0.22085082 -0.02849451 -0.33432830  0.47486222  0.27058508 -0.23282076 -0.27611867  0.25402447 -0.10219240 -0.00620740  0.41490272 -0.23538461  0.15641802 -0.32038042 -0.23082145 -0.38484227  0.12296380  0.00301343 -0.41497954  0.15848644  0.21884603  0.33376253 -0.20472446 -0.05488260  0.40394942 -0.46609778  0.22781792  0.03219618 -0.38649647 -0.00497424  0.38820325 -0.10734730  0.46653124 -0.44612506 -0.13248509  0.23711632 -0.17894583  0.09139623 -0.00885923  0.21886176 -0.41481118 -0.09395653  0.48347713  0.24160683  0.08566304 -0.24734433  0.35676455 -0.29137318  0.25566908  0.44178499  0.36711325 -0.02548490  0.27554750 -0.33761122  0.41963248  0.17949691 -0.30370902  0.14745039 -0.28830692 -0.19020550 -0.35752386 -0.40010369  0.20244719 -0.39099263 -0.34622876 -0.43003790  0.34612367 -0.02517461  0.16135832 -0.16273557 -0.30631286  0.24654713  0.24330789 -0.32283574 -0.01184605 -0.17102909 -0.07018008 -0.15508152  0.03759773 -0.31451101 -0.21329654 -0.09528903  0.16000408 -0.43774904  0.06709974  0.07963656  0.24174786  0.26339071 -0.27291306  0.45344092 -0.42681480 -0.13043694 -0.44666278  0.27563239 -0.02142958 -0.29289155  0.34559447 -0.17530592  0.18193383  0.00695278  0.16195850  0.37562097 -0.24650010
 -0.09473363 -0.44721479  0.24165383  0.23423727 -0.01739487 -0.41342769 -0.22816501  0.16809411 -0.12672424  0.17654595 -0.17190182 -0.06447329 -0.25635432  0.40773473 -0.32272545 -0.49296362 -0.36517834 -0.36928453 -0.41977843  0.00438471 -0.31594732  0.35585395  0.48295512 -0.10883887  0.20144841 -0.19235081 -0.42690505 -0.29159882  0.46960768  0.44871591 -0.03809892 -0.12512596 -0.49849888 -0.29644509 -0.39088868 -0.01589375 -0.20987278 -0.11905369 -0.34779965  0.16340298 -0.44250774 -0.01970146 -0.40107031 -0.19886207 -0.11196673 -0.22379575 -0.19182569  0.02285493 -0.09308028 -0.11160412 -0.47276036  0.09097240 -0.25575017 -0.48980524  0.48213353  0.44569824 -0.18215606 -0.44477152 -0.34590058 -0.21254838 -0.49605561  0.11600050  0.16232566 -0.49455449  0.31955541  0.27143698 -0.01044825 -0.39031737 -0.34761672  0.14175211  0.27308562 -0.29012446 -0.37794936  0.37201531  0.01101347  0.01008391 -0.35178044  0.31918778 -0.46706116  0.05513927 -0.29241634 -0.43982153 -0.35388832 -0.04816651 -0.42962677 -0.37175480 -0.10246827 -0.11178283 -0.31652632  0.05163115  0.17566879 -0.31258193 -0.33236835 -0.16200554 -0.30713643  0.48718706 -0.39056857  0.18241533 -0.40313030 -0.23818528 -0.17583257  0.36995532 -0.02830974 -0.05378192  0.24197063  0.48270373  0.45630199  0.39019019  0.30189151  0.48924083 -0.05467054 -0.49052483 -0.45058070  0.09144113 -0.03869135 -0.38020747  0.21968634  0.35884038  0.00800970  0.40316002 -0.08952847 -0.31632150 -0.40942192  0.07810318  0.02167295 -0.21655834  0.06529024  0.13110439  0.46585699  0.16215994  0.39291910 -0.20997558  0.03211526 -0.13539064  0.23624250 -0.22591411 -0.15268691  0.19254449 -0.33572393 -0.35079540  0.18178531  0.10960553 -0.34132024  0.23120461 -0.29895334  0.11998842  0.35099714  0.42073300 -0.02117120 -0.14099315  0.32389302  0.38930033  0.04268534  0.41447110 -0.03259649 -0.43564170 -0.30208724 -0.46730625  0.19546268 -0.33623026  0.19485370  0.08838179 -0.04620584 -0.27303105  0.45299115 -0.30996334  0.00105484 -0.19969576  0.38258115  0.16533091 -0.05049117  0.06436646 -0.22506356  0.10818859 -0.20442893 -0.02401690 -0.27182299 -0.35343178 -0.10328390  0.20700581  0.00557506 -0.27939088  0.09630614 -0.45173959 -0.36491978 -0.43629035 -0.38738130 -0.16700702 -0.40359660  0.30808139 -0.00323727  0.29125710 -0.10353682  0.45055689 -0.48177395 -0.15054568 -0.35940645  0.01928089  0.14975856 -0.47682531 -0.31538820
 -0.40073403  0.08753969 -0.04045325  0.20745448  0.38311070  0.43552982  0.43563151 -0.47032103 -0.16775403  0.14263734  0.03525405  0.05285514 -0.26105644  0.08351453  0.18793544 -0.19734672  0.19613330 -0.47907154 -0.10094329  0.00421472  0.01769121 -0.30968618  0.40067790 -0.03175190 -0.29146013 -0.24986779  0.10884159  0.22782067  0.39989068  0.13201623  0.41243243  0.49915805 -0.28044262 -0.12801932  0.20661404 -0.39733040 -0.19248800  0.14224702 -0.36764999  0.13975941 -0.21511420  0.16760546 -0.30738408  0.02383072 -0.24887865  0.38055268  0.32648529  0.44725594  0.40148243 -0.27445671 -0.04852805 -0.08082506 -0.08414161 -0.14784888  0.38742429  0.12439952  0.10228462 -0.00373279 -0.14777844  0.00217670 -0.37171516 -0.23534462  0.00133614 -0.15215639  0.13663745 -0.29204842 -0.04948539  0.44415086  0.35020003  0.08286605  0.08391171 -0.36491271 -0.24952701  0.27652912  0.15891951  0.00159585  0.15708331 -0.01459368 -0.05114669  0.05856726  0.21095112  0.40032678  0.47774370 -0.37318899 -0.24752059  0.36516951  0.25121205  0.35476555 -0.13856175 -0.39656487 -0.14305623 -0.01027540 -0.13190803  0.35828128  0.33756953 -0.49526924 -0.43376567 -0.21191420  0.44888346  0.41643580  0.37095216  0.03279639 -0.44847504 -0.37857216 -0.19067302  0.21044559  0.12302498  0.46641179 -0.30414647 -0.42812006  0.02498065  0.40680616  0.47220817  0.00272577 -0.46638140 -0.27531099 -0.13210329  0.28483208 -0.42054401  0.22933639  0.38826863 -0.06359883 -0.28093759 -0.24363794 -0.20531601 -0.44336646 -0.23890555 -0.13908009 -0.15527921 -0.29002080 -0.22264264 -0.28432442  0.24277715 -0.17111641 -0.16289516 -0.44789430 -0.46066920  0.46013143 -0.48148097 -0.26481420 -0.46798721  0.04350107 -0.35800662 -0.49577761 -0.45377172 -0.32438659 -0.27108718 -0.08587357  0.46044695 -0.19162970 -0.35653570  0.34871704  0.24477293 -0.13747182 -0.39491940 -0.46054159 -0.08083679 -0.13382348 -0.09962020  0.26388548  0.07615722  0.17773865  0.47956256 -0.18106409 -0.49337618 -0.18333101 -0.12895684 -0.45404384 -0.22319803 -0.11043625 -0.21885648 -0.19118372  0.43306635 -0.07686159 -0.18695980  0.47929618  0.09875337  0.04195458 -0.10657585  0.05920184  0.35032638  0.03688996 -0.09207963  0.09510078  0.39941958  0.01300241  0.13456066 -0.18141570  0.37918051 -0.46505788 -0.41752854 -0.04466065  0.21268230 -0.43796451  0.27427668  0.21930747 -0.12129418 -0.35467883  0.26526492  0.15550902  0.03488613
 -0.40400423  0.50293361  0.00163105  0.00492728 -0.18961838 -0.02515704 -0.41339787  0.32354735  0.32946913  0.10641237  0.14856680 -0.14032375 -0.48003506 -0.25049429 -0.24003206  0.02413469  0.36886560  0.06455985 -0.10482597  0.39995158  0.14224840  0.34247885  0.10182161  0.19326710  0.11156498 -0.17738366 -0.42545524  0.25928973 -0.40915588  0.23674053 -0.19508622 -0.35179224  0.20976120  0.27353690  0.11465035 -0.51383857 -0.27870802  0.18219430  0.30602280 -0.43395152 -0.18564259 -0.02711357 -0.06263263 -0.15297296  0.24177252  0.22090891  0.39999432  0.14179750 -0.18375181 -0.17301732  0.07605370 -0.50354483 -0.29057404 -0.28070602  0.23348635  0.37054012  0.09198211  0.35605089  0.17314612  0.22370107  0.12942296 -0.49122314  0.39906180 -0.13228793  0.31684001  0.05005973 -0.11443757 -0.43114835 -0.23449253 -0.27937235 -0.33902284  0.10629291  0.22340556  0.13089443 -0.51468077 -0.00739759 -0.12162412  0.41168547 -0.33859798  0.22137894 -0.23418568  0.26429244  0.24267484  0.00350980 -0.48532327  0.00454674 -0.10085610  0.13400989 -0.10563322 -0.38498258 -0.09301178 -0.42569038 -0.32755354 -0.14539650 -0.00705145  0.54468202  0.47404719  0.47238722 -0.24594894 -0.20708971 -0.53085493 -0.09177036  0.50691426  0.48107612  0.51464969  0.39430560 -0.07635604 -0.13037830  0.29760389  0.08473735 -0.40519605 -0.43302862 -0.14993892  0.33881222  0.07844064 -0.11849100 -0.13328304 -0.49730952 -0.46117020  0.27791222 -0.37462227 -0.05515455  0.34454685 -0.21521513  0.27827230 -0.19442635 -0.21718543  0.18477069 -0.32373938 -0.12294956  0.38156022 -0.20987105  0.15604324  0.21149593 -0.34316447  0.09476307  0.05377652  0.04429801  0.43872237 -0.15941990 -0.37526383 -0.46252224 -0.08463315 -0.01156214  0.39164214 -0.49003860  0.39039604 -0.21335846 -0.45014830  0.46656370 -0.40021789 -0.29741507 -0.06186499  0.46789061  0.01100740 -0.25686780 -0.19891221  0.31373104  0.44444997 -0.00526354 -0.28715838  0.34606111  0.30302216  0.38772744  0.08279996  0.49338720  0.01820454 -0.32923217  0.06710863 -0.02548086  0.01256332  0.18666606  0.00996019  0.43024824 -0.31159441 -0.08125230  0.45166325 -0.41321482  0.20459467  0.49281119 -0.44918569  0.30649534 -0.30627769 -0.02282105  0.25319548  0.18140854  0.20659114 -0.43892393  0.01862970  0.17682234  0.07132061  0.23927829  0.03125746 -0.10629389  0.15949480 -0.34924618 -0.08211785 -0.30878176 -0.18984091  0.45260247  0.12234452
  0.22534296  0.05242365 -0.44006489  0.14610017  0.23843569 -0.01794902  0.10781600  0.33546347 -0.30574865  0.10185410  0.38143858  0.49351640  0.29597939 -0.12653562  0.27494836  0.00325131 -0.41029966  0.31828297  0.49260085  0.24356940 -0.12011567  0.24004470 -0.20815019  0.28476904 -0.10526008 -0.08425983 -0.35634770  0.00400912  0.12587629  0.49141520  0.53166652 -0.16365437  0.06538970 -0.37470294  0.50270969 -0.19542465  0.09797046  0.09972178 -0.37909292  0.24987060 -0.35157380  0.44837261  0.19607262  0.40330383 -0.21935210 -0.07437470 -0.13848612 -0.17461625 -0.30443403 -0.20601960  0.49700741  0.00616754  0.46565917 -0.27911566 -0.29718800 -0.25220502 -0.00051734 -0.28850595  0.14094573 -0.45639615 -0.37137249  0.08993476 -0.20869646  0.10326215  0.12110058 -0.29320975  0.32183289 -0.36477552  0.22657824  0.36901855  0.32554724  0.32926195  0.27759959 -0.01483388  0.19251655 -0.48255725  0.36077976  0.50352883 -0.20606520 -0.48444913 -0.23012036 -0.22735268 -0.00338065 -0.29290207 -0.04345064  0.16052816 -0.07523103  0.43548412  0.35543384 -0.45988594  0.44708648  0.47261407  0.14495093 -0.23668221  0.09432181 -0.21345010  0.00936495 -0.00025959  0.04638202 -0.25969297 -0.43700172 -0.22192384  0.64284256  0.62286250  0.22944971  0.20509094  0.55204584  0.04467342  0.17872005 -0.19183857  0.01148148  0.40775102  0.05538823  0.48919417 -0.40625401  0.48912071  0.12789087 -0.00301692  0.39990698 -0.04538083  0.00712425  0.31455336 -0.11660019 -0.41234293  0.50239015  0.40070223 -0.21294896 -0.10813178 -0.26686369  0.10996233  0.00858359 -0.05753545  0.26172574 -0.05170396 -0.08800312 -0.12147758 -0.43121056 -0.10853802  0.35854219  0.18775896  0.15628406 -0.16887193  0.06097344 -0.32012929 -0.20115570  0.14066126 -0.34414658  0.41090576 -0.38140641 -0.46682101 -0.15354800  0.11571072  0.34215760  0.22242464  0.19647467  0.33277273  0.10844308 -0.53223426 -0.28574202  0.33394986  0.06874675  0.21270834 -0.23991803 -0.18537469 -0.35188580  0.15810759  0.18162674 -0.29026949 -0.44741604  0.05725534 -0.56816518  0.24773042 -0.57036634  0.03621001 -0.53461032 -0.23542772 -0.27743310 -0.32180339 -0.26542947 -0.10175859 -0.23878557  0.11751775 -0.46260697 -0.37871565 -0.13335155  0.27208216 -0.49258087 -0.46545561  0.29269760 -0.23030307  0.41756460 -0.07239623 -0.43269581 -0.22318157  0.33978027 -0.19183317 -0.47607129  0.10930588  0.10099945 -0.34056567 -0.25599475
  0.12288781  0.49406312 -0.23984973 -0.26940821 -0.46853122  0.09238162  0.01140373 -0.24355639  0.36842489  0.44898054  0.05612272  0.03069699 -0.46117224  0.23402647  0.45250359  0.36157121  0.28506613 -0.47295679  0.19676613 -0.40168912  0.48645213 -0.34586780 -0.31828601 -0.23081866  0.49505040 -0.01273530 -0.20727744  0.10892351 -0.40287970 -0.03776182  0.36664273  0.22002557 -0.04367410 -0.37317643  0.45065182 -0.01216917  0.21924215 -0.03790808  0.24430919  0.08769960 -0.08889895 -0.19954420 -0.38158346 -0.05005114 -0.46549568 -0.42905628 -0.18845561  0.31959596 -0.40198644 -0.49166187  0.41793598 -0.41550407 -0.33750014 -0.40032153 -0.14629492 -0.34242280  0.08696857  0.14645132  0.26652319  0.18411111 -0.39128776  0.13318913 -0.09583998  0.06506135  0.26003647 -0.14516357 -0.44708279 -0.02069583  0.31695491  0.29725360 -0.43296910 -0.27191613 -0.40226114 -0.31452159  0.17806370 -0.36772639 -0.24354733  0.48963785  0.45189920 -0.14550432  0.49800529  0.36986401 -0.06097995 -0.33946646  0.46957062  0.29275250 -0.18186303  0.05656599 -0.06076869 -0.41531345 -0.25929949  0.04796369  0.21789289  0.14487305 -0.38697009 -0.02206999  0.49971315 -0.33403931  0.45725236  0.31664612  0.46312422 -0.47573630 -0.45521238 -0.43901653 -0.29021342  0.22285742 -0.30673254 -0.03374100  0.21251728 -0.35481555  0.32076489  0.21052823 -0.48494888 -0.24021591  0.37105727  0.48461584 -0.44746885 -0.31081080  0.04117501 -0.00824639 -0.22613348  0.28186691 -0.46029055  0.49175312 -0.07326161 -0.34725435 -0.03030500 -0.07353535 -0.18128388 -0.07304305 -0.25683939 -0.21804574 -0.04873659 -0.21204631 -0.15705638  0.16105939 -0.48918007  0.03621591 -0.37268375  0.22333147  0.18139270  0.44807345 -0.06614819  0.19643756 -0.29214642 -0.19509296  0.18105221 -0.23961504 -0.00590097 -0.27776834  0.25214338  0.26797000 -0.49589518  0.29186062  0.25973221 -0.06914785  0.44461616 -0.27056145  0.35733033 -0.23665265  0.15641175 -0.39949247  0.04531883 -0.39230670 -0.11151940  0.38828251  0.26877223 -0.10068012 -0.07548100  0.39611106 -0.37732477 -0.39406359  0.34420879  0.05655055  0.30239878 -0.44791130  0.36148325 -0.01652456 -0.18750411 -0.14439691  0.20572821 -0.43533909 -0.37640702  0.20984896  0.35653538  0.38334034 -0.35928075  0.30117188 -0.38719976  0.49807124 -0.43546026  0.26923034 -0.40140584  0.10987244  0.37693699 -0.01291304 -0.00183401  0.14571935  0.38641530  0.42269062  0.04183046
 -0.49089226 -0.47135359 -0.11393740  0.06566211  0.33104714 -0.06184889 -0.07285534 -0.18547811  0.25064624  0.28274678 -0.47975116  0.31530578  0.40634016  0.23010109  0.17184636  0.28968639  0.37082647 -0.02697629  0.40249149  0.36890144  0.03756661  0.17172582  0.46750080 -0.35255548  0.04866846 -0.04540577  0.14561814 -0.30560363 -0.15898040  0.06832178  0.23624475 -0.14987267  0.09696818 -0.37769265  0.41578944 -0.07198468  0.06045846 -0.15706590  0.24253720 -0.18889531 -0.37431912  0.26278604 -0.37358953 -0.46797896 -0.00711287  0.29825683  0.32170743 -0.13628640 -0.22871946  0.22419891 -0.26738496  0.30884715 -0.10407527 -0.29988416  0.45629167  0.44459319  0.15471007  0.10190980 -0.36101044  0.49572967 -0.32976842  0.37523431 -0.15414300  0.26719975  0.49754167 -0.23835356 -0.30478493  0.05800012  0.10458054  0.43775227  0.36910481  0.23026142  0.20053831  0.49551528  0.26228245 -0.30657457  0.29377211  0.08398988  0.05713903 -0.43494735 -0.19181121  0.28975407  0.37389979  0.20411352  0.48986990  0.33019146  0.14870671  0.14457998 -0.06789874  0.28769627  0.14030964  0.10233284  0.16293059  0.48616664 -0.13046741  0.16047225 -0.25218692  0.06474766 -0.28152763  0.35239361  0.00249993 -0.41242282  0.08265503 -0.29696177 -0.41690754 -0.15506252 -0.10353634  0.37686457  0.42892735  0.45360269  0.44191722 -0.26288386  0.24335675  0.31581701  0.44122966  0.23322665  0.14600846  0.08993637 -0.12219337 -0.42189028 -0.12236736 -0.48188373  0.18044256 -0.45943678 -0.49571710 -0.45002485  0.20103547 -0.24790403  0.11472280  0.41950784 -0.39551042 -0.38277727 -0.49291498  0.18714461 -0.17973904 -0.40982252 -0.46791792  0.21672462  0.46704205  0.46100943  0.17032731  0.40895927 -0.30187443 -0.08631594  0.22477627 -0.36064477 -0.35308929 -0.12921527  0.22929159  0.02471734 -0.05110555 -0.39307577  0.04283360 -0.37066299 -0.35251255  0.04711650 -0.32068785  0.34852292  0.29921247  0.29403495  0.26803076  0.40370206  0.41125768  0.27511578  0.09084667 -0.26848137  0.36529327  0.12292875  0.44824325  0.33233532  0.08393818  0.11857056  0.24129458  0.28206375 -0.46774538 -0.03392915  0.42141898 -0.32083467  0.33685558  0.15071057  0.20388266 -0.21424997  0.25763480 -0.25328374 -0.08491296  0.40512225  0.29383276  0.09439919  0.25364517  0.09304523 -0.11156586  0.02167593 -0.00325271 -0.20030818 -0.20320829 -0.41240605  0.03121045 -0.33791503  0.21052270 -0.02054630  0.49442029
 -0.20553913 -0.40197575  0.23571487 -0.42347538 -0.36972113 -0.29821428  0.49794359 -0.19055581 -0.46135870  0.14865416 -0.48667315 -0.17560867 -0.09371105 -0.23995689  0.23947837 -0.18858881 -0.44612414 -0.16612245 -0.43494364  0.14692109  0.22231169  0.08673228 -0.35633162 -0.47799649  0.38352399 -0.26873767  0.05321395 -0.45439104  0.44178502 -0.46733235 -0.45997076 -0.26375411 -0.36930809  0.27574411 -0.18722949 -0.23902923  0.47752983 -0.18928590  0.07041496 -0.48382887  0.45936825  0.08374181 -0.15943755 -0.13434280  0.34378492 -0.41995918  0.17706839  0.39766078 -0.08608163  0.24212475  0.04458188 -0.36376994 -0.17114298  0.18825026 -0.34176643 -0.28761899  0.41951259  0.21144752 -0.24201003  0.36129761  0.24411517 -0.20198079 -0.40245650  0.37480708 -0.42623668 -0.08968599 -0.36422215 -0.44870685  0.22102810  0.20619281 -0.43253573  0.18039636 -0.21006537 -0.09197327 -0.45394645 -0.36628045 -0.01193246  0.22312194 -0.46861967  0.40198592 -0.03475331  0.07596221 -0.46178402  0.29410371 -0.23578754 -0.30355045 -0.49351528 -0.31627496  0.40789707 -0.23552532 -0.45497735  0.15201224  0.06249389 -0.35743385  0.02681932  0.13625721  0.05288015  0.16259717  0.18755036 -0.22609175 -0.13121002  0.25501463  0.45430461  0.15872461 -0.33695864 -0.49964184  0.29244415  0.15110890  0.22348010  0.32382448  0.05309481 -0.31127321 -0.10021331  0.09131079  0.48283050  0.16399915  0.28776034  0.48931522  0.34772419  0.19565741 -0.24621010  0.39274684 -0.15233035  0.31628379 -0.46468702  0.37448897 -0.04745900  0.08819313  0.03708614 -0.35990864  0.36210138  0.40587612  0.39510599  0.31640599  0.06460073 -0.44185265  0.31676415 -0.14295512  0.20925624  0.04024425 -0.31913064 -0.23764895  0.22897104  0.08065605  0.35366184  0.21180154 -0.25534481  0.14142218  0.20111676 -0.40762062 -0.16292042  0.45490666  0.48512622  0.18474923  0.27119045 -0.47956080  0.05923820 -0.27626855  0.10863233 -0.40367566 -0.13617719 -0.02926629 -0.49779955 -0.24107120 -0.21286030  0.06680118 -0.18292385 -0.39609615  0.42384606 -0.47366761  0.14414810 -0.39528457 -0.21131656 -0.12688087  0.18537147 -0.35765471 -0.41507933  0.43002666  0.28376746  0.28603743 -0.47759396 -0.37915295  0.24094409 -0.49246774  0.30559628  0.01213454 -0.47202855 -0.13516553  0.23586599  0.13660378 -0.03884119 -0.40031120 -0.39266251 -0.03664074 -0.14138239 -0.10552281 -0.46983956  0.17569375 -0.00161897  0.45400651  0.20202614
 -0.35751429 -0.44133073  0.49064481  0.01557423  0.24401372 -0.36702729  0.10048490  0.17403352  0.41673427 -0.11348184  0.19643955 -0.46241534 -0.37253358  0.20397453  0.34318211  0.13960116  0.23194596 -0.29198226 -0.12453045 -0.13144715  0.16917838 -0.02484107 -0.02410964 -0.36746232  0.33377683  0.37036762 -0.33730292  0.00946855 -0.13125414 -0.38329784 -0.28850403  0.01127931 -0.32456941 -0.29778747 -0.47306554  0.41953064 -0.16472711  0.12750791  0.09365452 -0.24790204 -0.48588473 -0.20982084 -0.21023381 -0.35833296  0.49424155 -0.36696347  0.28135535  0.22627256 -0.15886313 -0.34309437 -0.40509443 -0.48960409  0.13214613  0.07087755 -0.35698496 -0.03399497 -0.05867256 -0.19420502  0.47555681  0.31015722 -0.07742011 -0.31286695 -0.17848607  0.09808590 -0.11058015 -0.15147896  0.01768627  0.22476067  0.47609554 -0.38859454  0.47692317  0.49027566 -0.09834991 -0.23324576 -0.36799401 -0.10404717 -0.10014857  0.41342117 -0.37771458  0.24104819 -0.42961313 -0.28274894  0.25150354  0.20259211  0.28818753  0.39457683 -0.33134571 -0.27042913 -0.29957335 -0.35573313 -0.46021394  0.12306544 -0.16854270 -0.13864286 -0.27878790  0.22094212  0.20994677  0.23896957 -0.05421704  0.18611293  0.35039475 -0.07722798  0.17646624 -0.24784219  0.18957789  0.30851697  0.14816533 -0.41051225  0.22200088  0.27051975  0.33060993  0.29246217  0.48784409  0.08218805 -0.00486798  0.27611135 -0.02315521  0.16386636 -0.49423594  0.17735509  0.30821698 -0.45436634 -0.19949452 -0.36023792 -0.09292094  0.02180309  0.36078647 -0.38289411 -0.23915154 -0.19336553  0.30329047 -0.38863906  0.22946796 -0.02018552 -0.13641085 -0.08087754 -0.21158778 -0.48816121  0.00869627 -0.48950068  0.28244037 -0.16061373  0.30304025  0.27036451  0.42165252 -0.20175131  0.04655106 -0.10142783  0.46218990  0.05239054 -0.42399817  0.27047892  0.09809474 -0.12342274  0.41030989 -0.49475852  0.39844756  0.27116345 -0.37758436 -0.34063586 -0.42213675  0.42576682 -0.22921609  0.30739173 -0.09435554  0.13443708 -0.27342450  0.19411404  0.14633066  0.23532590  0.20466715 -0.07117170 -0.42522788  0.00776599 -0.30075196  0.49647648  0.30606524  0.24585191 -0.10489687  0.26830934 -0.20170405 -0.02884195  0.03883982  0.39643932  0.34778232 -0.05080076  0.40173417  0.24628771 -0.27957720 -0.47579070  0.40570725 -0.20166208  0.45002569 -0.32345819 -0.39421686 -0.14427567  0.31103359 -0.16758297 -0.45009972 -0.04257320 -0.43220074
  0.25545759  0.38712455 -0.35658166 -0.23678882 -0.41363648 -0.36010163 -0.43070952  0.33223539  0.03502467  0.33762944 -0.36943347 -0.49378281 -0.12350561 -0.47298388  0.35399629  0.32568725  0.42875276  0.10030218 -0.45385881  0.45300116  0.00605469 -0.15546304  0.40309623  0.18267489 -0.04959290 -0.24108678 -0.00620358  0.28288874 -0.19113873  0.45126912  0.35075617 -0.43643095  0.33766355  0.49346529 -0.17390662  0.42336013 -0.36729460 -0.10527021  0.25494808  0.16708814 -0.26828505  0.38486108  0.17265272  0.10757968  0.41128774  0.02610005 -0.06725793  0.33952550 -0.37411286 -0.02163836  0.29199661  0.13139969  0.32235511  0.19455330 -0.18646118 -0.22778781  0.45289854  0.30675272 -0.44548367 -0.23882664  0.25742594  0.40465972 -0.17588880  0.09444759  0.39747363  0.14953691  0.01712639 -0.47051593 -0.45644001 -0.22864132  0.19584966 -0.22544977 -0.34449730 -0.13220931  0.38141277 -0.43393762  0.39315456 -0.18659286  0.40483433 -0.48171706  0.29100923  0.19607574  0.14893407  0.11261081 -0.11013143  0.46170399  0.38404634 -0.15801705  0.26765839  0.43775118  0.10234113  0.02427357  0.34161147  0.42566416 -0.38206533  0.23827142  0.07433834  0.13414699  0.26682594  0.11698700  0.40461605 -0.03812039  0.39079976 -0.44054622  0.32900846  0.27156506 -0.37514772  0.22144781 -0.41579343 -0.47109960  0.23894915  0.37444834  0.22422283 -0.11286157 -0.01368688 -0.38666384 -0.15192270 -0.13040807 -0.04544212 -0.38501187 -0.19338982 -0.44382279  0.13854754 -0.35248975  0.48112973  0.25577583  0.38509787  0.05483213 -0.11065843  0.15138377 -0.32869628 -0.20652727 -0.38727261 -0.43846175 -0.14767503  0.44108343  0.33240440 -0.02354372  0.16180626  0.41589688  0.00463781 -0.09996955  0.28960440 -0.27189136  0.28640069 -0.22485937 -0.15933208 -0.36629493  0.14396794  0.29446766 -0.25206470  0.44981837  0.34989053  0.38572941 -0.40343642  0.33023978  0.14071674  0.48087169 -0.11571873 -0.47073183  0.13147376  0.05481224 -0.17802253  0.24344155  0.11559140  0.17353930  0.18374736 -0.05280138 -0.35081594 -0.15526169 -0.13771836  0.15302610  0.24398067 -0.34890139  0.38034892  0.02959153 -0.07456334 -0.27979552  0.16247781 -0.43141558 -0.48614212  0.40960672 -0.48240379  0.36293229  0.29451227 -0.38666361  0.19234746 -0.06559462 -0.40661145 -0.42418612 -0.03713983  0.22404191  0.12978693  0.28397837 -0.03338830 -0.25549818 -0.04335518 -0.35049851  0.19086691  0.10501208 -0.00658092
 -0.43173375 -0.23406454 -0.24122224 -0.25693576 -0.32483827  0.28053591  0.12693861 -0.14779725 -0.09190735  0.17039254 -0.14721483 -0.16965951  0.21298914 -0.25959480 -0.34388002  0.37679744  0.49576586  0.14669322  0.50037282  0.57334920 -0.40596434  0.19738794  0.16912680  0.34702625 -0.34763232  0.41620232 -0.19378100 -0.21062857  0.09484351  0.40348736  0.27732217  0.13599626 -0.36703868  0.47555996  0.29789949 -0.26884127  0.20392578 -0.10902138  0.06699980 -0.36569614 -0.40296245  0.44340864 -0.03850640  0.28962312 -0.34468506  0.07309564  0.10143243 -0.42661359 -0.36237255  0.02636695 -0.42094768 -0.33528116 -0.33899207  0.18935097 -0.54130608 -0.24201980  0.05845367 -0.27414738  0.01522030 -0.37816753 -0.39763625 -0.22822862  0.24271530 -0.26875994 -0.24025774  0.06428445  0.00133726 -0.48397244 -0.48607837 -0.37610493 -0.30513742 -0.34724650 -0.38620919  0.21129913 -0.49100334 -0.16133350 -0.13993795  0.18750696 -0.01397734  0.06835569 -0.22045258  0.12634788  0.29832839  0.00934332 -0.10858031  0.33487066  0.34480324 -0.46784624 -0.34873803 -0.04220669 -0.25225566 -0.19000791  0.21150139  0.38163033 -0.14473270 -0.70844243 -0.13377273 -0.61997028 -0.68572366 -0.25212169 -0.70393630 -0.55404161  0.08326202 -0.28349005 -0.64005370  0.14213203  0.08198054 -0.14926052  0.05853758 -0.19600164 -0.41925871  0.40929251  0.42683716  0.34150259 -0.12596786 -0.21779978  0.14985167 -0.30499878 -0.21610964  0.25814314  0.09821301 -0.02651531 -0.47213969 -0.16907186 -0.03722923  0.08317767 -0.12720515 -0.42952777  0.18835093 -0.02106072  0.22591826  0.44631578  0.30912685  0.07082612 -0.14136443  0.38543440 -0.05229773 -0.36588188 -0.15898831 -0.46394385 -0.09119577 -0.12486645  0.39656264 -0.20128466 -0.30739430 -0.24806746  0.06749087  0.33683273 -0.04477040  0.37036425  0.12418117 -0.41450710 -0.11740491  0.19063466 -0.05189357  0.37398138 -0.20109055  0.34082142  0.46470292  0.52165239 -0.12450246  0.25245767  0.54131152 -0.23243605 -0.07719955  0.01655278 -0.23496940  0.45957596  0.21038409  0.13943165  0.50894439  0.63298499  0.55181103  0.47508794  0.04345187 -0.13190556 -0.17833150  0.65955100  0.71422498  0.26362720  0.51719524  0.32709289  0.32973201 -0.14329855 -0.06693418  0.64824824  0.57478665  0.08349167  0.39299153  0.48804636  0.06573438 -0.28567065  0.17846511  0.04522975 -0.08438287  0.49721615  0.41794861  0.00881863  0.26207414 -0.09853295  0.39793268
  0.14339901 -0.09876282  0.28392761 -0.22631019  0.08859188  0.30307511 -0.23429195 -0.06772585  0.21418384  0.25116219 -0.31747868 -0.23652416 -0.21975341 -0.27296627 -0.09906660 -0.31974208 -0.39700261 -0.68474486 -0.59955468 -0.58609085 -0.27648266 -0.47972561  0.04149011  0.22504273 -0.13810468 -0.04584949  0.06448325 -0.72864001 -0.37704176 -0.59833722  0.16227344  0.18314257 -0.23754107 -0.06933263 -0.53611563 -0.63751748 -0.24737795 -0.23068005 -0.14909265 -0.45733537 -0.40656334  0.11097234 -0.12026703 -0.03173738 -0.53293889 -0.55709358 -0.66891754 -0.21503635 -0.48688295 -0.48173764  0.02007966  0.05525062 -0.16909315 -0.18040018  0.04563454 -0.54694981 -0.46705794 -0.13901744 -0.53083306 -0.09632247  0.03354936  0.40798009 -0.15987794 -0.47509273  0.07937713  0.05695435 -0.35551451 -0.42550912 -0.43548483  0.24262178 -0.14950438 -0.12530512  0.07017522  0.45852627 -0.43293199  0.25141571 -0.36953159 -0.38227820 -0.24667586 -0.15201413 -0.17482030  0.44659135  0.58352772  0.32454754 -0.06874717  0.28896290  0.42433153  0.10340145 -0.21400293  0.53905331  0.65119870  0.43503932  0.54682618  0.07919257  0.51147658  0.13189721  0.61851950  0.68002933  0.28380138 -0.48275010 -0.15326396  0.47404213  0.19222962  0.02325871  0.54134808  0.12889654  0.69810781  0.62595874  0.17951821 -0.14204190 -0.14987037  0.36659439  0.66052734 -0.21460818  0.03904058 -0.06335140  0.41524367 -0.20124050  0.36796765  0.52004156 -0.35362866  0.31690143  0.24193775  0.46889374 -0.32676850  0.05189593 -0.08686413 -0.37684478  0.03356959  0.45766301 -0.36667547 -0.26517907  0.33652991  0.01507757  0.00235730  0.15340850  0.40811981 -0.02696700  0.05383742 -0.10740341  0.13517478  0.22784628 -0.41300602  0.13930865  0.34369346 -0.04676521  0.41700829  0.12345997  0.14167776  0.20167053  0.07491908  0.22174713 -0.02483649 -0.21176956  0.15865459  0.09556599  0.28278146 -0.46868745  0.19193950 -0.20243772  0.47512232  0.30966239  0.03271844  0.33605121 -0.11903867 -0.38349093  0.05494129 -0.19284096  0.06626423  0.56843398  0.15994019 -0.29917784  0.29308149  0.23317039  0.34182382  0.16653174 -0.28063328  0.29446412 -0.18410592  0.37578787  0.00637912  0.40457743  0.11603857  0.48829192 -0.30132400 -0.19973918  0.11554868  0.51163632 -0.14932593 -0.19432281 -0.21939666 -0.23373600  0.51402786  0.18616608  0.47788856 -0.22471641  0.17509948 -0.08677054 -0.00269610 -0.31449749 -0.09141934
  0.37674410 -0.39654136 -0.56341198  0.01367936  0.31675052 -0.04616635  0.09019226 -0.01582189  0.16132831 -0.12741154 -0.60318789 -0.03863649  0.37320456  0.27074512  0.05518147 -0.42645394 -0.21826026 -0.05969080 -0.21540341 -0.05702683  0.07621503 -0.07145973 -0.13185077 -0.32489652 -0.20732731  0.00245834  0.19853587  0.04741905  0.33061697  0.21619591  0.31350967  0.25956211  0.37495127  0.31867367 -0.13559731  0.30315909 -0.09848642 -0.40828397 -0.08076845 -0.31958224  0.07222790 -0.07061226  0.25935933  0.05875341 -0.20745100 -0.12255314  0.16554198  0.08047328  0.29996167  0.40917441  0.46266288 -0.19743225 -0.25095998 -0.27193140 -0.13428809 -0.06617904  0.13351133  0.48178916  0.41458532 -0.08882200  0.15371587  0.18889976 -0.36472107 -0.00839726 -0.03766781 -0.05160129 -0.25912799  0.30706331 -0.01721638  0.10728316  0.43877965  0.51002144  0.49055788  0.15047690  0.02220809 -0.25966338  0.48492282 -0.35336043  0.28098091  0.24696972  0.51870197  0.20414399  0.50352240 -0.28184533  0.37964255 -0.18250772  0.10164479 -0.04346868 -0.26779494 -0.05634511  0.30135937  0.33205842 -0.42916453  0.34560672 -0.29645082 -0.09914342 -0.34413853 -0.18254336 -0.37654206  0.20245811 -0.33414147 -0.38437244  0.04871030 -0.67238759  0.13763955 -0.40987187 -0.36643110  0.20027822 -0.19156380 -0.53200786 -0.02910187 -0.17642306  0.16124755 -0.02456586  0.05193586  0.05007003  0.29398301 -0.34803010  0.51337276 -0.45306686  0.12538454  0.34723411  0.41439387  0.24639998  0.27339921 -0.26775559 -0.20382565 -0.38597395  0.25557794  0.11444311  0.40346738  0.35492128  0.33813210  0.16552858  0.40460916  0.17228429  0.41156188 -0.34522842 -0.04693045 -0.23651261 -0.34830270  0.44898934  0.11142635  0.32443979 -0.07961269 -0.35168063 -0.14614993 -0.31202058 -0.23196637 -0.16872103 -0.30146181  0.35859117 -0.36239355 -0.43265226  0.06449294  0.37940654 -0.22809658  0.33231758  0.46148348  0.49207951 -0.09474375  0.32048481  0.29823744 -0.30924642 -0.06990813  0.14422101  0.30745263 -0.20845748  0.25678831 -0.27326460  0.02911955  0.37824511 -0.36446444 -0.40640777  0.14930661  0.00322696 -0.30245164 -0.53176934  0.16869133 -0.04518429 -0.20895635  0.36107918 -0.18202365 -0.04546997 -0.52782494 -0.57191004 -0.13127750 -0.23643964  0.26517217 -0.16756293 -0.23109241 -0.29967883 -0.30912592 -0.40432924 -0.09932717  0.12101308  0.24482073 -0.26969707 -0.54236277  0.06751457  0.03967555
  0.13672096  0.09153039  0.31806823  0.31751969 -0.16111046 -0.07035432 -0.36890454 -0.07456195 -0.28255836  0.20679293  0.33933864 -0.29912259 -0.35949607 -0.10333594 -0.23807392 -0.35337802  0.33777177  0.09857689  0.48583825 -0.25750706  0.43230058 -0.26184617 -0.02050557 -0.41814455  0.20679781 -0.31914194  0.41816789 -0.46781233 -0.27159209  0.06779087  0.14085152  0.36531579 -0.34049358 -0.04089684  0.18301888 -0.00141875  0.38893772  0.31430570  0.42421186 -0.39342573  0.02129507  0.26374855 -0.19234946  0.16199903 -0.33938609  0.06977852  0.30882206  0.49858552 -0.33144548  0.29485975 -0.25872102 -0.39894399 -0.46678411  0.22097736 -0.31688236  0.24022002  0.40204199 -0.39850833  0.27261400 -0.36934373  0.16948980 -0.08632612  0.49618132  0.32920633  0.37298816  0.17941158 -0.17200022  0.26213881 -0.00606928 -0.24757439  0.36892675 -0.48456058 -0.48361181 -0.32320780  0.17765428 -0.32278197  0.24678691 -0.01330787 -0.32398073  0.41555721 -0.21823236 -0.08248586 -0.48316989 -0.18479975 -0.36129173 -0.29983586 -0.44436392 -0.45903379 -0.19812773  0.32846682 -0.32816138  0.47157521 -0.25765191 -0.33177999  0.30097604 -0.38446590  0.34784155 -0.37080299  0.37789197 -0.15802421 -0.11818064  0.24702042 -0.14236299 -0.10156677  0.42402987 -0.46450857  0.07584837  0.17102469  0.02240290  0.25209024  0.08679901  0.30438037 -0.33019132  0.10383081 -0.38021880 -0.19128255  0.30419575 -0.32438203 -0.15011644 -0.39373304 -0.49571685  0.02192050 -0.42195833 -0.25316460  0.19035158  0.37923518 -0.13741218  0.03840664 -0.49135946 -0.25930921  0.38060261 -0.10931909  0.48792996 -0.26155184  0.28931980  0.41217106 -0.22584374 -0.13461521  0.08340636  0.29676385 -0.38232400 -0.32959436  0.10134400 -0.21231565  0.27443683  0.22132638  0.09660395  0.07883566  0.39714837  0.44669256  0.18530880  0.40163883 -0.03117827  0.26356025 -0.35131525 -0.34061598  0.14300551  0.01148160  0.19799917  0.15185554  0.25238364  0.07881402 -0.45725039  0.24052701  0.31747643  0.33228582  0.15291662 -0.40814765 -0.30211011 -0.26345963  0.38883123 -0.18422033 -0.09283860 -0.00960570  0.10368795 -0.31817481 -0.28805261 -0.29948391  0.26088198 -0.39068607 -0.35257624 -0.05359744 -0.48883935  0.11644892 -0.28983908 -0.33996223  0.27602244  0.35335681  0.17171539 -0.02577694  0.00541736 -0.07569488 -0.44675582  0.04837529 -0.33495867  0.37092837 -0.11913410  0.31815940  0.46297843  0.07894920 -0.44510997
  0.51577470  0.55942064  0.12070700 -0.01418880  0.10960403  0.22756686  0.11161727  0.21800063 -0.10704466  0.11717960  0.27141627  0.25202002  0.06733358 -0.14090697 -0.55145088  0.20343160 -0.39261689  0.29239842 -0.10235904  0.11621326 -0.16898638  0.33406378  0.17151162  0.39290907 -0.46282745  0.09642094 -0.18605372  0.39513941  0.09700677  0.44141642  0.49642707 -0.00790291  0.37460645 -0.00373094  0.37696209 -0.07446011 -0.31114697 -0.02495102 -0.33226969  0.12316461 -0.33890816  0.51920613 -0.01088587  0.34707201 -0.00486624  0.06362747  0.19506013  0.24226506 -0.01733444 -0.29469885 -0.04771217  0.39325499  0.62005491 -0.29634010  0.34509238 -0.30583042  0.31694536 -0.33108385  0.58601605 -0.10477665  0.56659062  0.51609386  0.30335099  0.34702250 -0.09509774  0.05370828 -0.37794661 -0.07161250  0.34722080 -0.41441653  0.35151546  0.30184327 -0.60744352 -0.37889880 -0.07582729 -0.34252389 -0.05438776 -0.62009406  0.16024123  0.19011341 -0.64956859 -0.61232296 -0.13434282 -0.73900910 -0.61066508 -0.48410145 -0.72584181  0.03971874 -0.46045848 -0.75696913 -0.64481575 -0.41230634 -0.67311644 -0.67643878 -0.30043366  0.08227262  0.31761477  0.37297044  1.26886260  1.53380925  2.40930703  1.92912743  0.66873436  0.54344539 -0.07075457 -0.44541261  0.37664708  0.17240580 -0.66454570  0.03294570 -0.03796172 -0.61585633 -0.79302092 -0.31994343 -0.45097821 -0.46156079 -0.83169513 -0.18360641 -0.41399205 -0.27830624  0.07038329 -0.06400802 -0.73456372 -0.70941588  0.05171831 -0.37647421 -0.12414816 -0.30337970  0.11336930 -0.06851161  0.24924784 -0.24059784 -0.07298275 -0.28985331  0.42964348  0.20121410 -0.21323169  0.46467879  0.14756040 -0.01355717  0.43112554  0.08000533  0.35575701 -0.37867338 -0.26709078 -0.13781553  0.09599713 -0.18441997  0.56422089  0.54426358  0.37490691  0.45188102  0.26907964  0.40408275  0.46798259  0.02644351 -0.28215947  0.01173364  0.36186925  0.44022339  0.52591130  0.17765459 -0.24867446 -0.01388425  0.39392543 -0.33753730 -0.34632502 -0.36414118 -0.43997089  0.20489154  0.00185874  0.35790923 -0.34717944 -0.27950321  0.32868417 -0.28027166 -0.08587060 -0.24560219 -0.13495916 -0.19934501 -0.38114223 -0.43718974 -0.42465667  0.21103608  0.28830545 -0.62740943 -0.41739420 -0.62531181 -0.22790491  0.34891339  0.24090357 -0.25413847 -0.00512854  0.47879776  0.23778358 -0.08189912 -0.31926812  0.41336859  0.04708872 -0.28059684  0.10994767
  0.39361832  0.42736454  0.12257525 -0.34662861  0.31259307  0.41870014  0.15152760 -0.33776393 -0.10716102 -0.42633997 -0.08947573  0.09360908 -0.20466519 -0.22342556  0.04685126 -0.16538084  0.01763870  0.06773821  0.23798330 -0.02048971 -0.10274779 -0.45597903  0.49896597 -0.13731387  0.23046009 -0.17739785 -0.09059074 -0.00349838  0.21774915 -0.03224191  0.44286107  0.11136732 -0.10487751  0.06543619  0.26473858 -0.29228458 -0.01586380 -0.08373396 -0.13004864  0.37697504 -0.01007406  0.28047548 -0.02941602  0.28526062 -0.44295020 -0.48256489 -0.38012035  0.07468837  0.08517320  0.35786282 -0.44580146  0.48242529  0.40188367 -0.44683562 -0.15488870  0.13234364 -0.12423359  0.25452044 -0.37115486 -0.40648456 -0.27772159 -0.42829391  0.20488265  0.11740079  0.13714216 -0.03037889  0.32511610 -0.37872176  0.38588704 -0.30493266  0.49825317 -0.12418713  0.47554272 -0.03116296 -0.33892662 -0.46740760 -0.01372796 -0.21904708  0.10728066 -0.42855487 -0.36118436  0.16147909 -0.44612968 -0.45930079  0.21464337 -0.10101849  0.17304274 -0.40959032 -0.34649814  0.30188778 -0.31607498 -0.12421982  0.37359378  0.38880757  0.49318087  0.01073583 -0.14157142  0.31829686  0.13201397 -0.25568452 -0.48663604  0.13026698  0.12012828  0.48890669 -0.40089606  0.28120153 -0.47850103  0.08537585 -0.43784567  0.12877950  0.15682085 -0.29903017 -0.20974155  0.21069103 -0.25833110 -0.49509832 -0.39032759  0.41471151 -0.40468878 -0.23682586  0.21659915 -0.22076391  0.13895416  0.09019277 -0.33195650  0.13213486 -0.39907156  0.02647192 -0.04956845  0.23294223  0.27078726 -0.03620453 -0.13679092 -0.10908463 -0.04729802 -0.03768715 -0.32788326 -0.02579922 -0.45231145 -0.26572909 -0.39701987  0.20450925 -0.06475940 -0.10676156 -0.08479985  0.17690938 -0.10186000  0.02487244  0.09162077 -0.00654890  0.28804646 -0.19178021  0.27268707 -0.07299950  0.39841244  0.44073046 -0.44086476  0.49934076 -0.03279774  0.00956668  0.23228288 -0.26201059  0.47336203 -0.40450815  0.12890467 -0.07393610  0.05780460  0.30102130  0.40026458  0.10549304 -0.46470789 -0.49675540 -0.18999781 -0.02946739 -0.10351706  0.22520224 -0.35255811  0.29462284 -0.24992542  0.23906255 -0.21192617 -0.46187908 -0.45271777 -0.43923920 -0.03487868  0.44569459 -0.49850883  0.02425648  0.44503526 -0.03130666 -0.46617694  0.17731805  0.20668266 -0.49281500  0.27280982 -0.16441276 -0.06675118 -0.16938567 -0.36339154 -0.16648668  0.43610729
 -0.32809965 -0.16324230 -0.25389075  0.14243287  0.23324055  0.47131140  0.28987466  0.02786330 -0.27861412  0.02893712  0.31593705 -0.24049328  0.07621927  0.37669777  0.22462796  0.02191377  0.37818884 -0.25111566 -0.03305108 -0.15311792 -0.21729270 -0.35573313 -0.44643537 -0.21010781  0.41707657 -0.11084825  0.22314089 -0.25230923  0.02576008 -0.44334593 -0.31620208  0.19766043 -0.10658823 -0.07009283 -0.15990671 -0.37334769 -0.09878144 -0.37003206  0.15451561  0.12260443  0.15890505 -0.02954735  0.38211115 -0.26487569 -0.15284960  0.10673910  0.25703807 -0.27466077  0.35562343 -0.27601302  0.07222130 -0.36166928 -0.13174616  0.12578591 -0.07177710 -0.21466960 -0.48506235 -0.34863623  0.03302115  0.04069772 -0.29198217  0.21681906 -0.26164186  0.10142959 -0.35327378  0.07845141  0.22808189  0.04794476  0.20841934 -0.11740251 -0.32945082 -0.13267562  0.35305012 -0.44733969  0.10244869 -0.29979949  0.15939940 -0.14051326 -0.07446027  0.01502281  0.08347371  0.49776101  0.15335351  0.45172754  0.12354692 -0.41842360 -0.26294208  0.13848455 -0.26705985  0.27007906 -0.32081774 -0.05904203 -0.01310189 -0.08245961 -0.45761245  0.13362432  0.49599179  0.27046943 -0.31843094  0.20441112 -0.34693309 -0.14788177 -0.42826451 -0.49388299 -0.09522147  0.17418417 -0.29368249 -0.43582209 -0.46632910  0.13185722  0.07920071  0.11714460  0.12961823 -0.26744579  0.06887213 -0.24683487 -0.18586940  0.30593005  0.39164968  0.04707074  0.07600910 -0.42916807  0.48802871 -0.43709279 -0.01162769 -0.46958375  0.19653151 -0.01563591  0.30088567  0.37810057 -0.31122480  0.45395256 -0.26978121 -0.23948932  0.46006956  0.13499730  0.43469484 -0.33361294  0.19917520  0.46836573  0.29824428 -0.22162410  0.08551032 -0.07213750  0.01093010 -0.34561755  0.18102762  0.32506069  0.46031248  0.07267728 -0.12786858  0.03632157  0.14350921 -0.13983988  0.09922876 -0.36811850 -0.10942365 -0.20423974  0.11624558 -0.30853799 -0.32613918  0.30502077 -0.35458545 -0.09592041 -0.43446856 -0.39451590 -0.46092312 -0.49977373 -0.22812885  0.23825207  0.46859199 -0.42988459 -0.48337204  0.05410230 -0.00202210  0.02755805  0.20848474 -0.32099450 -0.14738127  0.16879720  0.25168277  0.22475014 -0.29488124 -0.10480803 -0.41508976  0.30434751  0.02707346 -0.02451342 -0.39989224 -0.35668097  0.16694858 -0.22603143  0.44833979  0.31236312  0.17804815 -0.48612878  0.41784721  0.21712502 -0.48590251 -0.31028165 -0.04462291
  0.48268946 -0.24016626 -0.02799497  0.03679176  0.25781163  0.49956308 -0.25472351  0.43681712 -0.14781820  0.41407368  0.18849989 -0.42306807 -0.38080757 -0.41630816 -0.33815784  0.42353993  0.11076529  0.13732874 -0.47635231  0.25408432 -0.19572270 -0.20238375  0.20242410 -0.38335959  0.47566439  0.21629532 -0.46551239  0.19278941  0.23039280 -0.27579405 -0.35183351  0.21308226 -0.01596030  0.12017152 -0.25012598 -0.25814868  0.11973459 -0.00484950 -0.32133156  0.47191639 -0.09077582  0.36716833 -0.45115168  0.02841661  0.45086017 -0.28930952 -0.04804346  0.06162547  0.34801922 -0.02439578 -0.18429021 -0.34770348  0.27322047 -0.48186611 -0.23106307  0.24888486  0.23442920 -0.19657545 -0.05832573 -0.03517800  0.02763050  0.08984075 -0.32209574 -0.48832980 -0.28998773 -0.07222172 -0.24647848  0.32974687  0.42292877 -0.06781003  0.30166326 -0.16784705 -0.20064170  0.35051157  0.36056956 -0.24978153 -0.43879795 -0.18747390  0.31184394  0.40922127  0.28813032 -0.37244627 -0.43848221  0.06135080 -0.35431239 -0.16954528 -0.18976434  0.38011682  0.13387927  0.25190993 -0.15506118 -0.33849023 -0.15824932  0.02284308 -0.32682003  0.05176296  0.45062136 -0.07329851 -0.11849018  0.37355013  0.35889146 -0.31682692 -0.29429692 -0.34175025 -0.46631535 -0.43372736 -0.09153178 -0.40511329 -0.12120126 -0.27968784 -0.49589203 -0.33307094 -0.15213412 -0.43437424  0.22827985 -0.00644651 -0.10391952 -0.46148449 -0.12632969 -0.47004026  0.29042544  0.21860912 -0.30853049 -0.36782388 -0.25854780 -0.13535053  0.18393907 -0.30792645  0.29135095 -0.43455111 -0.43437633  0.15024240 -0.25137803 -0.22867325  0.30849215 -0.21769338 -0.16240061 -0.28303964 -0.12280668  0.21639812 -0.06272748 -0.11869871  0.38332718  0.28513840 -0.05307296  0.11160703 -0.22130811  0.34300752  0.15012254  0.15236219  0.37296726 -0.05945202 -0.12902868 -0.43556323  0.07272410  0.11242351 -0.07091376 -0.24333683  0.30449706 -0.27956281 -0.17788794  0.37012073  0.37067959  0.07073403 -0.35855252  0.17917174  0.35304064 -0.02095313  0.39613210 -0.26976604 -0.30455502 -0.16659538  0.11153524 -0.42122784 -0.38145699 -0.44153771  0.19037919 -0.10276510  0.40146981 -0.15949827 -0.45040291  0.27443707  0.28104971 -0.07943159  0.33887383 -0.14622619 -0.46700808 -0.23203993  0.11043698  0.33748898 -0.01160274  0.43254904  0.20760971 -0.14092314  0.00328306  0.34905719 -0.46175140 -0.14367630 -0.17189594  0.43438070  0.08655766
 -0.03912952 -0.28069996 -0.35501346  0.03932368 -0.19028046 -0.32369722 -0.29699523  0.16195724 -0.49066869 -0.04401291  0.14227681  0.24167804 -0.26407007 -0.40395971  0.12199107  0.11953287 -0.34520304 -0.56324677 -0.19487939 -0.42545297 -0.00846895 -0.23349557  0.28627939  0.35358886  0.29322887  0.17779828  0.43200242 -0.29998534 -0.43965135  0.43531653  0.35376428  0.14667007 -0.24271420  0.60225890 -0.20010536  0.20208231 -0.08928207  0.14121441  0.03786198  0.10968349 -0.19232739 -0.11839810  0.06092516  0.23804475  0.15480056 -0.14931968  0.02112700  0.44986912 -0.10436277  0.40743710  0.57896518  0.42215929  0.70845498  0.39656431  0.29206515  0.50256918  0.05546342  0.19225749  0.64927905  0.04192109  0.02414765  0.37206732  0.53180299  0.10701217  0.28298495  0.62124395  0.57212491  0.44162028 -0.00823867 -0.19051646 -0.25004304 -0.01180865 -0.12742765 -0.01721162  0.39132800  0.18312951 -0.01945929 -0.44353592 -0.22562122  0.01438581  0.10004270 -0.50788699 -0.42161397 -0.04392028  0.04225320  0.02845617 -0.37623789 -0.73668247 -0.62308722 -0.58991623 -0.57902175 -0.48242393 -1.06284877 -0.80435992 -0.99609202 -0.28674730 -0.59736947 -0.74697793  0.04869578  0.80755899  0.83037707  0.84059366 -0.30514299 -0.12221740 -0.63952229 -0.86589976 -0.66198322 -0.27183205 -0.81107647 -0.25892300 -0.48601288 -0.84694549 -0.85644662  0.01599423  0.03185139  0.10659330 -0.02664328 -0.39595753 -0.65033238 -0.62684266  0.09119050 -0.09170288  0.08432863  0.26238512  0.32411903  0.23361736  0.03950342 -0.29849060  0.32866099 -0.33492522  0.49365735 -0.33530720  0.49059784 -0.25370950  0.37455168 -0.17265782 -0.04870361 -0.15076461 -0.25546837  0.32954001 -0.25864561  0.34921363  0.50983573 -0.14410528  0.28667273  0.42629102 -0.18645797  0.08757985 -0.17098098 -0.06559735  0.19854006  0.62618907  0.51876186 -0.06626957  0.50082151  0.42871172  0.73326127  0.08131114  0.64387608  0.54390919  0.19793221  0.56655706  0.62170836  0.08751616  0.68867524  0.35054738  0.24342580 -0.05351009  0.48024466  0.24132276  0.50836644  0.44499765 -0.18122888  0.23102641  0.49059705  0.28189782 -0.15812525  0.50282919 -0.42076350 -0.12524482 -0.36800319 -0.03724412 -0.33348686  0.29469048  0.02612742  0.31363283 -0.09624291 -0.02234144 -0.36434921 -0.19916552 -0.22306533  0.08009993 -0.40539779 -0.38686101  0.38425757 -0.47794002  0.22786439 -0.09069682 -0.24419516  0.01967632 -0.48807768
 -0.28271461 -0.08109476 -0.21819018  0.35916419 -0.15439352 -0.47931644 -0.33683653 -0.18461265 -0.43104240  0.01107090 -0.07063118  0.02502672  0.19315089 -0.23109058 -0.37999219  0.08277973  0.24475920  0.15680234  0.26635691 -0.41896081  0.46262026 -0.11504877 -0.27333658 -0.36152155 -0.15423121 -0.17241689  0.43907403  0.33606465  0.17411779  0.03664404  0.41065905  0.39122188  0.45539093 -0.30767132  0.25025803 -0.19912656 -0.28711690  0.41328030  0.11610358 -0.21833710 -0.07584550 -0.45474304  0.30645664 -0.38294087 -0.18609036  0.42620230  0.19957744 -0.44158875  0.08275083 -0.03432005 -0.36080660  0.04511263  0.35036900 -0.13440908  0.18332239 -0.30412960  0.19290918  0.12213673 -0.46831918 -0.13322366 -0.34146992  0.44208804 -0.24225230 -0.38632849 -0.36583471 -0.49224719 -0.08570997 -0.15320660  0.42078031 -0.46985751  0.12820635 -0.15531440 -0.42484999 -0.06558622 -0.03850450 -0.11118799 -0.13963100 -0.33917360 -0.05302324  0.44287408  0.12626139  0.08592527 -0.01225921 -0.02361504  0.45127045 -0.32918254  0.17201061  0.14393988  0.29271951  0.20344983 -0.48953909  0.45099121  0.14529488 -0.23201732 -0.43556480  0.27921559 -0.22453362 -0.02155691 -0.37428058 -0.30407352  0.00821798  0.25363048  0.04040100  0.08322964 -0.31214091 -0.49831457  0.47182333  0.04799632 -0.33774535 -0.08147644 -0.00940973  0.28825212 -0.49580151  0.47807515 -0.23563243  0.45519372 -0.35137770  0.43611195  0.09886293  0.44106471  0.13928799  0.10905749  0.39178832 -0.21569671  0.37675009  0.45593347 -0.43676429 -0.34805372 -0.06588118 -0.31128949 -0.15232596  0.44219889  0.44214309  0.38783634  0.02517503 -0.37026592  0.38923965 -0.00329097  0.17744026 -0.44878686  0.41496352 -0.33223612  0.33919374  0.41888706 -0.35442996 -0.39670245  0.37381815 -0.20607011 -0.46085286 -0.02758089 -0.26526603  0.17817614 -0.41878262 -0.37373630  0.46222370  0.45771280 -0.41805948 -0.47479968 -0.39060023  0.01580183 -0.28634483 -0.04317839 -0.04224977 -0.34445152 -0.15559172  0.48267413 -0.21496913 -0.26660416 -0.02086750  0.46222164 -0.21564246 -0.10616073 -0.37027611 -0.37671163 -0.18753522 -0.22495960 -0.27365413 -0.31394287  0.06875422 -0.23471738  0.15826641  0.30327667  0.44324373  0.23926515  0.42931827  0.40524201  0.19675196 -0.48896479  0.43022000  0.30593158  0.02661839 -0.35634110 -0.23746252  0.48415270 -0.20101142  0.10672334  0.46659921  0.08378361  0.33987372 -0.05452308  0.04574433
 -0.02680502  0.71331233  0.63485590  0.30142328  0.24606330  1.02457463  0.53196113  0.39196742  0.54167414  0.72648038  0.97431598  0.31933082  0.71338848  0.79784096  0.34382606  0.69866268  0.53955269  0.35125895  0.57540672  0.25604493  0.77236201  0.60549360  0.39383506  0.63511441  0.80239833 -0.08964083  0.48702353  0.24349988  0.60864415 -0.18401110 -0.31895520 -0.36703892 -0.43883034  0.27112488 -0.19650078 -0.35577407  0.16240914  0.22402274 -0.06130817 -0.34090678 -0.05995490 -0.09679083 -0.06201585 -0.41573351 -0.38741210  0.16751835  0.14204802  0.00997714 -0.59848354 -0.35595503  0.24230781  0.19698663  0.30434125 -0.27272891 -0.06452203  0.22547753 -0.20191461 -0.35356374 -0.23852199 -0.24807280 -0.16388652 -0.15666746 -0.19110929 -0.14748683 -0.40042419  0.11842583  0.02505617 -0.68095439 -0.08527339 -0.46039916 -0.44377348 -0.54850018  0.05774584  0.12778457 -0.32147872  0.32152494 -0.05437754 -0.51243429  0.00498531  0.02708071 -0.18344802 -0.06914301 -0.10106414 -0.19377237  0.35675981 -0.45562707 -0.24311004 -0.11283510 -0.06844066  0.26747573  0.38572369 -0.52694712 -0.30133216 -0.32575820 -0.21792224 -0.11199409 -0.37892861 -0.19634475  0.07591647 -0.31087911 -1.29737891 -1.20659155 -0.57563978 -0.18288245  0.13285187 -0.37422065 -0.47432388 -0.35687117 -0.08236414 -0.53879224 -0.42564973 -0.47775064  0.04654499  0.06792880 -0.08320357  0.00240921  0.21063988  0.26068184 -0.52846520 -0.28799290  0.07429327 -0.60305446 -0.23970694 -0.55156107 -0.15146046 -0.62308282  0.14156418  0.14281915 -0.25951707 -0.12582401  0.07057009 -0.64049639 -0.13341950  0.14850269 -0.26301095 -0.31457691 -0.40288616  0.11459388  0.12141964  0.20347867  0.17016138  0.25045449 -0.71115748 -0.20172536 -0.07868570 -0.18901514 -0.58851542 -0.25184462 -0.29736213 -0.46930020  0.12419372 -0.55174489 -0.40191663 -0.44611326 -0.43154976  0.13537834 -0.36655794 -0.58091786 -0.01145522  0.08642664  0.01371045 -0.21674460  0.18242143 -0.38039029 -0.32398903 -0.33187685  0.06485901  0.05020068 -0.42451034 -0.01399122  0.04249885  0.50547634 -0.00307122  0.10918357  0.10481192 -0.27687354 -0.27347691  0.32581002  0.28316180  0.23762640  0.65458221  0.18054677  0.42665319 -0.03865696  0.39872711  0.59363991  0.65159868  0.57198659  0.61264377  0.31121453  0.36421467  0.33464665  0.82315691  0.31722932  0.73844219  0.22187036  0.63455777  0.38202991  0.74810823  0.57645602  0.66648485
 -0.21512470  0.14696506 -0.24695801  0.30137219 -0.36697063 -0.17122061  0.34738151  0.25026363  0.36989033 -0.19411965  0.09971282 -0.27489294  0.39508017  0.22912895  0.31203680  0.22589541  0.15705025  0.18519508  0.12195523 -0.28759043 -0.22245329 -0.34787903 -0.33724940  0.15262456  0.39401931 -0.13080423 -0.23766432 -0.24984556 -0.35066221  0.44461596 -0.43274278 -0.06577231  0.09159529 -0.17968677 -0.26438623  0.22463857  0.14910663 -0.41699075 -0.02508388  0.01901115 -0.11109603 -0.42535653  0.24413267 -0.21600150  0.30378671  0.05618368 -0.49009202 -0.03914903 -0.25860723  0.13187733  0.17327475  0.01895368  0.28401250  0.33603955 -0.32840753  0.17804600 -0.29475038 -0.06605743  0.42821498 -0.14539803 -0.12142684  0.49548701  0.28884460  0.47018354 -0.18418455 -0.47552636  0.19483754  0.46493766 -0.39250145 -0.33023061 -0.01603555 -0.00358185 -0.25557152 -0.27188725  0.28043235 -0.45176907  0.28431223  0.29035614  0.00909769 -0.47427922 -0.07775078 -0.31761181  0.04469027 -0.29372250 -0.48155647  0.21629854  0.38433929 -0.27629110 -0.34974319  0.31256991  0.07832645  0.02884536  0.30807197 -0.13281440 -0.00095703 -0.37609839 -0.10832579 -0.30610357 -0.41114485 -0.00081076 -0.13631481  0.07283539  0.49562147  0.10812450  0.30096212  0.27606805  0.15636954  0.08528937  0.06643993 -0.33451698  0.11102545  0.48870395 -0.15211432 -0.34426998 -0.30500437 -0.13365672  0.37204256 -0.42065113  0.09006609 -0.47768676  0.39193264 -0.33159358  0.05117257  0.20001885  0.03560675 -0.44976919  0.32393588  0.42729607 -0.25585813  0.41280581 -0.07350090  0.10783742 -0.01434476 -0.07786466 -0.28402349 -0.21336757 -0.30178127  0.37236125  0.37193652  0.26467301 -0.46214158 -0.01702395  0.25339098 -0.11424192  0.13872010  0.44840073  0.25211562  0.01077701 -0.47223600 -0.15780382  0.03310481  0.41971134  0.01061740 -0.41570773  0.11974516 -0.45376080 -0.36546190 -0.05630399  0.47355018 -0.12130504 -0.14348305 -0.09993550  0.48654770  0.34218766  0.32221563 -0.29745948 -0.37116317 -0.47954883 -0.42508179 -0.49921078  0.28513956 -0.38720834 -0.01621981  0.03854564 -0.00143477 -0.37748393 -0.01303776 -0.24930335  0.13330893  0.01474223  0.09290885 -0.33357025 -0.06553044 -0.39645789 -0.24926264 -0.44577084 -0.35020510 -0.11471137 -0.00206146 -0.37664119  0.26399765  0.35446981  0.02343796  0.25056023  0.19667224 -0.15433207  0.45311444  0.32552211 -0.13386836 -0.47195515  0.32632361
 -0.49112340 -0.55172487 -0.45044204 -0.14204119 -0.21981871 -0.40986968 -0.64420315  0.08729855 -0.69425140 -0.02037736 -0.18998995 -0.41037030 -0.49816456 -0.02654087 -0.12008681 -0.41403499  0.14530521  0.28044660  0.09668239  0.28782458  0.06436474 -0.01987092 -0.15460763 -0.15739912 -0.31990780  0.18031034 -0.20839184 -0.48539372 -0.45136052 -0.19410766  0.31935488 -0.31235480 -0.03462593 -0.33049270  0.41971734 -0.36493920  0.12801483 -0.38183375 -0.47062290  0.17280108  0.28194892 -0.00342518  0.40498675  0.42073369 -0.40303693 -0.09908932 -0.38969211  0.33521054 -0.23500689  0.27497215  0.18594505  0.39986267 -0.17717296 -0.40601506 -0.19849302  0.06495561  0.32891540  0.14293933  0.12430043  0.42771944  0.51013830  0.01266048 -0.31357996  0.03022037  0.21655399 -0.36856962  0.18246099 -0.14987133 -0.24447017  0.23251973  0.55748001 -0.42229223 -0.23227702  0.49514999  0.52196267 -0.11463456 -0.08480671 -0.35059836 -0.25763633  0.20585992  0.45473209  0.45858720  0.12767217 -0.20837140  0.55708472  0.43169710  0.35722101  0.38907543  0.07438575 -0.03628925  0.28814980  0.09500285  0.57028852  0.61969582  0.72974663  0.27120024  0.58667504  0.20747158  0.54727293 -0.10584585 -0.12631791  0.59055879 -0.15635601  0.05863779  0.38913714 -0.18171799  0.53115899 -0.15776740 -0.14903970  0.52761552  0.25424392  0.56170143  0.32516612 -0.24171885 -0.28268561  0.22643372  0.52904832  0.41743870 -0.04932236 -0.06412525 -0.27464601  0.58173282  0.33121298  0.51393139  0.36155006  0.22008841 -0.00773732  0.23569467 -0.25461530 -0.23844361  0.31204183 -0.04562808  0.53711281  0.40194874  0.34903170  0.21734453  0.42105367  0.03671992  0.22299571  0.49044391 -0.14232124 -0.18443043  0.39851277 -0.47585020 -0.08052962 -0.52336740  0.12188660 -0.17417965  0.27856873  0.45510948  0.14091597  0.38059502  0.41707025 -0.14499076  0.28536846  0.16374608 -0.53949173 -0.32240458 -0.18380880 -0.36905956 -0.13813691 -0.44255810  0.01517708 -0.17011386 -0.60900370 -0.20256294 -0.50912431  0.27019599  0.31160091  0.20903690  0.26822210 -0.31714417 -0.47767413  0.14956907 -0.33061173 -0.09938818  0.09434913 -0.72615196  0.21879787 -0.12678359 -0.76637114 -0.13120476 -0.22058503  0.20286027 -0.67594026 -0.28253438  0.05509876 -0.51927319  0.05041192 -0.50699995 -0.27436294 -0.45431641 -0.31526385 -0.63702421 -0.01667589 -0.30118013 -0.20587489  0.11609767 -0.37303313 -0.21542050 -0.00622063
 -0.31104828  0.24268787  0.31502166 -0.48274318 -0.38687303 -0.06513164  0.34874131 -0.36869724 -0.09386210 -0.01420101 -0.36345797 -0.44285669 -0.44985354 -0.38897048 -0.37575102 -0.02942734  0.33412406 -0.25288150 -0.33787328  0.47291728  0.10851831 -0.17059538 -0.21413248  0.10882861  0.45991655  0.13109513 -0.44166593  0.23995850  0.40540699 -0.02607991 -0.12384011 -0.40564129 -0.28339205 -0.30881845 -0.38838447 -0.17026508  0.12604992  0.46035684 -0.03896232 -0.46781218 -0.05384416  0.09757971 -0.41066887 -0.00369771  0.20860924 -0.28641989  0.46687495  0.04273329 -0.03930139 -0.37099832  0.01565058 -0.43078308 -0.04159370  0.30151810  0.17804553 -0.08167715 -0.06738676  0.23637960 -0.34171865 -0.16197977 -0.28970031  0.03444123 -0.06762107 -0.07309236  0.22562279  0.04399446  0.25664256 -0.14832730  0.00435130 -0.28231976 -0.11613948  0.45050714  0.31525996 -0.02680835 -0.05319057  0.02386920  0.18677176 -0.08631561 -0.43339751 -0.35252963  0.04268607  0.08225307 -0.28331271 -0.49890764 -0.11622883  0.39473283 -0.08058479  0.31638441  0.13111243  0.07769655 -0.34559537  0.34141211 -0.38786221  0.08678356 -0.23168025  0.33776058 -0.36922197 -0.47503769 -0.31056672  0.13512933 -0.25735744  0.07329380  0.08563647 -0.44209749 -0.45351455 -0.46755410  0.08177171  0.23325721 -0.05386971  0.14837420  0.38072758  0.48881636 -0.26937274 -0.40258513  0.48990872  0.11439843  0.49214770 -0.09067607 -0.06921716  0.12326013  0.48702048  0.08518747 -0.03532776 -0.40084173 -0.32802897  0.23299199  0.43691884 -0.19725094  0.25795430 -0.37364788  0.43787839 -0.49940315  0.19964592  0.02351485 -0.44150064  0.24613137  0.05596075  0.14027107 -0.02061142 -0.49790896 -0.21135473 -0.13988384  0.49090740  0.01927253 -0.04246896  0.48081612 -0.36632904 -0.05032126 -0.10985995  0.06445380 -0.42706114 -0.12283947 -0.35035873  0.03761110 -0.02368120 -0.17838770 -0.22939691 -0.08676236  0.12436136 -0.47144261  0.03958976  0.06223974 -0.47084576 -0.26076432 -0.41424540 -0.41234640  0.48536705  0.14171535  0.22792467 -0.03524437  0.14380639 -0.48343006  0.32487179  0.13471380  0.03584247 -0.21759718  0.11552992  0.16951343  0.23208156 -0.49433003 -0.26603277  0.30502042 -0.11716951 -0.11639150 -0.15736847  0.35914929  0.20522080  0.11323462 -0.22761307 -0.17041784  0.14179201  0.31197669  0.39182190  0.17094625 -0.44878763  0.47757650  0.25859985 -0.46342058  0.11929185 -0.01347548  0.00133505
 -0.24564881 -0.00558174 -0.18240720  0.38921865 -0.46971437  0.09980908  0.00435754  0.19927759 -0.16872623  0.00931298  0.43238041 -0.36468790  0.39108350 -0.18505775 -0.02296481  0.24957074 -0.48026065 -0.41002298 -0.47828707 -0.15089080  0.23160559  0.33354042 -0.25924862 -0.09766915  0.38452171 -0.28189197 -0.33922112  0.42096278  0.33727501  0.14712807 -0.07791101 -0.39983888 -0.35000317  0.24809058 -0.50220707 -0.31122988 -0.14343237  0.01104294  0.39716283  0.19722600 -0.46999067  0.33956125  0.34290388  0.43179872 -0.33450181 -0.16884699  0.19272533 -0.30327138 -0.06726057  0.22611682  0.05755836 -0.32393013  0.07145909  0.31022377  0.09045221 -0.03191871 -0.45949260  0.26344237 -0.09869944  0.39009362 -0.07702961  0.33589559 -0.49716743  0.08561741  0.09670858 -0.48659214  0.28724903  0.46616875  0.03734966  0.19734102  0.17633003  0.08031102  0.04986771  0.03222514  0.02514490  0.22844655  0.37650119 -0.26900507  0.43830112 -0.17763537  0.47023283  0.00898792  0.01160567  0.05483748 -0.16766156 -0.38482270 -0.46395667 -0.11392356  0.39205466 -0.04901852 -0.21009185 -0.17128057 -0.19956244 -0.19397193  0.42718581  0.40954853 -0.16855065  0.22601330  0.38659011  0.37907023 -0.06553665  0.07429313 -0.02765193 -0.50238673 -0.37932554 -0.48904747  0.23877189 -0.49058935 -0.24625554  0.18838825 -0.15738410 -0.26551252 -0.29230113  0.36445461  0.29958637  0.05044800 -0.50979178  0.34624257  0.44694398  0.39236250 -0.19299854 -0.25370439 -0.26980204  0.11632526  0.06112053 -0.33374776  0.03490718  0.40186201  0.40200703 -0.06793967  0.29228345 -0.15263346 -0.48224720 -0.22481250 -0.14528486 -0.35228216 -0.20483931 -0.39763466 -0.33403852  0.05785830  0.29996155  0.01814408  0.30227350 -0.48205132 -0.10676408  0.11273051  0.07938496 -0.10547470 -0.02985140  0.03761018 -0.20172158  0.28864790  0.29549806  0.04015797 -0.08325969 -0.13152580  0.21833856  0.46365996 -0.21754981  0.13258890 -0.09192098 -0.41285731 -0.50761032 -0.06174454 -0.12524852 -0.14042266  0.09852826  0.18255322 -0.02534914  0.27725527 -0.24676780 -0.21252012 -0.19172582 -0.43159600 -0.18162648  0.21448746  0.19409871  0.41067373 -0.37810327 -0.32286555 -0.03882100 -0.06690324  0.47873979 -0.23034998  0.48619810 -0.09166568  0.15089450  0.21730200 -0.11510651  0.44638514 -0.13696312  0.30614857 -0.45329354 -0.13142431 -0.24248615 -0.06548518  0.24109918  0.36881896 -0.37034677 -0.27188405  0.15827602
 -0.09922639  0.03336507  0.48412225 -0.01928944  0.36310501  0.20993148 -0.31386591  0.28508745  0.34312998 -0.12542025 -0.24241056 -0.21250405 -0.13550082  0.03833315 -0.21526776  0.28386728 -0.29973719 -0.48695791 -0.32038660 -0.34273929 -0.11361257  0.49575421 -0.28633347  0.26440642 -0.23753440  0.15719516  0.01441891 -0.35988738  0.29562134  0.25132774  0.30723184 -0.30049335 -0.21214193  0.29457600  0.18351083 -0.34568908  0.00784735  0.37300536  0.44283945 -0.14549629 -0.24884585 -0.29604884  0.14545554  0.11906728  0.24572113  0.43368761 -0.09353135  0.44954410  0.45034417  0.08978483 -0.38941038 -0.15946030  0.08936423 -0.17188739 -0.39112099  0.35581240  0.48933218  0.12734851 -0.50001357  0.28900506 -0.11730851  0.31115543  0.49234737  0.17432372  0.10950694  0.17961150  0.33234192 -0.37898390  0.05623959  0.27875346 -0.02097586  0.31083223  0.48614960 -0.37203313 -0.06660291  0.23535720 -0.43484837  0.34335349  0.18838102 -0.48108025 -0.06351855  0.30225963 -0.13725351 -0.47089208 -0.36637632 -0.02512295  0.38816408 -0.37382478 -0.39458793  0.39134655  0.41841022 -0.00865642  0.20578376  0.41414631 -0.33080903 -0.18117474  0.09714067 -0.49522372 -0.05669063 -0.34259982  0.28778144  0.42612104  0.47099275  0.27609927 -0.44359939 -0.09276643  0.01454615 -0.37549653 -0.24659288 -0.29417687 -0.35352100  0.19304630 -0.48871158  0.01246209  0.22542086 -0.35180940  0.49061161  0.11685639 -0.22234534 -0.40066511  0.01151947 -0.30062148  0.09399111 -0.27941323 -0.38328650  0.26622283  0.04234441  0.21682845  0.27396807  0.48831778  0.37635121  0.06359747  0.41645683  0.34987963 -0.15740800  0.47577097 -0.24000597  0.36013321 -0.39658490  0.01666250 -0.43076656 -0.24681569 -0.28700648 -0.41616860  0.26894696  0.44170427 -0.26471188  0.26280637  0.06180762  0.01619841  0.36537382 -0.42347454  0.21879768 -0.03738409 -0.19964496  0.33871431 -0.26798631  0.34587518  0.05871703 -0.49085127  0.33737121 -0.06172968  0.07597636  0.25704292 -0.20865382  0.42176853  0.23598293  0.05443916  0.28491932  0.34235593 -0.42597101  0.35714298 -0.40141885 -0.20991828  0.44401868  0.37052755 -0.26527621 -0.31775678  0.13630377  0.29956063  0.20153704  0.00481906  0.37923891 -0.07655118  0.47053205 -0.31726501 -0.23465969 -0.29423764 -0.46817437  0.32726868 -0.28190216  0.37232503 -0.23145651  0.29698019  0.13225113  0.06280744  0.22168701 -0.12879595 -0.37970391  0.00976720 -0.28317897
 -0.31521145 -0.14275032 -0.19461542 -0.02283550 -0.19703715 -0.32277868  0.21302853 -0.01363304  0.31485872  0.01424056 -0.30998260 -0.17775882 -0.10355705  0.11673186 -0.20378725  0.08258653  0.38537497  0.00517484  0.11763302  0.21591289  0.22656062 -0.00672881 -0.51217006  0.02695984 -0.37107931  0.05392087 -0.24828256  0.00311784  0.17716685  0.26445492  0.22291153  0.37779591 -0.36228722 -0.45531318 -0.12816699 -0.04181595 -0.25987502 -0.39618502  0.46419011 -0.42487365  0.13859106 -0.32502834 -0.08172805 -0.44407885  0.31246555  0.23511507  0.15911647  0.21843894 -0.23916247 -0.20278280 -0.04530957 -0.49237813  0.31053526 -0.03761777  0.05422072  0.45903789 -0.46411886  0.32558266 -0.01816831  0.23271718  0.10965291 -0.27571724  0.12995862  0.26670576 -0.21179202 -0.47901552 -0.25597301  0.04741167 -0.35616006 -0.27276614  0.14157010  0.30147173 -0.07876711 -0.42114862  0.37639922 -0.24727232  0.33297247  0.05453584 -0.50981892 -0.38717607  0.37077333 -0.03609927 -0.36054901  0.20038278  0.44541536  0.21285544  0.17862820 -0.49970597  0.05702776 -0.32132293  0.25123568 -0.31458181 -0.07748911 -0.09819472  0.47403882  0.23412866 -0.05211780 -0.25506332 -0.18950935  0.12347355  0.00438830  0.47763693 -0.05902398  0.43508633 -0.43351199 -0.16985724 -0.29729938  0.41617266  0.40313417 -0.28711376 -0.44964762  0.29637001  0.20010891 -0.28629097  0.02080146  0.16931556  0.45001996 -0.27723323  0.19328366  0.03131306 -0.07371400 -0.03021526  0.24215961  0.37406819  0.39629172  0.23983240  0.13025357 -0.13593713 -0.49809898  0.45431531 -0.50375434  0.01187829  0.44071177 -0.04923513 -0.03593289 -0.47295224  0.30291506  0.19032204  0.46781452  0.23118532  0.42847868 -0.45674802  0.05220095  0.15262949 -0.21961872 -0.40401806 -0.15528249 -0.24696121 -0.15875803 -0.43965876  0.30651736  0.28953836  0.05199084  0.07040852  0.18519307 -0.03025342 -0.16841533 -0.16334146  0.35488291 -0.14558294 -0.18822712  0.37181120  0.38688746 -0.22697656 -0.15693341 -0.12863363 -0.17963527 -0.33385456 -0.41827216 -0.19191079  0.41712854 -0.47007300 -0.12894866 -0.01100861  0.20214255  0.17094054  0.10445416 -0.43366516  0.44341728  0.46507748 -0.35398554  0.26926632  0.27393947  0.21735126 -0.14090734 -0.02131342 -0.29319255  0.21050138  0.33526695 -0.41819875 -0.41474208 -0.33243595  0.47423478 -0.50712006 -0.03850190 -0.16164169 -0.11460216  0.30300879  0.02558635 -0.01179476 -0.36789895
 -0.02128588  0.05375327  0.03855804  0.48786111 -0.22385902 -0.27016988  0.11270814 -0.13707165 -0.30622835  0.09839006  0.02962923  0.48379197 -0.10684278 -0.23213698 -0.13624000  0.39265888 -0.00462204 -0.40515766  0.24836370  0.09733591 -0.30007352  0.43546121  0.09075164 -0.28843523 -0.08475178  0.44688915  0.11423389 -0.26490421 -0.01109493 -0.38157917 -0.11708843  0.46800804  0.17256094  0.42185883  0.45626377  0.44910270 -0.34790533  0.06938240 -0.18755389 -0.15371527 -0.33180524  0.34250275 -0.16948888  0.06179279 -0.38918774  0.19472266 -0.04509293  0.10664824  0.29002500 -0.29626780 -0.29555346  0.49041395 -0.36034322  0.29566241 -0.29755584  0.05537076  0.24301694  0.31714247  0.29092994 -0.26761486  0.43602695 -0.32569371 -0.29914088  0.10905444 -0.40336846 -0.34241189  0.05862032 -0.25081299  0.22742933  0.37152396  0.09592885  0.39608082  0.21448351  0.42689661 -0.04167006  0.32575160  0.12207533  0.41369292 -0.06714417 -0.08744403 -0.38211965  0.13775771 -0.09657408 -0.24200725 -0.06612465  0.10632504  0.31381788 -0.32265412 -0.07607656  0.10521198 -0.08979395 -0.13956575  0.28001010  0.11156688  0.47000068  0.37715668  0.26966394  0.02911864 -0.37316529 -0.00240312 -0.09883732  0.22324106 -0.10589986 -0.38397403  0.15053466  0.35283825  0.44217930 -0.22699980  0.26691526 -0.12457739  0.18595390  0.38520317 -0.48640379 -0.41019515 -0.35636842 -0.05208545  0.19657481  0.45789366  0.12570457 -0.37906043  0.06353883 -0.46366706 -0.01821626 -0.15605758  0.14827232 -0.04786608 -0.27857194 -0.08174993  0.48155497 -0.15144836  0.41610761 -0.11705030 -0.42794621 -0.18950431 -0.00072216  0.22290246 -0.33633664 -0.05819300  0.49627567  0.43097310  0.31764039  0.18265268  0.31661001  0.33167862  0.27290207  0.46068590 -0.21996246 -0.03007812  0.41902491  0.40618815  0.09130774 -0.01698961  0.44296821 -0.42646076  0.32740048  0.09168819  0.02612098 -0.45072319 -0.48961316  0.00812481 -0.10172240  0.42694413  0.39152432 -0.02921907 -0.26211126 -0.10874886 -0.30586731 -0.09799838  0.33350736 -0.30914295 -0.16657679  0.15159736  0.37395973 -0.34951708 -0.01627481  0.14731110 -0.38838132  0.26421357 -0.38231541 -0.46890425  0.17085430  0.20944580  0.01456046  0.11427757  0.28344111 -0.15758094 -0.29357451 -0.18997698 -0.10784372 -0.28272814  0.31860660  0.29089270 -0.35532487  0.21059165 -0.23786266 -0.11696863 -0.39768721 -0.04325871  0.28550527  0.43629269  0.14806919
 -0.38212865  0.08681979  0.02096020 -0.23117914 -0.42899054 -0.33129638 -0.11918639  0.33554319 -0.21333480 -0.08783860  0.00665203  0.49638615  0.42703036 -0.37872128  0.28021714 -0.23014150 -0.17188917 -0.40935517  0.16241829  0.04579131  0.40965383 -0.04628758  0.19086596  0.12065091  0.21626824 -0.42567485  0.22337152 -0.32659668  0.36021302  0.16005608  0.32186334  0.47999945 -0.25119559 -0.15525696 -0.24928826 -0.17829433  0.01536152  0.13349455 -0.34070441  0.30414860 -0.45215609  0.16817445  0.30280956  0.47719291  0.29180032  0.08538137 -0.25058567 -0.37770899  0.17841468  0.41423842  0.17050313  0.09050745 -0.12960437 -0.13618446 -0.28640213 -0.41089732 -0.05942564  0.43941778 -0.23503514 -0.19674500  0.10193243 -0.41072510 -0.21430692  0.35317894 -0.06352857  0.03887384 -0.32264626  0.45430845 -0.32515258 -0.16088476  0.26092493 -0.27483384 -0.49022473  0.06622966 -0.29514274  0.30407341 -0.34588982 -0.04322432  0.42886937  0.33503231 -0.12647673  0.10187902 -0.07195966  0.24642719  0.46820886  0.14415374  0.33804783 -0.08868273  0.08615159 -0.39433622  0.21727959 -0.30921484 -0.30243036 -0.49445740 -0.45346168  0.13668477  0.04717619 -0.27322359  0.09397742  0.22461860  0.06750133 -0.14274178  0.45262888  0.08076597  0.42588636 -0.34045786 -0.11300321 -0.41771280  0.11872952 -0.18164431  0.41981716  0.49468893  0.42259402 -0.14980244  0.24351112  0.39327365  0.49686787  0.08408409 -0.19289473  0.08548780  0.19213818 -0.47329398  0.27856326  0.39199768 -0.46546699  0.32734777  0.03085249  0.08376145 -0.44398456 -0.37345088 -0.18963062  0.12632909 -0.01429714 -0.23532091 -0.29104239 -0.08637643 -0.07361648  0.09819898 -0.00180870 -0.45259530  0.41884235 -0.07967345 -0.45552237  0.34390467  0.27303580  0.29050533  0.23969649  0.27243531 -0.12285481 -0.45062960 -0.13951029 -0.42816754 -0.42137912 -0.35840534  0.46636195 -0.38432361  0.47147101 -0.00024993  0.20198445 -0.46996615  0.12884119 -0.48511285  0.15889931 -0.38290464 -0.21787205  0.37041505  0.03325876  0.21104653 -0.02883892 -0.46599816  0.26098811 -0.10746891 -0.04313828  0.30800229 -0.26101556 -0.26754778  0.10106224  0.48123919 -0.49254640  0.48077935 -0.46679552 -0.12944887 -0.44481158 -0.38566751  0.01458822 -0.47602469 -0.26754716 -0.01146425  0.02624161  0.43700948  0.02118403 -0.34228471  0.45451411 -0.31731471 -0.22260574 -0.26081797 -0.44441697  0.31306012  0.45256530  0.02904911  0.34937715
