 -2.65478255 -2.79170220  1.92436948  1.80131077  1.36277932 -3.33653941 -4.46651641  1.48192771  5.62960291  4.87348517 -4.76753260 -6.04085077  2.76415587  3.20459987  1.80819354  2.41836105  4.20857724 -0.77337831 -6.11125172 -0.09888563  2.84865670  2.48365916  3.26496910  3.16929219  1.00151435 -2.84245630 -2.83971002 -3.11745015  4.14313172  1.76123647 -3.06492287 -3.23192151 -0.91583288  1.23333532  1.27324071 -3.94627976 -3.79807892  2.56538633  1.31590324 -2.72453209 -2.74305047 -0.03073342  0.03977778 -1.00973551 -0.99766936 -2.80889730 -1.96363017 -1.22009249  2.82457502  2.97102601  3.56289288 -3.56773316 -2.38762720 -0.31211144 -2.24845324 -1.05363366  1.35055268  1.63784717 -3.39975464 -2.89851541  2.46112243  1.39623452  0.73179322  2.06450368  1.94321055  1.15635689  0.98345693  0.75570778 -0.16630385  0.50632806  1.24563343  0.40916900  1.71906796  0.77170345  0.81516506 -0.58174652  1.23849985  1.33121660  0.36358718  1.16265063  0.82426480  0.68845400  1.38970908  0.62920183  0.89134507  0.06030782 -0.06396280  0.15866712 -0.37261768 -0.39184351 -0.47340227 -0.56659928 -0.48166700  0.22867461  0.83175799  1.68833532 -0.89097799 -3.09482667  0.34547562 -0.75685170  1.84612448  0.28491575  1.81414728 -1.91978817  0.75902533  1.62650619  1.48096958  0.43655518 -0.23762348 -0.90877947 -1.58566292 -1.03133408 -1.16469471 -1.58847441 -1.33900157 -0.84671345 -0.82339562 -0.49113824 -0.62932204 -0.05247848  0.26800452 -0.49054977 -0.53632397 -0.46321229 -0.38431311  0.16218108  0.26499653  0.27070072 -0.47781571 -0.97498646 -1.65598476  0.15135719  0.40085607  0.75067686 -0.56979451 -2.18995662  0.47535477  0.74843467 -0.18400368 -0.42394804  0.56119050  0.66933926 -0.56855897 -2.11140729 -0.20321739  0.39924559  1.49652508  1.88637073  1.71950669  1.03641013  1.82370235  2.04326170 -6.04849586 -1.49080226  2.15059968  2.91929769 -0.07406942 -0.27539706 -2.08809366 -2.09646058 -1.62775565  1.52093186  1.08409227 -1.95547027 -4.40482041 -1.29698876  1.96211905  2.64826241  0.56334906 -1.99921230 -5.42913440  1.52340710  2.32307109  2.50696303 -0.28727315 -5.05063805 -1.50292731  1.96495892  2.07425161  3.84679713  5.12857999 -3.55528278 -3.15579853 -5.70193790  2.54117818  1.71806046  1.44909152  1.68279051  2.48583836  2.50478485  2.13145908 -2.25875123 -1.67958873 -0.76859360 -2.76329229  1.22721062  3.90849910  3.53146914  1.41551845 -4.90216159 -1.83290605
  1.54641088 -0.84392892 -0.51290941  2.77397505  0.77704054  2.06771571  1.14254294 -1.45773520  1.63793367  2.21717705  1.00716443 -1.08779148  1.19784092  3.18831222  1.48477701  1.22800205  1.30157113  3.10238154  2.69613602  4.12984336  4.20557072  2.35222039  2.27019078  4.17351084  4.13086534  3.40346592  4.44621083  2.35386965  2.94047944  3.61126388  1.90072039  2.28870721  0.91626678  1.09700190 -0.19500510  1.98345037  1.33754263  0.11057051  0.08685917  2.12812019  0.13052233  1.13460838  1.23672695  0.42828889  0.76510174  1.10427167  2.78360888  0.54881217  1.26802824  1.34739645  1.55843843  2.28281188  1.33028820  1.36194999  1.14891218  2.31166750  1.82883721  1.33262487  1.78913997  1.89537046  1.98453680  0.41118189  1.56127347  1.39897387  0.40017426  1.54423923  1.50960038  1.62453068  2.57149003  2.90138551  1.97050588  1.43976918  2.06231038  2.06583738  1.69051803  2.55084046  1.73568407  0.89836703  2.79047994  2.85153854  1.72111587  1.61538745  2.33022524  2.73528519  2.72637494  2.41633220  3.01199274  2.87918707  3.19514634  2.82304004  3.97978357  3.98484937  4.42689125  4.30591310  4.77258136  4.62085562  3.61566623  3.92978813 10.40253804 21.39304869 -0.36760242 -22.1649343 -8.57936030 -3.96207276 -0.09571820  2.28414569  3.11144628  3.07628602  3.49853897  3.32269562  2.41325190  2.20544629  2.78542632  2.47247627  2.54035816  1.96990030  2.19977049  1.71559094  0.86468422  1.25838646  1.22483784 -2.86567924 -5.17957027 -5.00557372 -4.01014005 -3.51381760 -0.64328757 -2.22997903 -6.31881345 -5.56777771 -7.56735061 -3.60995736 -4.38102745 -8.30846889 -6.43503287 -8.00872891 -7.94057692 -8.19211113 -7.84836870 -6.92454714 -6.59414402 -8.61159464 -7.72394264 -7.83226041 -6.87982529 -6.51429797 -7.37468100 -7.02446870 -5.86557002 -7.95926592 -8.17792902 -7.15496572 -8.70064768 -7.70917052 -6.58358712 -4.91496486 -6.35647343 -4.36090195 -5.40412775 -5.95399273 -2.27749232 -2.44060215 -1.47270561  5.87428796  1.20618593 -0.54085443 -0.51577549  0.81408948 -0.40190303  0.58131978 -0.56772936  0.61710975 -0.02600492  0.23092543  0.27093918 -0.06127526  0.87757991 -0.33696602  0.37192893  0.20309373  0.77222531  0.48646196  1.73577599 -0.92030653  0.49495023 -0.89022181  1.59711754  2.37545195 -0.42230757 -0.45081965  0.41953215  0.77748924  1.29840825  0.12587397  0.11155703  0.30585592  2.53535585  0.19821956 -2.09807497  0.71764612  1.43881450
  0.36781130 -0.20990741 -0.34100692  0.46159155  0.38568982  0.36936003  0.25628669  0.47791316  0.49240440  0.44018421  0.07679683 -0.39541399 -0.26122827  0.18611756  0.02719592 -0.25117821  0.22914609 -0.21821732 -0.17772964 -0.05486553  0.33898172  0.08362015 -0.41162687 -0.27444102  0.17709067  0.24569201 -0.37987443  0.39151821 -0.28042260  0.20950079  0.24960286 -0.41554531  0.49674095  0.40583497 -0.45661609  0.37984955  0.27266147  0.29712459  0.35512855  0.26224808  0.23425151 -0.07137572  0.36330586  0.46931465 -0.38912219 -0.11348180 -0.28595413  0.33585557  0.16408780  0.03206379 -0.22329080 -0.00123333 -0.38864669 -0.13927620  0.21994813  0.28405875 -0.39797574  0.33567627  0.17117186 -0.18281990  0.04074852 -0.08366263 -0.10281145  0.03303873 -0.18228912 -0.06390252 -0.09159478 -0.41411699 -0.27128069 -0.24097877  0.34360475  0.45844006  0.18311565  0.20237971  0.42320740  0.28943343 -0.41565913 -0.36730985  0.12072294  0.24384690  0.16016147  0.39282757 -0.26200259  0.26688160 -0.25109823  0.45328040  0.04625207 -0.15378837  0.28421939 -0.28733891  0.15860294 -0.17985064  0.12415263 -0.44907997  0.34829833  0.43696802 -0.01787146 -0.24814771 -0.48192159  0.20618830  0.00634799  0.35722289  0.16022564 -0.31487920  0.05540295  0.07934871  0.47055512  0.13578628  0.20809862  0.08734289 -0.12430435 -0.13568189 -0.02377380  0.10975157 -0.37273178  0.22121517  0.05914771  0.16967531 -0.43636732 -0.16036383  0.37868162  0.21866820  0.15631949 -0.00051652  0.26636563  0.00153076 -0.06649941 -0.25433153  0.25066143 -0.05107850  0.44922632 -0.24563380 -0.19648485  0.10679447 -0.06324250  0.35607846 -0.31682741 -0.09580112 -0.01138924  0.38786972  0.48800943  0.36066374 -0.25155022 -0.03959397 -0.03350430 -0.12827836 -0.32244075 -0.47847706 -0.46277533 -0.26302541 -0.14309816  0.41161608  0.45133408 -0.49110471 -0.09324362  0.21332844  0.00603664  0.33585508  0.45458552 -0.24772041 -0.21965124  0.39937154  0.00218926  0.07939968  0.00169616  0.43446119 -0.06901356  0.18036637 -0.16584941  0.41507955  0.06372339 -0.18234996  0.27122435  0.30764170  0.27351299 -0.26682674 -0.32518711  0.44650935 -0.24987268 -0.29252992 -0.32108680  0.10244549 -0.38550657 -0.37436514  0.10671296  0.01660995  0.33431332 -0.39190734 -0.15220791  0.28421589 -0.14433240  0.12341631  0.17885513  0.35310901 -0.30192774 -0.32419633  0.28281833  0.12429141  0.35141247 -0.38775909  0.03466573
 -0.12251542 -0.34328426 -0.56288012 -0.46707131 -0.71625473 -0.21749631 -0.27476858 -0.28174674  0.47251745  0.03648889 -0.31126969 -0.38540945 -0.26237986 -0.18683022  0.05761572 -1.14260650 -1.21838270 -1.43005311 -1.34687756 -2.12672274 -2.03136808 -2.62177641 -2.17724868 -3.35263650 -2.63036736 -1.23648625 -1.30220182 -0.19422423  0.11331126 -0.05441708  0.73383390  0.75510043  1.51146672  1.98250533  1.71833334  2.29815870  2.03309259  2.48467605  2.81673398  2.15948886  2.47150623  2.44473223  2.70290379  2.18338634  2.77521624  2.49673236  2.23565017  2.86472418  2.34269622  2.43829703  2.45898124  2.25261327  2.04481219  1.54632879  0.89686126  0.70030190  0.67812145  0.12836098 -0.21528351 -0.54784080 -0.65462704 -0.60071010 -1.29710593 -1.94596613 -1.64735720 -1.73766417 -1.91535415 -1.98071506 -2.61519769 -2.45427977 -3.17173492 -2.41199838 -2.20961578 -2.50553444 -2.03323328 -2.01428267 -2.30605711 -1.90601062 -1.04205864 -0.59320398  0.11625111  0.18363034  0.59790094  1.14569547  0.70559944  1.36019756  0.52476458  0.80197858 -0.37460498 -0.78997854 -1.97486694 -2.20518478 -3.16819191 -3.15982695 -2.69885726 -1.61252217 -0.73522776  1.41287724  3.95582459  6.75179306  9.09568156  6.65594090  3.30479104  0.46545047 -1.41498446 -3.04878279 -3.65438928 -4.32779452 -3.99562217 -3.40938341 -2.75927469 -1.37262388  0.13554429  0.68000164  0.87442623  1.14230531  1.62457745  1.46382600  1.76137873  1.12217718  0.88412732  0.54405505 -0.69734576 -0.36291386 -1.43790656 -1.41909168 -1.75912545 -2.27034825 -2.83588369 -2.66084235 -3.01606056 -2.90099046 -2.87552341 -2.32121797 -2.43837350 -2.02001054 -2.33890351 -1.94317317 -1.75764355 -1.91993552 -1.58456276 -0.69410987 -0.52288733  0.31589869 -0.06262017  0.66317657  0.49080634  1.39835088  1.99894676  2.18150083  1.68312543  2.43894927  2.68855339  2.44305994  2.89724077  2.48069688  2.49996666  2.86621653  3.11065995  2.84129338  2.59570217  2.52646187  3.25162907  2.81391477  3.03062926  2.41589746  2.29851273  1.97559679  1.46938996  2.10621272  1.22100893  0.52366801  0.59748495  0.76987045 -0.42006295 -0.46715853 -1.27847295 -2.05461770 -1.70361274 -1.17728782 -1.39848487 -0.66403062 -0.84827329  0.01066536  0.02281532 -0.29669988 -0.63622519 -1.67320891 -1.30553224 -1.35980241 -1.46756913 -0.85532883 -0.34266619 -0.63422623  0.10502180 -0.06837622 -0.04026293 -0.14869158  0.63161359  0.44441943 -0.21204357
  0.21990597  0.00668604 -0.69397041 -0.66458805 -0.57309060  0.30840241  0.33777767  0.64597984 -0.63039870 -0.25332448  0.83945922  0.55270084 -0.06020421  1.33944475  1.67585119  0.86736185  0.92370317  1.76720948  2.23486203  2.54815343  0.04540481  0.26372725  1.35439361 -0.37336551 -1.85973392 -1.00785912 -1.35030207 -1.48817350 -0.36174547 -0.65193925 -1.19673109 -0.43728565  0.81607657  0.75546920  0.82711027  1.07565714 -0.59576457 -0.89857706 -1.56732748 -2.29739643 -1.09734242 -1.01575513 -1.03513811  0.48752812  1.07046657  1.16570722  0.72752946  0.42599688  0.93671745  1.57971531  1.19394618  1.18261654  0.69439257  0.48344039  0.64092999  0.35678113  0.07146793  0.10266360  0.23318742 -0.92629587 -1.45948958 -1.10446997 -0.79905659 -1.06176485 -1.44040453 -2.31627482 -1.89989773 -1.95930501 -1.83422516 -3.22149309 -3.27361117 -3.03409003 -3.16445905 -3.30129320 -3.42027020 -3.08430048 -3.01590500 -2.63477252 -2.15238809 -2.14963528 -1.20000011 -0.63491753  0.57881041  0.92895885  1.47968485  1.42313857  2.30943830  2.07297607  1.07244996  0.16623343 -0.71538114 -2.73943028 -3.92345345 -5.28039534 -5.70141627 -4.98297838 -3.76508291 -1.82659615  0.21897037 10.85982190 27.60999102  9.97547752 -0.86189831 -3.76377376 -5.63167210 -6.78348988 -7.32875435 -6.47159219 -5.15526111 -3.33883440 -1.37950430  0.00727142  2.61612199  3.35732603  4.29574523  4.58232136  4.57964562  4.11371881  3.42171859  3.30861568  2.46241542  1.96374718  0.25635173 -0.26712957 -1.02720016 -1.72079636 -1.90275096 -2.33140978 -2.21952643 -2.71213251 -3.04478340 -2.96302535 -3.50818398 -3.47266096 -3.32024400 -2.97895616 -2.55496660 -2.32758079 -1.77624109 -1.48886901 -1.11958421 -1.31859726 -0.87831724 -1.18945386 -0.25501730  0.72649811  0.86204462  0.95576676  1.48017710  2.10635060  1.71429146  2.20664985  2.23472318  1.48260702  0.71647037 -0.65591084 -2.46190514 -1.74371208  0.76609828  2.54470492  4.43435851  4.04457261  2.32562781  1.22931428  0.41115657  0.32198729  1.47254693  2.74899085  3.50412673  2.16168252  1.47736867  1.49080579  0.48003105  1.66359966  1.68289361  0.70380637 -0.05226227  0.38623899  2.34397705  2.92821298  2.16073090  1.77122301  1.81359266  2.06988328  0.98557691  0.84935267  0.81917952 -0.37114824 -0.44176600  1.36343947  1.07699379  1.99263003  0.95951178 -0.84010524 -3.50342445 -0.40617767  1.21111263  1.30621230 -0.70760112 -0.07376814  0.08507101
  0.04755370  0.27612642 -0.14678009  0.44752808  0.03067968 -0.15900436  0.44844281  0.29456714  0.31891918  0.43780827  0.28834961  0.06362363  0.09610342 -0.03009137  0.08530712 -0.39931297  0.47358837  0.46412903  0.38895326  0.25889753  0.13128483  0.15361854 -0.15882629 -0.10761994  0.19675005 -0.49589362  0.07919750 -0.07580822 -0.36879571  0.06856029  0.23293041  0.17875799 -0.15531329 -0.41384968  0.12628608  0.37536639 -0.07285404  0.07472888  0.16993352 -0.25393486  0.01253715 -0.04171686  0.30968877 -0.39135943  0.42819176 -0.10500412 -0.29067240  0.40178013 -0.14087508 -0.40171914  0.16067766  0.49040974  0.25189940 -0.49814862 -0.11721020 -0.05135055 -0.49404224  0.46198730  0.37284123 -0.36283795  0.03054759  0.10577164  0.31592004  0.37523429  0.19192196 -0.05779388  0.25060068 -0.38093208 -0.48306500 -0.07946579 -0.13486694  0.02947215  0.37881734 -0.32517817  0.13811272  0.30700911  0.06981771  0.34744032  0.20878924  0.42894263  0.44572118 -0.13053310  0.41935237  0.19762058 -0.12868172 -0.19785782 -0.35372996 -0.12272396 -0.23587053 -0.48088873  0.01443809  0.29467706  0.12488291 -0.16964187  0.16991135 -0.18319513  0.27256425 -0.07948796 -0.06412721  0.28949926  0.34104624  0.30100586 -0.18102859  0.21986358  0.47582769  0.45708413  0.02687269  0.04564540  0.30452445 -0.26433808 -0.02541197  0.25024563  0.10512882 -0.10605960 -0.05213378  0.47644710  0.19608258  0.09413625 -0.14627686  0.46021205  0.11324752  0.36816122  0.25488911 -0.26186957 -0.30148065 -0.07519954  0.05493530  0.47108360  0.34531250  0.49080809  0.26058286  0.18635874  0.29181395 -0.42044573 -0.09377768  0.26764164 -0.46336161  0.43309501 -0.18671297  0.34116284 -0.33124306  0.28787506  0.09140848  0.27388576 -0.31818454 -0.46072531  0.25033286  0.37789804  0.13341094 -0.39594400  0.33811009 -0.25334153  0.47221722  0.09299920 -0.01521110 -0.32926343 -0.48220034 -0.46027580 -0.35817982  0.36311216 -0.46946770  0.40240303  0.04947090  0.32234625  0.48195730  0.45569323  0.08998788 -0.48140431  0.38878824  0.40327492  0.35975854 -0.44245483  0.19114998 -0.04883299  0.33143093  0.37296544 -0.00955830  0.08176380  0.25086348 -0.37614735  0.18581979  0.08897357 -0.12948889  0.15803702 -0.31802723  0.35530001  0.32877359 -0.30022757  0.39502422  0.47059376 -0.43711541  0.42555651  0.37299680  0.11235550  0.24790276  0.35495409  0.06804872 -0.16210936  0.37354979 -0.04316304 -0.25883444
 -0.47192117 -1.42193573 -1.00953644 -0.21757296  1.17310242 -0.47309410 -3.29712210 -2.61938662 -0.89746363  0.52729072  0.70465560 -1.54912921 -1.35841748 -1.98233960  0.20427783 -0.37548418 -1.99140239  1.92430154  2.34044285 -7.59568471 -1.61309617  2.87956747  0.92018718 -0.25960846  0.70966587 -0.55816847  1.45101699  0.33587841  0.39989915 -2.59481680 -2.16447724  2.12279864  3.99424851  3.63140401  2.28827138  2.64088345  1.24556392 -0.33983816 -1.26782188  0.56981983 -0.39977756  0.63762949 -0.34365826 -1.41555437  0.80397913  0.45947478 -0.69486350 -1.55487962 -3.40405310 -2.90155352 -2.15120781 -2.88123739 -2.56779107 -0.99781089 -1.29389818 -3.40502122 -4.57289258 -2.18961646 -2.11133304 -3.08892919 -3.07684193 -2.92599535 -2.49739392 -2.17798308 -3.66623167 -4.30942498 -3.36686765 -3.12374144 -1.64063219 -1.66226564 -0.45312690  0.89763776  1.50333936  1.85633384  1.76616281  2.68325400  3.37088042  3.31771009  3.74034641  3.61108162  4.08824409  4.34195080  3.85560146  3.92670658  3.86044583  3.27449524  2.33195897  2.06467113  1.28104662  0.46676556 -1.16579622 -1.28091337 -2.34969447 -1.94789847 -1.42357012 -0.68587952  1.04170561  2.26481634  1.98137890  0.54279237  9.89503624  0.74623877  2.07238650  2.20168821  1.82465539  0.33673803 -1.68822644 -2.06995612 -2.50906318 -1.29903606 -0.49036346  0.33654931  1.17666479  1.54478068  2.34583964  3.02357574  3.80193624  3.80045427  4.51887965  3.99174001  3.80024067  4.59050420  3.60124784  3.75726625  3.90542612  3.63005461  3.02848043  2.21784171  2.44646109  1.53404557 -2.12442192 -0.10687704 -0.41218802 -2.06716192 -1.21208575 -0.78086659 -1.54602506 -1.80938437 -3.06672564 -3.26741950 -1.85443397 -2.24850223 -1.93663894 -2.10404738 -2.07285697 -2.78586480 -4.25587724 -3.81104761 -0.68804876 -1.93777930 -0.79214766  0.75712269 -0.82260409 -1.57004862 -1.18300632 -0.07166123 -2.20955655  1.68232024  1.35254277 -0.77632408 -1.72800809 -2.36607465 -2.84887889 -1.15821436  0.23341146  1.30119793  0.23770325 -1.99954272 -3.00101283  2.96320044  4.32396337 -1.00583234 -4.03563643  4.99417169  4.92234849  3.80191629  3.91381970  1.55747929 -1.50421670  0.37515384  0.97992847  0.31042951  0.32172201  0.58144074  1.77395340 -2.47953520 -0.66291953 -3.56133936 -0.44343515  2.84956433 -1.36024853 -3.51983805 -3.09138902  1.73186866  0.96020928 -0.50760280 -1.77214095 -0.74148161 -1.06244130 -0.92452223 -0.90202330
 -2.91317893  1.17485403  1.65923352  2.96314141  1.43996284  1.04466572 -2.34220644  2.48397226  2.18707955  2.12792127 -0.50791922  0.20337517  1.65516931  0.85949952  2.78167210  2.52004964 -2.82446799  3.25670132  4.34402156 -3.60723757  0.47126512  2.42734393  0.62932654  0.76657015  3.01977363 -3.94574276  0.26805399  4.09030624 -0.21500088  1.19301671  3.81950536 -1.92600657 -1.12176663  1.29871633  3.81548293  1.58497718 -1.75573050  1.82014849  1.85209853  2.40506461 -2.33957771  3.38926433  2.75522522 -2.88811337  0.84440480  0.72727248 -0.29498691  2.16504256  0.51811684 -0.09488448  0.84722106 -2.39767286 -3.55592055  2.04453918  2.36054097  1.73190566 -0.16946806 -0.70242400  3.35114501  2.12688204 -5.72113394 -2.87602687 -0.86434179  0.93307645 -1.54765928 -3.10024801 -1.94960342 -4.71587679 -5.21034545 -5.99977387 -3.94841968 -5.23044301 -4.85281286 -2.38558072 -2.86545580 -2.29737031 -2.50700454 -3.52375832 -4.49520881 -2.85141213 -1.01348480 -0.85354159  0.81764808  1.75110152  1.68618158  2.90203624  2.96202132  2.64644234  1.29018150  0.12656468 -1.43953534 -2.77401339 -3.28179526 -2.87556391 -1.04093406  0.58443250  1.30839934 -0.80093608  1.94785425 -1.39335911 -2.82794009 -3.80420534 -0.76003126 -1.11803766  1.21247924  1.13082470 -0.89189434 -2.74038763 -3.14933376 -2.02176388 -0.69519610  0.68739135  1.28868418  1.53744116  1.64216503  0.99673947 -0.32049359 -1.27695121 -2.54352053 -3.66395781 -4.45401162 -4.45677360 -3.85995752  0.54122282 -1.85251486 -6.79259271 -6.94277411 -7.06900153 -3.23383032  1.75267136  1.46991034 -2.79932464 -2.90033388  1.96025166 -0.42277880  1.12787689  0.54326895  1.62277645  0.14205818  1.54590055 -0.15781555 -2.53661933  2.53586463  1.72955698  1.03275245  1.81049108 -1.07860286 -0.99050697  5.43912059  1.45403132  1.29560307  2.97606047 -2.95444279  3.91986467  2.63051955  3.83796285  2.41160678  0.72421621  3.54187973  1.48588809 -1.35186562 -2.20315592  2.01326055  2.53707469  0.62007545  1.08389094  0.88307678 -0.51191246  2.50244267  2.24694578 -1.40469817 -1.76517361  0.33204205  4.73763632  1.17640678 -1.71322499  2.40682511  2.92112367 -2.66947350  1.81421396  5.30301387 -0.26964590 -4.65883377 -1.54414429  5.39582417  3.06334239  2.76317719 -3.21152779 -0.90295834  4.04229008  1.32704065  0.98133856 -0.37083262  0.99495181  4.65731673 -2.05993677  0.61304363  1.94559184  1.80616054  4.11352485 -2.28341451
 -0.23227346 -0.29204530 -1.02017843 -0.27593333 -1.43897108  0.29305798 -1.14615533 -1.13661111 -0.46134243  1.45961719 -0.11829208 -0.74827566 -0.17823266 -0.44938928  0.18639429  0.86102352  1.22398545 -1.24522299  0.31901461  1.50148296  1.61741063 -2.14101863 -0.99648555  0.30834407  0.00009784 -0.09789115 -1.21209322  3.20468206  0.71666564  0.92716146  0.17139303 -1.59309422 -2.03708458 -0.40297521  0.28522491 -0.93755539 -0.91915979 -1.02162664 -0.31766525 -0.92276502 -0.43100490 -2.07193465 -1.29035923 -0.36141532 -0.49800263 -0.66599504 -0.37665979 -0.17599128  0.12937927  0.75877486 -0.25249618  0.57168618  0.41783868 -1.37592982 -1.26068830 -0.51256197 -0.63379724 -1.63915690 -0.26134050 -1.35932147  0.30971658 -2.02236305 -1.89269007 -1.59235815 -0.19042940  0.62624947 -0.33501188  0.05469601  1.16648982  0.65391548  0.24570170  0.17245169  0.15562780  0.33608152  0.07548698  0.03176719  0.24197216  0.64743611 -0.00886977 -0.13788132  0.55022280  0.21158288 -0.21095608 -0.72166589 -1.21246354 -1.32335196 -1.32428411 -2.31806717 -1.98106682 -2.36538412 -2.59276474 -2.47606293 -2.19007860 -1.67748190 -0.39515914  1.80013281  4.85285467  7.82450049  8.25235075  4.06922496  0.31091708  4.74564032  9.08141968  8.14574389  5.10175781  2.33296075  0.14234133 -0.91399798 -2.22612110 -2.06225897 -2.93728773 -2.57973131 -1.90346117 -1.49852906 -1.05954058 -1.36730084 -0.63682549  0.17295500  0.17469143  0.46378863  1.00264674  0.63053449  0.14514290  0.57166640 -0.57074671 -0.08554288  1.17932500 -1.73588744 -0.63563959 -0.23949084  0.24840618  0.62382364  0.42102924  0.75431644 -0.44320707 -1.63706663  0.20599894 -0.18717699 -1.29689766 -0.48961837 -2.04253488 -0.59024407 -0.90401085 -0.74657080 -0.47444310 -1.45792715 -0.74518828 -0.27115858  0.81090007 -1.52797611 -1.85347477 -1.82180431 -0.43548875 -1.16711956 -0.15735043 -0.35294438  0.89444269  0.47121023 -0.26084976  0.18925315 -0.63714743  0.22060276  0.88377147 -0.66000999 -0.30921160 -0.60652879  0.59819449  0.12413408  1.15736731 -0.56401291 -0.37329903 -0.11953255  1.02725863 -0.86780759 -0.58840209  2.28644486  3.48310520  4.80242305  3.44808831  2.11491660  2.08112249  1.74325754  1.01423985  0.15637653  1.22029345  1.89759185 -1.05649858 -0.58771241 -0.37980335 -0.86430567  1.59973955  0.46887949 -0.93724632 -1.47024882 -0.45901061 -1.20975684 -0.39788756 -0.24689364 -1.44655991 -0.53784233  0.26064346
 -0.04924022  0.18328395 -0.23981207 -0.29828981 -0.03773996  0.33206651 -0.37312836 -0.36241549  0.15479778  0.40424289  0.48021174  0.41274543  0.42481406  0.34303878 -0.08500713 -0.32567609 -0.47962460  0.00606487 -0.08519556  0.25415426 -0.23340715 -0.25978753 -0.35756556  0.42093565 -0.30610325 -0.46770729  0.49490287 -0.07838212 -0.35631708  0.28083531 -0.44002818  0.09451675 -0.03581114 -0.17977301  0.29629301  0.42651402 -0.34764253  0.42322765 -0.43583726  0.30722077  0.32754025 -0.45555314  0.22003867  0.25242814  0.38755748 -0.36489845  0.42682000  0.40799979  0.14123565 -0.15830507  0.16222493  0.40789861  0.08197749  0.30472889  0.32890356  0.27594530  0.33709481  0.32388118 -0.30236188  0.48085109  0.10479034 -0.24231673  0.07544243 -0.43094606  0.07798359 -0.12819171  0.49564042  0.23041383 -0.20489144 -0.44012335  0.03770819 -0.37727739 -0.39560228 -0.24217840  0.37522467  0.49202840 -0.10700270  0.30211930  0.40010375 -0.46569299 -0.35611219  0.06240221  0.44227955  0.22593908 -0.13279470  0.27125813  0.00195888 -0.29562603  0.09521361  0.19967120 -0.31470016 -0.29992161  0.45742865  0.26081562 -0.23079512  0.03548498 -0.36730412 -0.23508208 -0.23402368 -0.07209662 -0.17508371  0.30377800  0.05067825 -0.07066130 -0.43835120 -0.07402678 -0.07855715 -0.04527789 -0.27183187 -0.17837811 -0.01089581 -0.12786909  0.38409904 -0.06854125 -0.40185490 -0.24862042 -0.29720776  0.10017944 -0.04417092  0.29808140 -0.20007380  0.14120366  0.49823407 -0.24257023 -0.09790459 -0.23248372  0.29299226  0.03486835  0.03251126 -0.44095870  0.46282486  0.35745843  0.36287351  0.01357764 -0.21312437  0.42460071  0.43962871  0.20839505 -0.12059988 -0.33212653 -0.46990670  0.36857923  0.04007847  0.41426593 -0.19988832  0.13829755 -0.33428023  0.00297774 -0.26145003  0.12162094 -0.19886938  0.03854747 -0.23710233 -0.20056126  0.29605086  0.16506461  0.06702619  0.08911560 -0.29999170 -0.40038659  0.14823179 -0.33709300  0.45714383  0.01117820  0.17655879 -0.25590568 -0.06414524  0.11626178  0.45256264  0.31532726  0.28420842  0.48273066  0.18398136 -0.17563944  0.39706758  0.48416313  0.46272957 -0.43713860 -0.01278378 -0.29864515  0.18455588  0.28841879  0.23997487  0.44752615 -0.41206983  0.03609822  0.11266165  0.15502621 -0.37471857  0.31273713  0.25470495  0.27357639  0.47570761  0.21191451 -0.21517351  0.15234190  0.45608695  0.22076117 -0.23131200  0.40873780  0.03617705
 -0.44736327  0.39119225 -0.28013332 -0.12295676  0.28831204 -0.29591269 -0.16016509  0.35123928  0.19137298  0.04126398  0.03587338 -0.02012602 -0.21867617 -0.01651576  0.06788861  0.31750430 -0.40377258 -0.27700332  0.44286900  0.40904995  0.47779054  0.21653984  0.38485554  0.18980350 -0.49853735  0.03729286  0.14598545  0.22231380  0.30606545  0.05479952 -0.24143969  0.35911508 -0.05358450 -0.02113852 -0.26339964 -0.26482459  0.18340165  0.07689107 -0.41312961 -0.12476846 -0.38138819  0.12320089  0.35556047 -0.09961276 -0.39286717 -0.07610421 -0.28166064 -0.29618965  0.14734221 -0.33834189 -0.38668878  0.12558307  0.37864895  0.49861846 -0.18416048  0.38056411  0.03636437  0.46227696  0.10333019 -0.15711737  0.01753018  0.36234681 -0.29754583  0.46440393 -0.15833319 -0.06048572 -0.29996124 -0.47447112 -0.48313255 -0.21262712 -0.09877496 -0.36405656  0.41103787 -0.24275108  0.03679562 -0.48136484  0.18161015  0.25559994 -0.27709027 -0.17058303  0.41772373 -0.16331204  0.45546762  0.29683966 -0.16422620 -0.22822525  0.17787160  0.37260609 -0.26548036 -0.21832968 -0.28404178  0.25252123 -0.35550969 -0.08111027  0.21740639 -0.01335631  0.35889617  0.41794119  0.01266707  0.37625075 -0.29420054  0.41435629 -0.48735726 -0.38273820 -0.32797470  0.04985211 -0.36369057  0.35404984 -0.19412945 -0.14035705 -0.31610654 -0.27597735  0.19676042 -0.36020927 -0.47870867 -0.46703792 -0.08800818  0.19958752  0.40599082  0.14693193  0.48167575 -0.37763623 -0.10013613 -0.37342780  0.04165235 -0.38234063  0.11359290 -0.09908594 -0.46404764 -0.37339900 -0.22250265 -0.25792712 -0.45871139 -0.20951970 -0.14031475 -0.28632275  0.34070879 -0.00361648 -0.43187395 -0.35301343  0.35644109 -0.24756070 -0.12856709  0.05362771 -0.10734005 -0.10684200  0.08702715  0.30509134 -0.40681313 -0.00653852 -0.04753082 -0.42468960  0.11627352  0.35278226 -0.29766847 -0.34162186  0.47089660  0.31638135  0.05974721 -0.49269577  0.44343904  0.33770261 -0.25016307  0.48518757 -0.37135721  0.10998366 -0.30067330  0.46981369 -0.39317117 -0.23208448 -0.38273660  0.46373325  0.02081733 -0.01083980  0.01782685  0.41394368  0.38278341 -0.39468208  0.21950060  0.47643944  0.09925318 -0.32755246 -0.44776807 -0.28398424 -0.47427618 -0.24494292 -0.12511734  0.49710141 -0.42808511  0.43510477 -0.49511962 -0.48417060  0.27328046 -0.24481572 -0.49852802  0.40236629  0.36560117 -0.29877503  0.37260362  0.47285330 -0.03043832
  0.49208789  0.43888743  0.49277942 -0.01806238 -0.04259402  0.40738756 -0.13464954  0.06331602  0.12744565 -0.15768451 -0.33693393  0.30036386 -0.10500405 -0.12048416  0.32651050  0.15046981  0.25481034  0.32402413  0.22280409  0.19033924  0.32932689  0.23905093 -0.03597113 -0.41508893  0.24090799 -0.13323169  0.45088527  0.44252151 -0.26021676  0.42418056 -0.08745031 -0.26945275  0.36166825 -0.09616606  0.21090315 -0.18258645 -0.19050506 -0.42552290  0.37891690  0.43509579 -0.08507612 -0.45990526  0.23355930  0.30801113 -0.08230820  0.05813597 -0.04346592 -0.32945754 -0.11981438 -0.32265979  0.35885784 -0.29253260  0.41432332 -0.17920168 -0.20972239  0.15312868  0.18546586 -0.26093745  0.09354048  0.42312372 -0.33889916 -0.49607076 -0.34850221 -0.47942138 -0.09443952  0.36018774 -0.16422866  0.21282614  0.43242575 -0.28755917  0.14566671 -0.15490995 -0.24972907 -0.12304360 -0.34917686  0.16568157  0.43280676  0.10506617  0.33392754 -0.18931246  0.28009461  0.19046514  0.01582649  0.19208285 -0.49107761  0.30375730 -0.15714148  0.19203103 -0.45953795  0.43404373  0.11280352 -0.30078697  0.43562707  0.26195624 -0.28255207 -0.16115350  0.11981655  0.05093627 -0.45052391  0.05014648  0.26133750  0.19304313  0.39304429 -0.49063697 -0.43218002 -0.45820903  0.17306018  0.49869674  0.14495304  0.00509745 -0.19248891 -0.07680419 -0.30626433  0.32153922 -0.38648872 -0.29907685  0.12359489 -0.04529817  0.39132001  0.16245659 -0.11282090  0.00259053  0.36017131 -0.17865511 -0.23687277 -0.42375500  0.15886166  0.38164570  0.12589468  0.20702261 -0.06957117 -0.11416896 -0.10129799 -0.17784313 -0.10609345 -0.03477836 -0.13739343 -0.43442729 -0.03752797 -0.49393965  0.06911815  0.26838136 -0.07239376  0.26115858  0.08817795  0.03932650  0.46024281 -0.29010963  0.49210869  0.34961320  0.37036935 -0.12271620 -0.14982347  0.22849140  0.19655855  0.11120507  0.30261746 -0.14671017 -0.00928037 -0.07362903 -0.44184160  0.41898213  0.31002182 -0.04533374 -0.26106805 -0.29829271  0.41765934  0.09930261 -0.23496095 -0.12211448  0.10311658  0.33191151 -0.35598035 -0.47153248  0.09080197  0.22992251  0.06551707  0.04876848  0.43753380  0.05534002 -0.10391722  0.30559025  0.43029768  0.24390701  0.03169847  0.12444955 -0.14731058 -0.16811629  0.47529861  0.34097063  0.25582296 -0.46896733  0.25754469  0.06346276 -0.01664087  0.49418473  0.26293134 -0.10116119  0.09136910 -0.47409042  0.27471501
  0.46733730  4.63639395  2.88155520 -6.79005015  0.51098877  5.36625349  3.69868913 -6.22341431 -1.01841478 -6.02707840  2.46763491  3.20648149 -4.29409253  0.44518492  8.86396328 -2.65413754 -4.44729179 -3.86013291 -0.67138558  4.17449933  2.99520912  2.57898997  4.34263472  1.27146007 -4.83568263 -4.10563954 -4.70485892  1.69854902  6.97656092 -2.36257404 -4.50447870  4.35708563  2.20220934 -2.97605660 -4.42308831 -1.73316591  3.43273259  4.73705301  1.86918131  4.00925682 -1.75767555 -3.38220297 -4.30164366  0.32460129  3.63069524  4.88096476  1.43906581 -6.60061746 -3.27853971 -3.94877385  7.51059452  0.56821645 -6.28612119 -1.43637937  2.95293592  4.62624119 -1.81912654 -7.84203654  2.20518402  1.75626058 -0.24073541  1.05240727  1.18848248  0.70799532 -7.91361407 -2.77188506 -3.94669371 -4.53586385 -2.18800794 -2.93552654 -3.96628635 -3.14851465  3.36395746 -6.45301278 -2.01840921 -6.69810234 -0.45123057  2.73299992  2.46296022  2.52369693  3.43466197  3.56387557  3.50329287  3.83791916  3.83499597  3.42700259  3.25427275  3.59526505  2.79845513  2.23221407  1.53849391  1.02137866 -0.31281168 -0.75160795 -0.33029406 -0.35366120 -0.60051536 -0.97583318  2.80002857 -1.11985403  2.30681809 -2.52529021  1.22725081 -1.16336155  0.36732665  1.02802022  0.04162951 -0.45861498 -0.87003350 -0.47761843  0.91060259  1.62714829  2.09920250  1.95267386  2.38032625  2.27657707  2.31322815  2.37711112  1.66633703  2.21390045  1.26434815  0.35103176 -1.09183522 -3.25806324 -2.44774291 -2.81544233  0.20404129 -0.69704702 -3.05597586 -1.05586758 -3.56293019  2.45558832 -3.35241764 -4.20680166  0.81460819 -1.55252544  0.05307830  2.30803389 -2.37621995 -6.11986432  2.01383083  2.62085337  2.97142626  3.41969799 -1.27214060 -5.29245216 -1.70268529 -2.43837229  5.20406884  5.96049777 -3.38245395 -5.58313086  0.15173171  3.73351673 -1.27182124 -3.07100362 -0.88709479  1.20110110  3.06126664  6.13057942  3.50782431 -6.24823735 -4.05055108 -4.55411690  1.77986049  5.32299280  3.53325559  4.35442664  2.71608659 -4.26757537 -3.87520770 -3.81616878  4.62487840  4.05684402 -6.55170680 -1.89362690 -4.49964570 -0.09689673  5.99792947  4.68553818  2.12175467 -5.92968883 -1.32043060  1.84604752  4.44890339 -3.01255703 -7.23866498 -4.07144816  7.11685184  5.35587094 -0.30213825 -7.16933514 -1.71799415  6.36003021  9.50938875  0.41612159 -7.62382266  1.44829820 -2.92015322 -3.46920413  0.68530627
  0.33484995  0.31222605 -0.28297146  0.71461793  0.54922599 -0.08230213  0.00522852 -0.38583131  0.15764934  0.42255642  0.82967695  0.50883540 -0.47272454 -0.34810030  0.30845405  0.96284272  0.85004607  0.89121190 -0.40116359 -0.64674155  0.20735058  0.90375379  1.42633781  1.03260861  0.79237554  0.43636769  1.56380308  1.98670056  1.40681038  0.60807433  0.00723128  0.21822452  1.97186510  1.20700701  1.64647905  1.65283275  1.63720808  0.43812243  0.35978838  0.26008257 -0.19711417 -0.40793080 -0.41673233 -0.89297434 -0.35970639  0.22844000  0.07290980  0.65768297  0.21596954 -1.03263991 -1.59018106 -1.26060649 -0.85135731 -0.84869089 -1.06094740 -1.42357774 -1.28374429 -1.00822660 -1.61062212 -1.90187589 -2.27331701 -1.20581413 -0.45899567 -1.08555087 -1.27246010 -1.79211904 -1.11543951 -1.70614855 -1.47313149 -1.91269141 -1.05158869 -1.01814884 -1.29789826 -0.60626021 -1.21033816 -0.06857329 -0.97842308 -1.05665251 -0.18041071 -0.42096467 -0.56158835 -0.88403740 -1.07977256 -1.34731605 -1.46444827 -1.38706888 -1.07084275 -0.55342350 -0.92145563 -0.61230292 -0.42750624 -0.21250621 -0.19249288 -1.30810529 -2.22060055 -2.48943367 -3.36038382 -2.48828089  1.68085625  3.99715848  8.04846958  5.94447424  1.58315533 -2.49126344 -3.74847765 -2.97676923 -1.90003671 -1.28818772 -0.97502281 -0.64821544 -0.56890011  0.50029098  0.47622809  0.41053296  0.34434753  1.36754556  1.48059286  1.67497372  1.96022407  2.28450527  2.30360774  2.41727774  1.81190243  2.09092393  0.95023033  0.62285722  0.13453046  0.22897622 -0.67825036 -0.52386891 -0.26015387 -1.26531831 -0.91367768 -1.71201605 -1.19152581 -1.24761673 -1.07755768 -1.63967617 -1.03666205 -1.26654194 -2.15981952 -1.78058853 -1.01770125 -1.26541422 -1.90036739 -1.15418551 -2.04829239 -0.77311323 -0.90732150 -1.21435340 -0.57137012 -0.57199624 -0.58019277 -0.89618744 -0.13117997  0.96928604  0.34741910  0.70845503  1.68172552  1.63720811  1.33936889  0.18573263 -0.39952147  0.65689796  0.65145026  1.78716982 -0.10002009  0.33273360  0.81544642  1.25926971  1.25018057  1.18620039  1.20902817  2.08637449  2.84575351  2.28023213  2.24791134  2.52799368  2.37482767  1.63250769  1.26257185  1.69845326  1.95960364  0.99342051  0.77765503  0.18663165 -1.05980068 -0.44614404  0.27079193  1.53413875  0.25360682 -1.47326442 -0.39145533  1.46420553  1.37086599 -0.13378528 -0.23168826  0.36684546  0.27431865 -0.61505885  0.62782620
  0.94097789  3.11150861  1.01900105  2.65024952 -0.12703280  1.23710238  2.11235316  1.23626816  1.51017244  2.34397161  2.07494135  2.39541439  1.43113280  2.31723831  1.15756890  0.77069321  2.23008233  0.27268645  0.42306887  2.39730883  2.69626408  0.07795490  1.44380691  2.50212768  0.48755297  2.20675011 -0.44640306  0.85811099  1.45370105 -0.25125821 -0.50344792 -0.56931511 -0.66870400 -0.45019274  1.07096854 -1.03846641  1.43993746 -1.51999319 -0.22045323 -1.42882144 -0.76330771 -0.49378064 -0.89726367 -1.23170496 -3.40365711 -1.12418478 -0.50916460 -2.22935424 -1.21191533 -2.32948534 -1.85254289 -3.74570471 -3.37879174 -1.57789197 -2.22632379 -2.25086258 -3.14550796 -3.67310575 -0.32687654 -3.45028878 -3.36662958 -4.66804655 -1.65036316 -3.24133377 -3.81267482 -3.78437883 -5.07135519 -4.40080880 -3.56390811 -1.97706781 -5.74873235 -1.98993172 -0.61525781 -5.01023248 -3.37040988 -5.06013389 -3.54526129 -1.21378111 -0.66637546 -1.02499117 -1.09621342 -0.08460126  0.13169442  0.34863919  0.60790076  0.78154897  0.22116502  1.15809477  0.99486195  1.52476556  1.52544449  2.16513991  2.02918130  2.19493515  2.18362086  2.61730378  2.60869338  1.27701784 -1.29293938  0.25938457  1.51422301  2.19299382 -0.63872512  2.02722131  2.93597523  4.01577849  3.36068793  3.53004487  3.59021825  3.33681939  3.20606202  3.34534766  2.95448321  2.86049651  3.01199851  2.65888447  2.50658834  2.85905595  2.19916952  2.63474563  2.26167671  2.59113592  2.50242759  0.87543331  0.93898531  1.93818742  0.94132876  0.78788843  0.83813902  0.04147547  1.34858593  0.52914219  0.50644999  1.29999738 -1.05277049 -3.05146825 -2.12311647 -1.84526765 -2.25320009 -2.92149965 -3.50513886 -2.71132819 -3.56927174 -0.94641183 -1.15101126 -3.46138244 -3.14744809 -2.18550990 -1.68652755 -1.84240990 -0.11620091 -1.83386366  0.07906661 -3.94987481  0.32009138 -2.45900678 -1.76634039 -0.50272985 -2.18365353 -1.34382393 -3.33250016 -1.82012527 -1.85346527 -0.14471071  0.18731859 -0.64967769  0.53658258  0.17797091  1.33848503 -1.31589709 -0.38313839 -0.39731723  0.82498921 -0.76373153  0.25857284  2.24255288 -0.08747516  2.42945579  2.72024945 -0.58914647 -0.70223970  1.08015462  0.97487306 -0.03424685  1.11302799  2.20218110 -0.07943529  1.03704832  1.70028543  0.89160015  2.43674773  1.63432579  1.07098204 -0.21709860  3.68276842  0.85746688  1.25769018  2.61027385  1.53552996  1.09954120  1.00520377
  0.70584800  0.14346131 -2.21055567 -3.03508001 -4.72100891 -2.81485697  7.94705030  8.39399617  1.74380965 -4.93013242 -2.38438026  0.67515869 -4.05429385 -6.39069452  5.91807098  5.15267812 -1.90208178 -5.54011641  3.74786949  8.12062181 -6.34539312 -3.47296860 -0.86465975 -2.00543045 -3.86575990 -0.86290786  4.53520942  3.87344039  1.63077944 -4.35664884 -5.64147945  2.51910408 -0.71644820  0.85865275  2.40789383  1.90008518  2.17728251  3.60694378  0.54756185 -4.03310779 -6.26569583  3.41780717  3.11598068  1.99837124  1.32301191 -5.88477631 -3.39542687 -4.04929964  6.57878365  0.93993419 -2.64373670 -6.93379008 -1.10878117  5.41631603 -0.01371223 -3.59591754 -1.44129960  2.37353808 -1.46875129 -3.01158898  0.03563778 -0.37989853 -2.42762094 -1.53685447  0.90310826  0.59722371 -0.70887570 -2.72977192 -1.21635874 -1.51775526 -1.61105572 -1.62029493  1.60353784  0.91930107  0.84487664  0.63353401  1.85812108  1.61496757  1.54483522  2.05376561  2.42412381  2.04095477  2.20693070  3.06054686  2.78912343  2.47570367  2.44543189  2.28152334  1.50648795  0.21297716  0.28010786 -0.61695960 -0.23963577  0.36568077  0.42378234 -0.07937213  0.16878509  0.27202436  2.15305525 -0.83893727  2.47992531 -2.03471257  0.53872590 -1.02177583 -0.69630929 -0.52676940  0.15254413 -0.00794488 -0.77336962 -1.12588858 -0.47504818  0.79480444  0.71737574  1.65501065  2.50028463  2.71873741  2.96828283  2.60435882  2.73933404  2.54803563  2.39628214  1.84529641  1.79418116  0.58073066  0.76524839  1.03220713  1.06755951  0.35363552  0.56768927  0.59222416 -1.88585035  0.63916718 -0.11160156 -0.32877938 -1.23262568 -2.97267838 -0.74883429 -1.10185482  0.92726068  0.87802379 -4.45146480 -2.99769376 -2.12946131  0.94980854  0.78684295  0.42860559  2.60304753 -1.35674805 -5.26890454 -1.84732176  2.84493396  5.12050264 -5.07925234 -3.38203548 -1.18435742  3.69331526  0.91516157 -0.87074359 -5.92217829 -1.38620754  2.24400686  2.16004590 -3.79828040 -3.31694756  0.85342112  6.28171401  2.51365786 -8.05921346 -6.18273938 -2.04122028  7.18334470  0.15357989 -4.22054959 -1.97086095  4.11796250  9.39491302 -6.54985078 -4.41748118 -4.51250682 -4.98274039  7.40060774  3.21347073  1.70054217 -3.60607537 -4.55498449 -5.24983046  6.97993077  4.64459489  6.14369286 -7.11323608 -2.93342156  4.36498423 -3.69648243 -8.27730610  3.25679208  4.20782401  2.62023592 -6.09949044 -3.37898703  8.53566373  0.72862648
  0.83491316 -0.11151101 -0.01191385  0.80290429  1.58034828  1.98193743  0.34409409 -1.86062801  0.89954632  2.72612232  0.97695805 -1.44309168 -0.26081844  2.95125404  0.57503323 -0.96229350 -1.55739756  2.58366185  1.50720843 -0.74283432 -0.95351972 -0.17484546 -1.83994555  1.01982801  4.67933220  3.17873711 -0.98446380 -2.05009970 -2.72832732 -2.36846472 -4.25506553 -2.64795934 -5.27341768 -4.52158415 -2.88263057 -4.90895436 -6.13728416 -3.87910020 -4.41353102 -5.57242262 -7.23323203 -3.43820519 -5.64412715 -5.14113661 -6.41721532 -8.33139373 -8.63901249 -6.58852725 -7.77385069 -8.20426772 -7.01140723 -8.20344937 -7.14530860 -8.05939511 -5.63626946 -7.08276489 -7.08290302 -5.33859330 -5.43369074 -7.39719528 -7.98169208 -3.70748079 -6.41041608 -2.74273710 -3.85678544 -4.68200990 -5.03922828 -4.81788599 -5.65941572 -5.83636211 -2.88556641 -5.58787546 -1.94990178 -4.08209951 -0.72277681 -4.15213924 -0.33202379  1.92208993 -4.94570461 -1.27307769  2.33812970  2.92627847  3.04358145  2.79268505  2.72023434  3.22700738  2.94532860  3.61896849  2.90847800  2.82482090  3.12692715  2.87647664  1.86208783  0.63857054 -0.07491471 -0.82017802 -1.29072874 -1.68201250 -5.78381843 -18.1675069 -0.45481429 17.24182785  7.34459406  2.34823367 -0.15657806 -0.62742636 -0.34204882  1.35320829  2.40880903  3.16280687  3.22943482  4.09752385  3.61531812  3.22470221  3.47997201  3.69992861  3.66589756  3.53020976  3.34582089  3.56756870  3.39701418  3.04903518  3.85174429  4.06434038  3.82069978  3.27782731  2.85594693  3.26266977  4.05315876  3.02423947  3.28022295  2.41963611  3.25695936  3.66508893  3.08548295  3.49391627  2.10779562  2.10513819  2.61735322  2.33501383  1.65902393  2.34811545  1.20145428 -0.37314110  0.86763232  1.68477310  2.29278262  1.18945284  1.98249451  1.75376254  1.22041803  1.24797450  2.33483077  3.28525812  5.30734188  0.69211634 -4.74030751 -2.46072325 -3.51474643 -3.87601491 -2.04848340 -2.22656005  0.63192482  3.82324593  4.35337556  4.04973174  4.27500065  4.32075053  4.97420930  5.15954365  4.45209416  4.41188095  3.81567554  3.10570094  4.62604399  5.37685185  4.86706031  4.15565878  2.08953069  2.41353882  3.51958871  4.23371327  2.46118862 -0.66577492 -0.28798990 -0.21930072  0.45738621  3.09307778  0.50097424 -0.23189165  0.17639189  1.95709124  4.67535956  0.22013036  0.05517696  1.89119403  3.35787514  0.30888552 -2.27885818  1.26540963  0.69396414
 -0.40199652  0.56961656 -0.32222628 -0.43556389 -1.23169264 -1.17640420 -1.02303611 -1.13874211 -1.48791596 -0.87095784 -0.72527574  0.39259566 -0.51165253 -2.23850436 -1.11470102 -0.27318068 -1.01185575 -0.36438469 -1.20285843 -1.38439624  0.19888255  0.23654498 -2.25739849 -2.70591031  0.60269300  0.62770668 -0.69556517 -1.31949290 -3.64209113 -0.68485886  1.32262174  1.61690528  1.12951334  1.17447634  1.71052765  1.75929338  1.29140625  1.62883008  2.04571421  2.31869388  2.44646742  3.12206956  2.43598274  2.31459887  2.27554970  1.52515393  1.60096152  1.52536607 -0.10753202 -0.10158770 -0.34851787  0.71319641  0.55488507 -0.50023704  0.02876605  1.02312926  1.27323910  0.26770589  0.06157900 -0.60656618 -0.37944309  0.43691752 -1.24662049  0.55288865  0.22560291  0.31603894 -0.05061822  0.04252771 -1.52549355 -0.70673006 -0.51888254 -0.62068241 -0.36022714 -0.17003424  0.02561808 -0.48263256  0.01325248 -0.11523312  0.27312567  0.49996032  0.16394781  0.76378766  0.78448297  1.32938212  1.40046764  1.42030372  1.58981608  1.86541619  2.05393423  1.28794864  1.18449651  1.46509738  1.57543865  1.73023810  1.24075557  0.49360886 -2.13946123 -3.26100751 -0.55968571  3.68169688  4.33771537  3.03089750 -1.10525493 -3.05903992 -1.54682838 -0.75404666  0.88724139  0.95406731  0.60618645  0.32382858  0.20014623  0.62759543  0.11835231  0.98634511  0.72296871  0.94097233  0.47946019  0.09899000  0.40088089  0.03193103 -0.14798289 -0.05126963 -0.33751374 -0.70710502 -0.30460207 -0.44346680 -1.04014725 -1.41794464 -0.58841725 -1.48782569 -0.96746916 -0.82164342 -1.22970483 -1.32095912 -0.51090612 -1.43887359 -1.96176960 -1.46396631 -0.75895642 -0.38966680  0.17943538  0.09730417 -0.51332056  0.40924970  0.17612047 -0.79169496  0.74418355  0.40572262  1.36325417  0.73309917  0.67019933  0.83781994  1.50479426  1.29270273  1.71498473  2.47056312  1.40445194  0.17236198  0.98579635  1.53621508  1.34837085  2.33007440  1.90497142  1.24002303  0.53719165 -1.30589588 -0.95775302 -3.65034429 -1.89899788  0.41654951 -0.03641453 -1.38777221 -1.31523489 -1.15086843 -1.65840815 -1.33119168 -0.30850870 -1.28214364 -3.13242337 -0.47477293  0.62601210 -0.80400251 -0.19738446  0.03456184 -2.37598433 -2.49735551 -0.80203697 -0.07211982  0.35492637 -1.08357450 -0.29161211 -1.55014186 -1.90681373 -1.13282330 -0.47935341 -0.17353559 -0.13919994 -1.24258800 -1.44253212 -1.85287481 -0.97755324
 -0.47003611  0.43013477 -0.40400658  0.25498052  0.14984058  0.22114027 -0.35320298 -0.42953085 -0.00704727 -0.08939596  0.32824536  0.31249551  0.40530121  0.08347390 -0.22212108 -0.39030608 -0.30010038  0.16861895 -0.18050315  0.21289878  0.37020460  0.11329044 -0.43702559  0.05341710 -0.26612133 -0.12326771  0.15355872 -0.19114497  0.29798047  0.23722889 -0.03807311  0.32963277  0.16912466  0.05978888  0.08650124 -0.17917947 -0.21728577  0.23498715 -0.10716668  0.27698224 -0.35335015 -0.27805907  0.09015185 -0.44752773  0.30577994  0.36830110 -0.33766893 -0.49428615  0.03689755 -0.01824425  0.21850370 -0.09307811 -0.40513606  0.28129026  0.46013492 -0.17148324 -0.34222678  0.11342890  0.13713454  0.45549675 -0.14958358 -0.40114929  0.28494849 -0.48061309  0.15846277 -0.12874028 -0.15998385  0.44100804 -0.39392988  0.23268331  0.21781485 -0.24744622  0.45448139 -0.19219438 -0.19513794  0.26005738 -0.32406431 -0.03297954  0.26560467  0.21261926  0.44855077 -0.01612719 -0.38070171 -0.45686570 -0.23514930 -0.42089696 -0.12871263 -0.07777666  0.19210213 -0.49204733 -0.12275906 -0.45795953 -0.39367687 -0.33827079 -0.43898501  0.26445898  0.03273925 -0.09914146  0.20535394  0.13896127 -0.36577265 -0.07671484  0.39107349 -0.41234875  0.23057080 -0.30432077  0.34752676  0.40638024  0.16265048  0.11317326  0.11909785  0.11133678 -0.40279146  0.23857394  0.15465944 -0.13773972  0.31789881 -0.47379812  0.28478684  0.01036754 -0.46540233 -0.33746060  0.05299694 -0.35839796 -0.17496741  0.11483270  0.40689458  0.35858861 -0.48353294  0.11297705 -0.00197562 -0.34935888 -0.46327719 -0.11016398 -0.26092883  0.26809766  0.08632475 -0.41262579  0.17522818 -0.25036299  0.20113265 -0.20519152  0.36136299  0.29860925 -0.46645752  0.01611266 -0.33908022  0.35144659  0.04226477  0.44560749 -0.13832756  0.07669835 -0.39201093  0.41454187  0.21816505 -0.06712826  0.02919907  0.12487823 -0.20871815  0.04550348 -0.26230447  0.28915393  0.19599487 -0.22571333 -0.32114834  0.43492276 -0.45776030  0.26499973 -0.47790860  0.21727413 -0.48551929  0.22309297 -0.48807264  0.37570054  0.02154973 -0.45471692 -0.10837691  0.18229146  0.39659661  0.43374309  0.12772284 -0.24193411  0.01025208  0.23554321 -0.32759650 -0.27183180 -0.33189035  0.20126968  0.35267077 -0.04098980 -0.25364186 -0.41012587 -0.25238949  0.44175155 -0.13648870 -0.07424629  0.37589652 -0.09505783 -0.31003055  0.39732530 -0.37835025
 -1.70949543 -3.63650434 -1.94435116 -0.13103601 -3.98329124 -3.32056260  0.64810500 -3.67918563 -4.38041790 -0.44132256 -1.35036644 -0.98556656 -4.71367036 -3.39142754  0.03204623 -3.24535527 -2.02942958 -2.06310715 -3.08869702 -1.67174762 -1.92402557 -4.70303904 -1.82353997  1.33711752  0.42311314 -2.44106671 -2.12991141  1.17997554 -0.11224300 -0.42788128  1.78895568 -0.59943847 -2.46898989 -2.72016065 -0.21689104 -0.99016177 -0.08448545 -2.14636648 -1.09436789 -1.15068698 -1.10506438  0.45525579  0.97686722 -1.73952368 -2.49512454 -5.14979540 -0.56036395  2.40174287  0.54131021 -0.25008228  0.31002889  0.44138322  1.08167733 -0.30566755 -2.00084473  0.28416484  1.23097595 -0.69606682 -0.21741043  1.71534216  3.05006447  1.14139646  0.11054710  1.19467312  1.62077539  2.04093034  0.55528936  1.85367689  1.14964899  2.03239472  1.34979511  2.22442464  2.10109114  2.04722675  2.12831762  2.02382681  2.61143421  2.41684268  2.38763864  2.22663101  2.33472036  1.89823266  1.88756988  1.94265692  2.00147064  1.49989173  1.65973052  1.43586111  0.51862445  0.75036636  1.48031811  1.95090615  2.07236539  2.16362135  1.95353253  2.47382104  2.15019781  3.24363121  1.31282757  2.33424984  1.73791594  1.88193484  0.61063953  2.82171898  2.38371424  1.96059612  1.08873952  1.19497570  1.00878130  1.06230708  0.85797217 -0.03831663  0.07721267  0.48103347  1.22978753  1.88423889  2.12688178  2.22955215  2.70323326  2.90905506  2.94689847  2.43547029  2.18633522  0.88630023  2.12383815  2.72969380  1.92735691  1.39447471  1.23903222  0.68159277  0.55731077  2.16329400  1.69951167  0.84826193 -2.04169015 -3.88550644 -1.76953973 -0.70441194 -0.70066196  0.36526816 -0.01964645 -0.10950438  1.10594094  1.70545270  1.35822046  0.05156839  1.65345048  1.64588804  1.28816789 -1.06509169 -2.31063878  0.01009030  1.32214780  1.71776098  1.74966157  1.63090156  2.27151617  0.56418807 -0.48182815  0.71139028 -0.80776143  0.41465965 -1.49160029 -0.99017201  0.62246637 -0.94611767  0.14534749 -2.04349560 -0.79204109 -1.22501820 -0.91202518 -1.39425201 -0.47371136 -0.17625837 -0.84957297 -1.51698457 -0.93524224 -1.07929342 -4.42325326 -2.55299416 -1.28817775  0.11911859 -0.46790350 -0.78285923 -1.33681279 -1.32805175 -5.06062746 -1.50533738 -2.19022271 -5.08201881 -0.77730976 -1.34369596 -3.07481361 -3.23535524  0.30342716 -2.59317081 -3.71570649 -0.63625237 -5.09161738 -0.71985856 -1.09700234
  1.92776234  2.54657485  1.94066352  2.03514936  1.54440048  1.53047274  2.10571408  1.92909560  1.73699886  2.13459933  1.20895698  1.98000425  1.17062904  1.55332978  1.85057641  1.79619283  2.29775960  1.29198590 -0.29980207 -1.89889899 -2.44007741 -0.51503102 -1.57305096 -2.59778215 -3.42295904 -0.48972346 -2.93836167 -1.27437839 -1.80821685 -2.78646447 -2.74981860 -1.67742435 -2.53602320 -1.25160168 -1.50241413 -2.55329100 -2.23437464 -2.32176882 -1.52015135 -2.75043083 -2.07235888 -2.55635676 -2.81343318 -2.80486216 -1.92525636 -3.04641459 -3.22874640 -3.69139717 -2.11483239 -4.05181505 -5.06875897 -1.26493584 -0.11855546  0.22815649 -0.25956351  0.87982969  0.73964193  0.78783414  0.24832162  0.64702277  0.78010891  1.07239075  0.94941382  0.83514992  0.48549983  1.06560074  1.08951197  1.16258445  1.19076429  1.35557415  1.20979539  1.25926237  1.27279592  1.12739983  0.85552900  0.81806533  0.75201913  1.23155254  1.37644356  0.93002252  0.58565722  0.50379578  0.96349808  1.27437132  1.24078277  1.18317272  1.34184562  0.53160757  0.49363983  1.36976544  0.57367084  0.25523595  0.63364668  0.05235611 -0.15505225  0.25394540 -0.30947918  0.33834135  2.17367815 -0.85980071  0.83645808 -1.55097805  2.02166655  0.76383497  0.17802568 -0.05678635 -1.03424695 -0.56638284  0.40095620  0.80096981  0.96776910  0.42502208  0.39317303  0.76489021  0.37528208  1.21817793  0.47853596  1.21437721  0.22773973  0.44879549  1.09342172  0.38791220  0.44820053  0.54751432  0.72019821  0.96193528  0.51879025  0.52670582  0.02775603  0.79721049  0.51295178 -0.51970076 -3.70872664 -4.34763404 -0.42033374  0.55165495  0.86414371  1.07796624  0.23232647  0.65210391  0.63356077 -0.05152211  0.53720589  0.75718893  0.38385451  0.82826760  1.01208866  1.14290267  1.01041605  0.81983003  1.10579091  0.96485056  1.46375935  0.57948401  0.78011857  0.69674523  0.63363413  0.61183295  1.49849519  1.98294863  1.49817427 -1.22460537 -2.32433246 -2.92902735 -1.08132340 -1.95237213 -3.42804652 -2.22589494 -0.44139494 -1.24166845 -2.03050439 -2.61860193 -1.07266177 -0.85844167 -2.74431451 -0.78055766 -0.83120700  0.11023653  0.40661777 -1.32211686 -1.47597978 -2.36951732 -0.88198510 -0.50276591 -2.32456629 -0.59223096 -0.90946139  0.11590174 -0.34527660 -0.37917563  0.86940892  1.36280075  1.35531315  1.14563055  1.50157613  1.53271110  2.20749607  2.31226174  2.18917193  2.00179288  1.65893030
 -2.05314975 -0.32498944  5.00695568  4.72901388  1.41064811  0.68291577  4.21753415  1.15294910  0.62411906  1.83909463  4.22664956  6.30028416 -0.31863386 -3.31182803  6.00150799  2.23255413  0.41004070  4.66540063  1.78151922 -1.20210058  7.97530132  2.01663953 -3.60527093  1.62365548  6.42203113 -0.11777390  1.20450684  2.62657951 -1.06420545  1.05614668  3.40722978  0.34525781  3.83031219  2.36978634  0.17046326  0.46762283  1.08743274  1.20213911  1.56990195  1.91527717  2.20390299  2.01025445  2.35434045  0.49565156  0.16717461 -0.41405229  1.95006353  3.79526576  1.49330362 -0.16676873 -0.78883818 -0.06349136  1.12683480  0.36817432  0.38163443 -0.33467845 -2.16510874 -1.87218410  0.03302795 -0.59085402  0.27318773 -0.62850775 -1.07235213 -1.90626343 -2.30674634 -2.45735178 -2.92744649 -2.64263248 -2.39128626 -3.48584055 -3.28409759 -3.37555917 -3.19265162 -3.56495207 -3.98684434 -3.27673432 -3.73267436 -3.90155134 -3.92762471 -2.68791596 -2.55062756 -1.51159306 -0.98614797 -1.07083607  0.16679956  0.21222998  0.05775512 -0.10088639 -1.95357782 -2.46827385 -3.94515477 -3.47372992 -3.27203877 -0.89172686 -0.27351124 -0.04735464 -1.72029823 -3.97948792 -4.93016278 -1.43577797  6.33223488 -2.51574808 -6.43105796 -5.08355356 -2.29314392 -0.02426688  0.43524314 -0.82743207 -1.95202004 -3.38576885 -2.58582148 -2.72887481 -1.83700645 -0.42390513 -0.58743205  0.11380345 -0.78738087 -0.97024406 -1.57220214 -2.75187567 -3.39439026 -4.31158533 -4.39316948 -4.02253569 -3.89695614 -4.60962510 -4.47446208 -2.96038799 -3.00805397 -3.00300750 -2.96771816 -3.43510144 -3.16231661 -2.07351196 -3.01482611 -2.16887052 -1.43582245 -1.14861514 -0.80856768 -1.42225363 -2.09026581 -0.87107690 -0.33484166 -0.84319636  0.61602756  1.41336219  0.05012229  0.93202235  1.86990907  2.56564456  2.34440757  0.28521557 -0.18008969  1.95450431  3.96944449  3.65903569 -0.26416803 -2.61365891  2.96453585  3.40736418  4.27903863  6.28018022  2.03686419 -1.93665948 -2.13940737  1.07652425  2.05628736  3.37639395  2.71397843  2.89303077  2.41642852 -0.15674902 -2.51091113 -0.62211809  4.58087670  0.84233544  4.48855351  4.03755443 -0.86310703  2.31053301  0.73381628  3.65537647  2.63518355 -0.74874279  1.87565372  0.67190585 -0.86456595  4.61683702  6.44034562  2.21997705  1.83880023  2.70115619  0.88234609  0.46626869  0.90224754  2.61360498  3.39452051  3.40559816  4.22904153  2.36184251 -2.76414115
  1.78168417 -5.09369398 -7.04036354  5.66513266  1.92462340  2.39870636  2.59356979  0.25638900 -4.37673148 -1.23668651  2.53844399  4.29720520  4.53616408 -0.89931049 -5.43015315 -0.80082768  5.91349948  0.01215183 -4.86368108 -2.74317423 -4.95354022  2.27930245  3.14936457  1.86953962  3.80827024  7.55524249 -1.35442749 -4.20889525 -5.18236357 -2.86380775  3.70304543  3.69061458 -1.20262682  3.13995719  2.54077202 -4.76846222 -4.76275211 -0.72961386  2.78201777  3.19175818  1.89997942  3.42577954  2.26572144 -6.76862094  0.10505597  2.98079186  2.41283843 -1.28574868 -3.93997499 -0.31650888  1.29658484  0.54774640  1.54322853 -4.57473684 -5.48314030 -0.46607565  4.39954424  0.87974312 -6.59413443 -2.81605186  6.23017712  2.94846514 -4.44139025 -4.23533665  1.94682572  0.95417343 -0.50377310 -1.11731259 -1.53260479 -1.07089032 -0.13030445 -0.22071852  0.60949013 -0.78109603  0.75525891  0.38927594  0.77854574  0.76113700  1.23031570  1.32916245  1.43005032  0.82459752  0.74240104  1.24218672  0.49383060  0.00015993 -0.19922567 -0.89659049 -1.14739916 -1.77400392 -1.24781646 -1.40283290 -0.02812798  0.69183355  0.26255078 -0.33735426 -1.14941641 -0.23449658  1.42000414 -0.43544041  3.06039667 -2.37026881  0.20979424 -0.65396739 -0.02667454  1.24401962  1.24335290  1.36337245  0.40107144 -1.19407399 -1.10855313 -1.28365195 -1.39224073 -0.35865946 -0.21507719  0.51753441  0.46949869  0.71250425  0.96740660  1.79246782  1.37358999  1.75993821  1.73342305  0.70313003  1.35341902  0.91625508  1.27692070  0.57796970  0.25664778  0.06486076 -0.40157714  0.72629612  0.48532623  0.60397292  0.88651301  0.54838183 -0.98452672 -2.57058215 -2.47560911  0.99261686  3.02310958 -2.39194290 -2.81475994 -5.49967965 -2.17558209  0.51411320  3.88679739  3.83909323  0.88737468 -5.47699468 -4.35872455  2.11757347  1.69963289 -0.21382328  2.06404745 -1.38098506 -6.80656836 -0.82618816  2.38989416  1.08804403 -0.29514143  2.18028960  3.86200836  0.25637691 -5.16755433 -4.22136813 -5.27419535  2.66682690  4.48109336  5.54036749  3.51183171 -5.69139975 -6.67078270 -0.47634018  1.28427450  4.03511028  2.20182023  4.86186750  4.00549368 -8.21362424 -1.85091680 -3.86848700  1.46664298  2.04842664 -2.66844121 -0.57902115  4.46766836 -2.53347028 -4.56705738  2.03331508  1.13610761  3.54411915  8.53878908 -4.72198842 -3.86635904 -4.69987557 -1.63561855  2.46322002 -0.49414491  1.93630669  1.38104375
  3.07447285  0.18449167  1.12231795  0.58737708  4.45023357  0.82825644  0.22793525  1.14374072  1.56202894  1.00477229  1.59754069 -1.33842903  3.54283381  0.31510786  0.91939307  2.32798147  1.99013367  2.26474167  1.97481963  0.06129656  0.01716237  1.39660212  0.94359624 -0.09132398  0.79691278 -0.77020238 -4.08851463 -4.24875519 -3.19551566 -0.39502899 -0.11923679 -0.96398746 -0.82966748  1.26658342  1.01031603 -0.48569136 -3.43875269 -0.93229951 -1.00307770 -1.64469007 -3.38747732 -3.19712414 -3.24589945 -3.64617899 -1.79154090 -1.36252946 -2.39676016 -3.05591277 -0.45355782  0.29410847  0.49444310  0.38303482  0.51557685 -0.58470092 -1.19510367 -0.74909789 -2.08689832 -1.49840095 -1.53661103 -1.24693137 -1.91333916 -1.27212618 -0.40076911 -1.67959845 -1.62089853 -1.87582897 -0.94346920 -1.33437945 -0.27266095 -1.40463064 -1.40171304 -0.71167756 -0.64141035 -0.51747017 -1.27654982 -0.95961167 -0.79080070 -0.95567886 -0.92933854 -1.16116188 -0.66481442 -0.97580318 -0.87719040 -0.85552601 -1.16110320 -0.64672045 -1.29508884 -1.13750196 -0.76854870 -0.41912255 -1.24318143 -0.46133994 -0.76969681 -0.29456837 -0.55427117  1.11435060  3.09683651  7.10036637 13.22742835 15.53012767  7.64479611 16.09308347 13.59791680  7.25306089  2.78006966  0.70287499 -0.21442273 -0.76464531 -0.24348027 -0.28690510 -0.72783496 -0.56093874 -0.82402705 -0.11471776 -0.89420894 -0.44207608 -0.20535275 -0.62695498 -0.01803903 -0.42153385 -0.51399841  0.22390611 -0.46588284  0.13785353  0.12682144 -0.36960401 -0.13608364 -0.08512912 -0.43976505  0.19661996 -0.51968378 -1.10893368 -0.72522100 -1.10686369 -0.04739475 -0.05022150 -0.51194342 -1.08301632 -0.56406424 -1.68772347 -1.02327863 -1.61391387 -1.37756365 -2.05081782 -1.68854723 -0.64142723 -1.85944472 -1.47035264 -0.85796984 -1.18456110 -2.03853803 -2.02436189 -2.94769169 -1.57204753  0.11287701 -1.16974562 -4.47376282 -3.38494232 -0.45259156 -0.16066820  1.16288743  1.12673219 -0.00065089 -0.73369776  1.06459230  1.41728932 -2.75545813 -3.14728893 -2.83578964 -1.37984846  0.76578767  1.46786137  1.85391632  0.05318755 -1.70123030 -2.20834753 -3.26682022 -3.70454852 -2.96436856 -0.57952288  1.43433418  1.18605063  0.49479238  1.92570179  2.70032503 -0.30620640  1.12404782  1.57839718  0.44956557  0.85987918  1.33017521  2.13699622  2.06190997  1.12446957  0.74060234  1.66127134  2.80191498  2.01318547  1.63106075  0.12404322  2.33551810
 -0.14297447  0.25288119  0.12248492  0.42694859 -0.02909617 -0.21499802 -0.25478235  0.26598337  0.25005637 -0.06861454 -0.18108229 -0.24629316  0.09544436  0.46270137  0.42682477 -0.15579296 -0.19259582  0.49932263 -0.34479045  0.38641685  0.10357107  0.36088219  0.09667555  0.28454707  0.31875424 -0.00051725 -0.10395244  0.38816979 -0.48339602  0.09485506 -0.44315528 -0.12637049 -0.15226375  0.17932964 -0.19942190  0.31864009  0.46433162  0.04579575  0.08462346  0.21438799  0.47718122  0.40354117  0.46809483  0.07262558  0.36624254  0.39491961  0.41683262 -0.32635328  0.39424224 -0.42795783 -0.43993642 -0.00218669  0.43292436  0.15673913 -0.21763962  0.25167860 -0.34377813  0.17840794  0.13984839 -0.32717415 -0.22673699  0.19669311  0.04645536  0.12099926 -0.12397725  0.34703346 -0.06036065 -0.15964564 -0.10717078 -0.47573720 -0.44525765 -0.12998957  0.42780397 -0.47716281  0.44263601  0.29404652  0.41775679  0.35946863  0.46769324  0.31199903  0.43151080 -0.47224318 -0.19018766  0.36443516  0.18449595  0.09217272  0.11611376  0.34071782 -0.22941934 -0.24403785 -0.48645633  0.04384367  0.45265526  0.05999903 -0.33515707 -0.17132200 -0.09296751  0.10448227  0.16903237  0.29986171  0.12874507  0.22377472 -0.33012786  0.05654905  0.24661191 -0.38749185 -0.14940444  0.16436870  0.47197679 -0.18171119 -0.02363227  0.40348759 -0.15395437  0.28618007  0.26792275 -0.46945843 -0.12164721 -0.11596349  0.37125939  0.14893345  0.13999865  0.38480306 -0.30722289  0.09265391 -0.05519791 -0.14237996  0.42133191  0.35183458  0.46210231  0.09036428  0.15169629  0.09084738 -0.18586101  0.32156843 -0.35260357 -0.43924910  0.43407658 -0.00200801  0.22511960  0.40605337  0.31628080 -0.29851267  0.30954095 -0.33767357  0.48766740  0.07746370 -0.30713200 -0.13397981  0.46150020 -0.43587261 -0.48504637  0.10149886  0.44893045 -0.29226925 -0.30584723 -0.10626746  0.06535078 -0.38451532 -0.25443288  0.02745309  0.20584896  0.39726341 -0.38169953 -0.48001205  0.21883184 -0.23430310 -0.41926115  0.15290842  0.26368889  0.30585845  0.05896178  0.07996969 -0.49265422 -0.13149726  0.24229612  0.49501318  0.44596644  0.43516412 -0.13896664  0.40746664  0.49929152 -0.12401300  0.00896550  0.44822197  0.08371774  0.20311827 -0.15804549 -0.35093147  0.31860295  0.08752164  0.17652162  0.02445191 -0.01521496  0.29482209  0.04443986 -0.29638312 -0.43948100  0.12517871  0.35652530  0.32420789 -0.06896284
 -0.08597137 -0.09745633 -0.06340035  0.28207624 -0.35552380 -0.06862154  0.22798042 -0.42026233  0.29261679  0.13570279 -0.42068855 -0.33104880 -0.35488175 -0.47187500  0.25332500  0.34890319 -0.12933589  0.40285627  0.16784015  0.45841867  0.07953506 -0.30758940 -0.05669318 -0.12553882  0.23691677  0.14696115 -0.06499457 -0.13786579  0.00349881 -0.24082208  0.29309124  0.41888713  0.16328163 -0.26858003  0.20284614  0.30973317  0.16480819 -0.06720627  0.39135934 -0.04078754 -0.42980130  0.47227771  0.12962630 -0.28340817 -0.49855486 -0.11622242 -0.43390055 -0.12745939 -0.21301159  0.23423367 -0.16880450  0.36672565  0.42680411  0.27461860 -0.25872379  0.16381125 -0.07834039  0.17635299 -0.47400723  0.42521260  0.43563496  0.31922369  0.34426613  0.09909679 -0.44917347  0.04730197 -0.09097617  0.21583865  0.48030432 -0.19940010 -0.32472743 -0.44927045 -0.22689113  0.30512789 -0.23246050 -0.22524750 -0.31088130 -0.16613905  0.14752235 -0.02368971 -0.43171901  0.47890083 -0.15679206  0.49524122  0.25366004  0.08461066  0.15914875 -0.32462311 -0.23901455  0.18511763 -0.39949834 -0.30354180  0.00410263  0.44444921  0.29516025  0.05448770 -0.00871739 -0.29625735 -0.22995857 -0.02819150  0.00505014 -0.05420043  0.02238527  0.27772175 -0.24907261  0.29044035 -0.44683900 -0.05925024 -0.37502982  0.20129536  0.41759593 -0.30629279  0.18057885 -0.23887613 -0.31078015 -0.06552213  0.34595856  0.34859642  0.11010656 -0.39275824  0.03408190  0.21107178 -0.19571254 -0.46107857  0.15643684 -0.39943389  0.09473389 -0.35076855 -0.19399678  0.36652698  0.12250421  0.31218376 -0.18628672 -0.35340255  0.09157851  0.06615184  0.43835226  0.14584523 -0.49219314 -0.43595176 -0.15228450  0.42586185 -0.24188671 -0.47141951 -0.31278162 -0.05246778 -0.03676719 -0.46666831 -0.20374371 -0.42654607 -0.35931234  0.33046525  0.28466799 -0.05488514  0.36953499 -0.05875996  0.04582854 -0.03556851  0.09065420  0.35198763 -0.16890688 -0.28670775  0.16433308  0.14501275 -0.13987516 -0.24387033 -0.28862515 -0.20132136  0.40218730 -0.28060993 -0.13708345 -0.24992795 -0.35458141  0.12120326 -0.22116111 -0.16716431 -0.43104476  0.24232633 -0.13355013 -0.13448582  0.31606448  0.00739559 -0.30374912  0.10101036  0.45280654 -0.43390889 -0.45747903 -0.00113975  0.03071341  0.13339554 -0.14894281  0.36192321  0.34665195 -0.48482697  0.00661648 -0.29359248 -0.22905897  0.21762229  0.00469839 -0.32726894  0.43660570
  0.36885935 -0.07576824 -0.41636012 -0.00977015  0.20323050 -0.08337910  0.05931280 -0.05436372  0.28310565  0.42483743 -0.23831701 -0.20953827 -0.37898760  0.36257207 -0.25689021 -0.31310036  0.40488662  0.24176488  0.21739325  0.03803989 -0.40739906  0.07918968 -0.11529283 -0.39202402 -0.41381451  0.09167122 -0.12034825  0.30471792 -0.40253319  0.05365586  0.24278212  0.46633008  0.47789165  0.32642608 -0.04343603  0.18112611 -0.25694918 -0.48411951 -0.37323400 -0.47383998  0.44072134 -0.11154777 -0.18337526 -0.43826346 -0.24897294  0.05973734 -0.25136087 -0.34408320 -0.19849459  0.46603566  0.19396005 -0.10589024  0.04522886 -0.42132920  0.00208934  0.13141798  0.17034576  0.38174488 -0.06386030  0.26781636 -0.06459550 -0.32107442  0.23415016 -0.08670016 -0.49464464 -0.30928216 -0.40557032 -0.25159009 -0.29339793 -0.27880057 -0.22542633 -0.35267287  0.10965535  0.09120208 -0.29093264  0.36068609 -0.34905692 -0.04228986 -0.48339348 -0.04754785 -0.07625053  0.21057025  0.34656556  0.46898197  0.28924467 -0.15134149  0.10040355 -0.04040598 -0.26959304 -0.46345319 -0.27258608  0.16581501 -0.28452405  0.46156771 -0.42088146 -0.27916490 -0.34771046 -0.32644756 -0.03075061 -0.14110408 -0.10524395  0.24382688  0.00622670 -0.49558532 -0.16496792  0.21529710  0.36510398 -0.01402140 -0.32698913  0.38171425  0.43843456  0.09676420  0.09228838  0.28500403  0.06575010 -0.11846302 -0.36633352 -0.33384239  0.34113499 -0.13592254 -0.29729153 -0.43144698 -0.47010338 -0.08181140 -0.46987510 -0.39098072  0.13902773 -0.31758166 -0.21742466 -0.39171951  0.04131747  0.17733450  0.35211061 -0.45245249  0.18175276 -0.31285348  0.26284860  0.04686082  0.17312923  0.43586359 -0.07142082  0.11156786  0.03263183 -0.47912845 -0.10342414 -0.40161415 -0.09758757  0.03024620 -0.23545270 -0.25644875  0.39432747 -0.03274043 -0.18789198  0.42422784  0.38545191 -0.15776329 -0.46674911  0.02448338  0.02465871 -0.18417009  0.13276760 -0.43402005  0.49316819 -0.01511803 -0.38646880  0.17492470  0.17203221  0.37638352 -0.27821077 -0.15483483  0.31225081  0.15037210  0.45673671 -0.15511366  0.17124738 -0.14668367 -0.05672401 -0.42633640  0.38356628  0.20782698 -0.18278145  0.27789754 -0.32490963  0.12933046  0.20212929 -0.43945381  0.47157107  0.23538406  0.08503355 -0.00376612 -0.44878172 -0.28219442  0.06221815 -0.45560951  0.20269108  0.17575244  0.21931800 -0.12527396  0.05213876  0.44111016  0.21989430
 -2.69960168  1.92918850  1.66604375  3.09370202 -1.33697795 -3.97962326 -5.49265411 -1.75956758  5.36584461  0.27283917  0.50676325  5.09413810  1.30121132 -4.07956204 -2.78527224 -5.82661939  0.09067643  6.66746183  1.98908066 -5.47855373  0.07038317  5.91298199 -3.24496134 -7.51284660  3.36384433  4.43414077 -0.75811059 -4.10994505  0.23022576  5.11049035  4.36261815 -3.92645208 -4.45241474 -3.58364471  5.10571914  6.09954739  0.02229043 -5.16534318 -4.26272164 -1.25636727  2.10204030  5.66914640 -3.25671932 -2.09641140 -6.74735313 -1.00402465  6.11926441  4.55625209  0.63535226 -5.45984220 -4.16167524 -5.41837357  4.88209532  2.75385123 -0.29957893 -3.87985736 -3.89234469  2.89063845  4.22945543 -3.78599157 -6.43559830 -4.00803989 -1.35087964  2.90041701  0.97228621 -0.01278266 -0.37678093 -1.21516183 -1.08548001 -1.62941316 -1.47588449 -0.90966094  1.67476092  0.30145961  0.83393213  0.75831628  0.98532816  1.44593689  0.53748021  1.56632725  1.99872358  1.38478367  1.52681002  1.92509879  1.03449172  0.48241554  0.59409918 -0.14142417 -1.20063118 -0.85780246 -1.11163596 -0.37694877 -0.10028907  0.69775308  1.10509714  1.28592251  0.73047973 -1.11693050  2.05727655 -0.48992201  1.59151170 -0.96643239  0.40924853 -1.79386537 -0.86980395 -0.00773029  0.73640332 -0.29721981 -1.16361732 -1.21215846 -1.27739497 -1.16125432 -0.69449205 -0.67672998  0.48925988  0.47543654  1.21347616  1.71651771  1.18366152  2.04056396  1.93305266  1.48553653  1.12036714  0.02760738  0.15511169  1.31137032  1.31212737  1.36755398 -1.27565980 -0.54301291 -0.02410832  0.95234211  0.82070103  0.31356634  0.29390073  0.63121498 -1.49223035 -5.68205702  3.23900560  0.65151586 -2.77670605 -1.34723449 -0.19590118  1.03098484  1.77459869  0.93901313 -2.29752739 -4.35353895 -1.55351557  3.20875034  1.51945911  1.04175831  2.22826325 -0.71174194 -6.43779855 -0.57535343  2.43515856  2.93213261  2.54760450 -1.55829591 -5.90711335 -1.39421115  3.07990588  3.42362966  2.45717559 -0.66937580 -4.23229178 -3.06944093  4.55173910  2.44407968  2.41485726  4.48703460  2.88790282 -7.18611164 -4.42738060  2.95600454  2.85803285  2.57557773  2.82653563 -1.27661131 -5.27565224  1.13735560  1.21438758  0.64452851  0.07307692  2.09348145  3.67325618 -4.06638960 -4.82698832  2.23975329 -6.84555619  0.01683736  6.24191055  4.44810402 -4.96897053 -3.21293816  1.67056006  4.52083409  4.36675231 -1.24452339 -2.67398901
 -0.18111151 -0.97734554  0.10171304 -1.87243634 -0.63657128 -0.67823720 -2.23271373  1.07641799 -1.94783621 -1.67280888  0.82248457 -2.68788360  0.35474932 -1.10632337 -1.27907063  0.15288912 -1.33245854 -0.97725870 -1.44924272 -0.07970936 -0.69681342 -1.61090777  1.09731348 -2.18525538 -0.69575492  0.82866042 -2.33238122 -0.54531149  0.75231681 -1.47409170 -0.92291613  0.24839406 -0.45283988  0.37986602 -0.73948600 -2.23244027 -0.58304910  0.00928173 -0.20015563 -1.20957411 -1.60497067  0.50940981  0.33198315 -2.24822022 -0.28491442 -0.38632359 -1.82663571 -0.18179689 -2.00228316 -0.01869326 -1.17928164 -0.68851207 -0.99998965 -0.42020313  0.30103943 -1.25992783  0.66450694  0.43238110 -2.42477954  0.17011846  0.28769559  0.43993530 -0.50314773  0.24354956  3.30336734  2.47211061  1.36645026  0.34342288 -0.79606409  1.22164670  3.11380165  2.89571320  0.87396613  2.27958716  1.21686039  2.54569698  1.32498297  0.37767404  2.66326986  1.62728148  0.79107793  0.60153434  1.09638870  0.74956495  0.67472559  0.92872807  1.04538562  1.25615957  1.52720247  1.82256431  1.09761376  1.81419559  0.82355381  1.21851401 -0.00163536  0.09254345  0.55875459  0.36887313  1.07636347  1.69421965 -3.79096140  0.59461668  0.82206741  1.00869057  0.72874030  0.93481947  0.62790817  1.60503704  1.93943517  1.80526342  1.23944712  1.19019021  1.44808109  1.24663678  0.90432606  1.19588375  0.32890483  1.12286535  0.57868444  0.87773194  0.83650105  2.44941119  3.67593424  2.55868070  2.41087823  2.46868125  1.30326874  1.90533229  4.03231839  2.85841819  0.97397653  0.67428945  1.91586516  0.40369962 -0.24896823  1.78438203 -0.10845231 -0.43053830 -1.95688707  0.40426293  0.60709445 -1.82567081 -1.50963573  0.50037138 -0.57820010 -1.06222507 -0.03938653 -1.91582809 -0.07514384 -0.27180504 -0.77313136  0.23591459 -1.20914100 -1.02395564 -0.60048583 -1.23928898 -1.25599472 -1.74627538 -1.16604974 -0.77423490 -0.43338214 -3.37687703 -2.39837183 -0.06993797  0.33539141 -0.35439348 -2.08940035 -0.23471373  1.28647395 -1.91524070 -1.15135166  0.14780775 -0.40227492  0.65774642 -1.70954181 -2.14830446 -1.44609562  0.61637018 -0.67347612 -1.35697645 -0.43727374 -1.77893242  0.94653223 -0.64779484 -1.07569718 -0.60087152 -1.11373720 -1.23224327  0.33847230 -1.95253301 -1.64185735  0.09128730 -1.22227522 -0.43881757 -1.14737719 -1.20784660  0.74974627 -3.17006698  0.33159732 -1.49986458 -0.13974183
 -0.10569119 -0.41273184 -0.39759719  0.30254473 -0.46790899 -0.19295137 -0.03501724  0.52252786  0.52572080 -0.38301130 -0.85792003  0.06450440 -0.03503099  0.35727226 -0.17157316  0.35241303 -0.08263255 -0.68102794 -0.04183928  0.46505931  0.08853660 -0.66523240  0.06790780  0.53467788  0.32892590 -0.09451849 -0.50940007 -0.35729642  0.26804689  0.96033970 -0.77485168 -1.25699784 -0.33690096  0.16652929  0.67949785  0.70279047  0.33851818 -0.58938111 -0.41182589 -0.93219964 -0.65521053 -0.44339420 -1.56133428 -0.73819663 -0.93866153 -1.28451304 -1.06214139 -0.02155252 -0.47402328  0.44775671 -0.07661361  0.36660412  0.14660729  0.38851241 -0.12059920  0.34258128  0.62577642  0.27011037  0.25975571  0.48568500 -0.04152782  0.36771206 -0.33849218 -0.28746833  0.23934915  0.41631357  0.38258337  0.12971980  0.54059332  0.60533383  0.49072600  0.99560060  0.94485322  0.85138587  0.90041291  0.67340021  0.74279448  0.60479267 -0.16495190 -0.28016927 -0.95706110 -1.47150019 -1.92215435 -1.63550466 -2.28535516 -1.46756664 -0.81077847 -0.57173380  0.14335001  0.70183539  0.47526896  0.77647299  0.13394475  0.00022929  0.70693790  0.12932181  0.27500903 -0.30873336 -2.83953621 -0.37804388  6.84594817 -0.10536255 -2.81507891 -0.81446947 -0.85939384 -0.13953125 -1.36727734 -0.80239742 -0.43223559 -0.29891020  0.15898993  1.29820173  0.74002715  0.21558392  0.06252087 -0.56920782 -1.50573082 -1.10525512 -0.54607246 -0.77007914  0.27507131  0.87953352  1.25683512  0.74580428  0.93191728  1.47854007  0.76229270  0.77688538  0.64487744  0.64248638  0.32649891  0.36472489 -0.15507738  0.25878035 -0.25631082 -0.29351540  0.12632580 -0.29396455 -0.79760243 -0.32903184 -0.18166605 -0.74334709 -0.52933687 -0.67401294 -0.20706039 -0.28984086  0.76031159  0.55877946  0.60707508  0.71255458  0.56999624  0.52837386  0.70015380  0.23566985 -0.49852345 -0.96294886 -1.40691670 -1.27968812 -1.60723408 -0.16239502  0.42844583  1.09942914  1.89045155  1.92226371  2.63800449  1.54641058  1.12463791  0.31377534 -0.03975560 -1.08083345 -1.25007552  0.40161884  1.42237980  1.04811535  0.28742296 -1.10659392 -0.53929019 -0.09909823  0.99597088 -0.00640544 -0.75158749  0.11702570 -0.34544650 -0.08633211 -0.18864530  0.34746118  0.36778174 -0.11588475 -0.58227249 -0.09373052 -0.02931133 -0.25907718  0.26681900  0.08154779  0.13159990 -0.11459570 -0.53308875 -0.19512678  0.14672075  0.40954069  0.40892191
 -0.73541745  1.49329151 -0.06746644 -1.58314775  0.95351563  2.53195797 -0.66708672  0.14826429  0.57320202 -1.23510046 -0.53157408  2.60917658  2.71465145 -0.88463510 -2.19567229 -1.63969457  3.39061341  1.41005126  0.10588356 -3.63784279  2.91567759  2.41559187 -3.03337326 -3.29059841  2.40779866 -0.69221779  0.18543346 -0.56132293  0.53904500  0.37137926 -1.91677501  0.17558867  0.08763305 -0.56533584 -1.34937862 -0.17855068  1.06077267 -0.17351969 -0.59946860  1.21249748 -2.74914203  0.01469060  1.02996307 -2.79364148  2.21267997 -0.80243383 -2.30752833  0.54534754 -0.92501280 -0.96694316 -0.54062227 -0.84624518  0.00608921 -0.26391298  0.09585173  0.67907703 -0.36504854 -1.32971953  0.85765569 -0.25140695 -0.24726334  0.31447772 -0.45345529 -0.85721697  0.06354461 -0.18744105  0.19892200 -0.44292561  0.75626103  1.02213388  0.65236553  1.43058067  1.54346246  1.74489850  2.49749702  1.82243970  2.42487201  2.19735112  3.05452590  3.09557278  2.62821490  3.19542877  2.67336316  2.24493140  1.52989092  0.99561870  0.23914925 -0.61364152 -1.38784032 -1.94770509 -2.98661715 -3.01704163 -2.42758778 -2.45282566 -1.00365652 -1.18630302 -0.37864719  0.64850472 -1.77848309 -3.54485400  5.94539640 -5.12023704 -2.75658920  0.66091748 -0.66130126 -0.51056406 -0.92389915 -1.12976141 -2.17806230 -2.97279187 -2.41135417 -1.63488219 -0.60391595  0.28762615  1.10198814  1.66055116  2.21490169  1.55614305  2.69306619  2.03408872  2.40428768  1.93253823  2.33115729  2.00241447  1.65012927  1.56753330  1.48928449  1.52735041  1.46019123  1.39543832 -0.38171531 -0.08265513  0.36555169  0.48817167 -0.25367946  0.32544620  0.92656023  0.29998052 -1.02555340 -0.56524981 -0.40034797  0.04471849  0.48555565 -1.70277293  0.80385546  1.13455709  0.10868991 -0.04585346  0.30962105 -1.22325890  0.61394907  2.02921076 -1.98238802 -0.42726041 -0.67954532  1.44976670 -0.50463472 -0.88637552 -0.53877178 -0.84227199  0.10546300  0.50222788 -1.37750765 -1.37382007 -3.29844394 -2.79488438 -0.11570603  1.18271253 -2.06548852 -0.54021579  1.96668350  0.42992287 -4.14593029 -0.27156147 -1.18344500 -1.23033166 -0.15237099  0.76963125 -0.79241273 -0.84401994 -1.39976585 -1.89879312 -0.94544048 -1.98071110  2.72845808 -0.93005698 -1.47576904 -1.11785546  3.94466902  0.09177840 -1.72630338  1.26967862  0.60682341  0.90136499 -1.49972780 -0.82933683  0.89059371  2.13541387 -0.56479454 -0.06483361 -0.79463106
  0.22334023 -0.01279038  0.21886310  0.45178589 -0.29064928  0.13023028 -0.38912081  0.42257926 -0.40488181 -0.27647696  0.10479621 -0.13886813  0.42300845  0.00809993 -0.29953479  0.18282010  0.46328517 -0.36736937 -0.35236038  0.28141869 -0.45669603 -0.29278091 -0.35204025 -0.34781367 -0.22572303  0.10476799  0.04141728  0.40058077 -0.45334811 -0.11593419 -0.23645553  0.26999876  0.37128211  0.48241429  0.22179137 -0.41936047  0.11265122  0.33267718 -0.49677461  0.20777603 -0.44379313  0.10802828 -0.43108540  0.47922200 -0.38386510 -0.23061349  0.16204882 -0.42057320 -0.09797610  0.30969523  0.36085233 -0.05466525 -0.48307873 -0.49118091  0.09752813 -0.20879470  0.11359416 -0.36104753 -0.30820687  0.16025310  0.02302535 -0.04465530 -0.06974104 -0.10568542 -0.06223390 -0.34794255 -0.02503877 -0.44957554  0.48474179 -0.02180619  0.25820770 -0.45904413 -0.41377070  0.32712951 -0.47981490 -0.29762857 -0.40347676  0.18224115 -0.21819454 -0.00144562 -0.00805638 -0.35733497  0.44389637  0.00887212 -0.34850866  0.04143172  0.30008464  0.26509271  0.18039140  0.49188498 -0.07464699 -0.29657605 -0.05276313  0.35561918  0.09774575  0.38501023 -0.49231605 -0.42728565  0.43544213  0.49243342  0.05091604  0.19365724 -0.46660395  0.13715165  0.02079325 -0.44641212  0.33952988  0.11732334  0.23583593 -0.37865774 -0.38411534 -0.27221351 -0.23598578 -0.44021205  0.23666551 -0.08448755  0.10122654  0.03675699 -0.31938801 -0.21837524  0.02864877  0.10597180 -0.01494450  0.47589242 -0.03840226 -0.41719203  0.36090931 -0.03071173 -0.34447119  0.29635779 -0.03827230  0.20645057 -0.00997894 -0.00486989 -0.15639128 -0.48917909  0.04872467 -0.31685466  0.12815102 -0.21543260 -0.19550557  0.24404252  0.01236073  0.06851549  0.30383733 -0.25096689  0.48403483 -0.09492923  0.28579702 -0.33534624  0.18670249 -0.18554724  0.27063253 -0.32823502 -0.20964783 -0.26776272 -0.24542001 -0.34873145  0.20153264 -0.08988408  0.44763347 -0.33673252 -0.38342638 -0.06233834  0.15840474 -0.03981048 -0.05151026 -0.29286342  0.14334203 -0.42335204 -0.00828883  0.44784365  0.32069767 -0.49592090  0.01636636  0.12454223 -0.24688054  0.00040846 -0.47037975 -0.46107631  0.16506938  0.21632991 -0.14661637 -0.06429087  0.38810213  0.14374306  0.16795366 -0.35731066  0.29501884 -0.13050646  0.05281252  0.24265959  0.03276832  0.16939345 -0.31967149 -0.30881972 -0.37040987  0.12882541 -0.10167601  0.27293927  0.20548042
 -0.42074635 -3.92160189 -0.34003006 -0.61501304 -1.16765655 -1.69217387 -3.38798301 -1.89587227 -0.47008124 -2.09999609 -2.62161218 -1.03209263 -1.47573241 -1.42742726 -2.03253501 -1.76925884 -2.23174960 -1.55883132  0.03479529 -1.73935371 -4.66828456 -0.49939479 -0.60905512 -3.54279973 -3.79750295 -1.94513175 -1.78049656  0.41035965  1.26794177  0.07355645 -0.62617985 -2.48330781 -2.56753437 -2.08206567 -0.80013001  0.47911258  1.83799480  1.54254732  1.39676717  0.84359389  1.19369265  1.01839879  1.70550102  1.39411105  2.19284893  1.42887480  1.30200143  1.33389631  1.65824526  1.59849811  0.96752491  1.11929013  1.27554380  1.38606642  0.85766710  1.04138289  1.07131470  1.28240605  1.52952139  1.17394641  1.63328139  1.03913525  1.34423339  1.57782510  2.01761995  1.20850542  1.69563413  2.34015536  2.43366715  1.74937557  2.56670130  1.89845879  2.09872776  2.69982066  2.49674464  2.07243423  2.45937453  2.27425503  2.51920604  1.93478287  1.64897905  1.18972034  1.30280669  1.27302772  0.93369495  0.53033653 -0.38492794 -0.68337648 -0.65444393 -0.92079823 -0.44757336 -0.69987369  0.10948011  0.31067825  1.85313883  2.06779455  0.65639818 -0.36586108  0.54816112 -0.37316644 -1.18199257  0.79163146  0.70369702  0.10356029  0.63721210  2.13112810  2.07349967  0.51854050  0.36059659  0.39580326 -0.06453017  0.24319365 -0.53355671 -0.23566406  0.70609642  1.23841416  0.70905464  1.18702731  1.71171493  2.32396201  2.46856357  2.23653968  3.17894438  2.37925616  2.42791521  2.97619581  2.97391802  2.33344653  3.02055398  2.39898914  2.47845501  2.99623738  2.25490770  1.99028800  2.28000633  2.29117508  1.82082317  2.32153869  2.22702377  2.02249393  1.63070958  1.41937759  1.30911027  1.20488248  0.96768429  0.43713341  0.68833642  1.17627536  0.93683722  0.64402615 -2.14846688 -4.02125672 -2.50652619 -2.97148834 -1.45864165 -2.96004895 -4.23886898 -2.48168873 -3.69951036 -3.78945681 -3.77910614 -4.62545046 -2.14222279 -1.18331290  0.04281146  0.89554343  0.66695249 -0.66095127 -1.57082395 -1.12171161 -2.59315402 -2.67959020 -2.05589498 -1.28088611 -1.67364772 -1.39618231 -3.20959662 -1.25566135 -2.30647264 -2.71899757 -0.60166336 -2.40114507 -2.26679510 -2.06371937 -2.78479327 -0.52070631 -1.06863651 -2.61169162 -1.99157916  0.03784937 -2.21893771 -2.34550120 -1.18609403 -1.27860181 -3.05425022 -1.34797164 -0.86741298 -1.17431854 -3.28799784 -0.22215360 -1.23671970
  1.02230398 -0.99691828 -0.25499115  0.82016077 -0.55183398 -0.28296300  0.72154084  0.80994812 -0.30316861 -0.74148597 -0.47241715  0.93187824  0.16284170 -1.02458206 -0.70422073  1.81820284  0.31877156 -1.34711535 -1.02200160 -0.22253356  1.44596830  0.31904330  1.07389788 -1.59275497 -3.25972136 -2.66066645 -1.08301328  2.53601626  3.14851180  2.30611713  2.08574394  1.45211282  2.86882342  0.09904816  0.81618650  1.04922271  0.71868433  0.13704450  0.65432301  1.06638052 -0.68448798  0.24800047  0.02361891  0.05879078 -0.44703313  0.16552506 -0.26111469 -0.19520222 -0.81920148 -0.43528362 -0.40373686 -0.39793808  0.04880537 -1.21641131 -0.43773584 -0.69088492 -1.17509431 -1.20239229 -2.36124935 -2.08451020 -4.24971534 -0.91064093 -4.51310455 -2.28036398 -2.71506484 -4.65297493 -4.10761668 -4.08929689 -5.15406270 -5.20083165 -3.04360713 -4.11051747 -3.34361841 -3.99336011 -2.18862133 -3.76637371 -1.23712742 -0.05705600 -3.89508351 -2.04914672  0.20220625 -0.16563146 -0.08150632  0.04692929  0.09389724  0.57771283  0.31117264 -0.16253001 -1.00992133 -0.86482872 -1.25482850 -1.63644048 -1.63934936 -1.94718849 -1.80929607 -1.78382296 -2.91315720 -4.07494976 -6.98035869 -15.4766895  0.07576182 14.82143739  7.77713380  4.19361191  2.91783109  1.86265626  2.13994006  1.14612412  1.16194539  0.78143584  0.69315525  0.08762307  0.74468796  1.01376732  0.58807632  0.18079475  0.79653862  0.07331569  0.33871899 -0.58222787 -0.77123659  0.89800354  1.89616323  1.92557869  1.83236884  0.78461712 -0.84194711  1.23029510  2.27818888  1.25893954  0.98947131 -0.76220430 -0.53008898  0.18757751 -0.13648405  0.65567834 -0.50745386 -0.77668340 -1.04576777 -1.18021913 -0.30983453 -1.30401471 -1.42319263  0.08992187 -0.43453328 -1.46264249 -2.18965489 -3.26114422 -3.33987636 -3.30456967 -3.26122735 -3.71922849 -6.40091463 -6.76559553 -4.75895799 -1.95659486  1.99772706  2.33392061  2.30841494  2.63405247  4.31485416  3.60993114  4.09957359  4.67999223  4.77734021  4.28394059  4.20503515  4.02679609  3.79719683  3.35345651  2.48005048  2.33653868  2.97016447  2.91761443  3.29500284  3.51106772  3.39502802  1.46455308 -0.13909981  1.09433618  1.59072967  3.00651356  3.42291732  4.13862559  3.48359856  3.72885056  4.23415477  2.36330022 -0.76739749  0.88318246  0.67958250  0.08427786  0.73044355  0.32491786 -0.09518088 -0.14203186  0.41379065  0.41452877 -1.41807512  1.08386059  0.70527618
  1.36923571 -0.57050825  0.34848774  1.53685023 -0.21771318  0.16574462  2.99585579  1.03193930 -0.51062917 -0.95279063  0.77659980  2.40162573  2.10555251 -1.12013085 -1.19099030  2.49236075  0.98931847 -0.23096068  0.88498778 -0.03474614  1.60257803  0.74401930 -0.80845808  1.08339287  0.80988586  0.90279081 -1.16670864  1.04105171  1.57967957  0.91213793 -1.53276719  0.52872669  1.43680406 -0.07998569  0.19832523  1.38623595  0.62722523  0.87382072  0.28411086  0.74524377 -0.23135996 -1.71166605 -1.85433980 -2.35319246 -1.86784441 -0.80062264 -1.84948245 -3.83889826 -2.66431386 -2.52848223 -2.52256803 -0.70171398 -1.71132248 -1.79565124 -2.96217058 -3.09712026 -2.42069024 -2.72951223 -2.80460286 -1.98225896 -2.14496410 -2.53141768 -1.74324851 -2.48194653 -2.44791347 -2.08901432 -1.18383654 -0.31426178  1.86870426  0.23643522  0.22656156  0.60973484  0.00200443  1.34001020  0.85326888  2.04523876  0.95632001  0.87104636  1.92904606  1.51498354  0.96435047  0.81887718  0.80186264  0.83373499  0.35896204 -0.62339927 -0.81140508 -1.67396454 -2.08893399 -3.42316967 -3.05650856 -2.43769021 -2.05162358 -0.71727499  0.46530215  0.05179933 -0.25837315 -0.20211071  2.65586113 -0.05609186 -5.92672009 -0.01644577  3.09258288  0.93988214  0.85632276  1.15031846  1.25675681  0.14750130 -0.56149412 -1.60934316 -1.72849406 -1.79237687 -1.62636895 -0.46172363 -0.39455042  0.17252554  1.04370966  1.46763156  2.58772472  2.30124962  2.42088847  3.18044428  3.36761123  4.41692746  3.97249280  3.07742739  2.64789985  2.39214483  1.43058198  1.53587628  3.29506664  0.69096423  0.22957461  0.59577247 -0.12527553  0.13934292  0.70763488  0.89822271 -0.18243485 -0.79421790 -2.04115258 -1.83172249 -1.78408598 -1.89326828 -0.97849466  0.26460553 -2.70829337 -2.82828167 -1.98832497 -1.86752105 -1.22184450 -2.69797966 -1.56779175 -2.32852710 -1.68871509 -2.34392624 -0.65111726 -0.15280720 -0.05193945 -1.35739759  1.19926683  2.19825275  1.30180523  0.05251614  0.08486288  3.39745885 -1.39435176  0.06371927  2.14011899  0.52636722 -0.15560567  1.77463933  0.56394188 -0.08616864  1.29447958  1.12175835 -1.22121978  1.96635647  1.85648274 -0.45215015 -0.27669273  1.25851074  1.59145077 -0.24088903  0.78952597 -0.06008233  0.73683837  0.66058012  0.38404209  3.35625802 -1.38661366  0.17839073  1.89933039  1.58123102 -0.55287510  0.49381976  0.35589409  1.28934247  0.56843207 -0.12825348  0.65294197
 -0.31011270 -0.01758303 -0.38205684  0.30732803 -0.15968400 -0.39962070 -0.45334510  0.21553164 -0.05909819 -0.32537868  0.07197544  0.01549296 -0.00338005 -0.17830113 -0.11338778  0.09480633  0.44243488  0.46970014 -0.16853706  0.50132106 -0.15660554  0.34386671 -0.23827843 -0.38272268 -0.00592869  0.16420024  0.11360515  0.13789036  0.05918376  0.09381983  0.24324330  0.24648776 -0.42630222  0.35865469  0.05122543 -0.08870310  0.45612646  0.09473550 -0.37657911 -0.10664882  0.26540608  0.19117019  0.40434243 -0.24274138 -0.49214356 -0.21427163  0.34665401  0.44472479 -0.25026988 -0.32768986  0.44015420  0.08716829 -0.48983492 -0.30418370  0.19834815 -0.00189340  0.35385995 -0.19423251 -0.37021437 -0.09318749  0.39334401  0.36677197 -0.35297393  0.46075124  0.21911513  0.19192302 -0.13429717  0.16888474 -0.21970979 -0.01725153 -0.44414885 -0.46070089 -0.33249179  0.45376756 -0.20987908 -0.33108512 -0.26696716 -0.36970718 -0.39286477 -0.02376741 -0.20396043 -0.45931702 -0.44325807 -0.20051743 -0.27029469  0.24821555  0.29062583 -0.42348785 -0.45314972  0.41321175 -0.02392051  0.43293733  0.27275902  0.11595860  0.38665739 -0.01500668 -0.19883274 -0.25419004 -0.35253587  0.07517539  0.22240330 -0.30288604  0.10822245  0.38361765 -0.35527950  0.39232060 -0.45334293 -0.12794579 -0.48289870 -0.35153919  0.34311364 -0.19190067 -0.31579227  0.39500465  0.10280748 -0.09077992  0.13862644 -0.11103369 -0.01857485  0.18136318 -0.20171323  0.45385316  0.11089348 -0.43212733  0.06684486 -0.00524997  0.05018335  0.36539969  0.23797696  0.19507150 -0.06203895 -0.04230850  0.38956638 -0.45640333 -0.16129509 -0.46836051  0.43318610 -0.11750741 -0.09936612  0.44698818  0.02738045 -0.26012472 -0.24909307  0.20710772 -0.36987885  0.34870484 -0.38890361  0.26332441 -0.26791533  0.08680198 -0.06114062  0.02445809  0.03467339 -0.45628347  0.08624874 -0.40460025  0.03232107 -0.36973440  0.45461379 -0.23590626  0.31911214 -0.11367113  0.21551915  0.20239243 -0.07637720 -0.45209326  0.22770106 -0.14954193 -0.07596912 -0.37804592 -0.20894483  0.44501412 -0.14457910  0.03554307  0.14568757 -0.02090338 -0.12220436  0.25032148 -0.26405764  0.10337681 -0.16940763  0.16824472 -0.37875191  0.35863907  0.20528371  0.20076050  0.44723660 -0.26926949  0.32408551  0.39485810 -0.01220729  0.13613510 -0.22588847 -0.30376121 -0.16852059  0.19072727 -0.26280606 -0.44770114 -0.46559920  0.15455131 -0.33231632
  0.24488973 -0.28644443  0.48739403  0.24240162  0.22158578  0.28841938 -1.29024197  1.04014142  2.33262230  3.45284112  3.56550045  4.54846860  5.32315221  4.88065545  5.17607649  4.52648604  3.61288005  4.42374124  3.99542062  4.39884574  3.25362973  2.76124735  2.55632021  3.29546327  2.84015742  2.90361847  3.20540527  1.58999304  2.05308258  0.15987908 -0.51536566 -0.97319565 -0.14301232  0.27119903 -0.09839273  0.70535378 -0.27521586  0.92303271  0.48556687 -0.31419921  0.11165156  0.07010603 -0.18322108 -0.94471451  0.66513105  0.72977179  0.31889018  0.02877033  0.39728988 -0.80020453 -0.18853232  0.92011216  0.32000156  0.65864384 -0.03788354 -0.16076932 -0.40818206 -0.90282653 -0.95753434 -0.77540228 -1.41121205 -1.23135189 -0.89144500 -1.47516888 -0.86410023 -1.20000054 -1.06427719 -1.00418491 -0.92820581 -1.03053672 -1.81532201 -1.31973223 -1.93146120 -1.09544783 -0.96142629 -0.57584071 -1.28345136 -0.94942350 -0.46819494  0.04718011  0.05496892 -0.17868995  0.75182729  0.30297669  0.72600811  0.95731207  1.56721373  0.90526285  0.93118045  1.13515625  0.89744270  0.44508680  0.29917599  0.39893798  1.41627016  2.50031972  2.46387407  2.11774277  2.46199149  5.62899199  4.29969971 -6.65066098 -5.78902231 -3.87384734 -1.75775256  0.05776541 -0.24338899 -0.92961242 -1.62826163 -1.99817481 -1.42443814 -1.42175544 -0.93404791 -0.76570049 -0.81078217 -0.57537448 -0.77619875 -0.63372286 -1.24645872 -1.35747806 -1.73435429 -2.22639409 -2.53193686 -3.03760404 -2.69311956 -2.82304428 -2.64954194 -1.64799974 -2.49361338 -1.65175576 -2.47472987 -2.93062972 -2.64308223 -2.15199908 -2.24710829 -1.93632343 -2.23208557 -1.23836015 -1.96110173 -1.28087686 -1.03296563 -1.58669128 -1.16702483 -0.85481986  0.24315489 -0.71405708 -1.95267012 -1.66009823 -0.01213292 -0.21054525  0.78949118  0.24232770  0.37138870  0.68907980  1.26637884  1.56231326  2.32326231  2.24358897  2.05638611  0.35803831  2.40123530  3.72500996 -0.93636560 -5.68968408 -2.94394710 -0.14010056  0.69521115 -0.93671898 -1.68346170  0.41025134 -0.14325947 -0.34273258 -0.27005879 -0.02835174 -0.92328302 -0.92727561  0.44020601 -0.45664884 -0.87353061  0.19574048  0.16243382  0.08723139 -0.67052561 -0.17935279  0.57137933 -0.37269894  0.12305455 -0.33372598 -0.22689123  0.04406050 -0.68038946  0.10811262  0.42008684  0.77930602 -1.12940322  0.77240350  0.01062854  0.28694065 -0.44261444 -0.10376344  0.72061836
 -0.24416690  0.36061077 -0.29422361  0.49882564 -0.29934337 -0.07581156  0.04289536 -0.27201054  0.37025527  0.20619984 -0.06024177 -0.26708631 -0.40642541 -0.25403459  0.41658989  0.31668444 -0.38326277 -0.05181315 -0.15067875  0.36620970 -0.42912626  0.00132498 -0.21202069 -0.00051445  0.23077915  0.45847146 -0.36323119  0.17307938 -0.36206825  0.40132901 -0.03476507 -0.10606203  0.26218198  0.17128990 -0.10691032  0.46318622 -0.40415524  0.43636855 -0.30841093  0.46657374  0.14309798  0.13189503 -0.29996123  0.23717050  0.37839155 -0.38280950  0.05444810  0.49573321  0.06597455  0.40438638  0.36256776  0.13745073 -0.09366463 -0.34879387 -0.36236792 -0.36217878 -0.38962532 -0.22492426  0.31156159 -0.25101761 -0.32290436 -0.22251780  0.14357151  0.43989714  0.44941112 -0.46268583  0.40374627 -0.45409851  0.47433015 -0.40401365 -0.48686248  0.11807681  0.22850326 -0.28621464 -0.14411408  0.10754443 -0.16840498  0.41096143  0.10390431  0.39820464  0.31598675 -0.03288620  0.03630159 -0.27702324  0.11897043  0.17457724 -0.13854430  0.23001779  0.45033491 -0.32628209  0.47969113 -0.37188773 -0.04811027  0.12396239 -0.43128956 -0.09802034  0.16196128  0.47315282 -0.05143212  0.13683825 -0.43053249 -0.03779673 -0.24431379  0.29893923  0.17673461  0.11217991 -0.09292158 -0.49105616  0.02375928 -0.48841194  0.40774653 -0.15965964 -0.02070583 -0.05535910  0.06391120 -0.40114077 -0.38018868  0.42595570  0.32945794 -0.42928437 -0.39977183  0.30969548 -0.30063855  0.05262919 -0.06585416 -0.23145991  0.45506679 -0.40343443 -0.25787420 -0.09594261  0.23392783 -0.18769755  0.36679815  0.49002678 -0.38833643  0.04398327  0.10266703  0.01921329  0.05340455 -0.37305809  0.03133091 -0.03830472 -0.03216109 -0.48878629  0.40694791 -0.46762269 -0.38929092 -0.47259527  0.45897986  0.44081694 -0.40120608 -0.44010180  0.25117955 -0.20119954  0.11316256 -0.31401512  0.06800448  0.06889194 -0.21680953  0.31076183  0.47359443 -0.48219649 -0.37624963  0.34105509 -0.49154357 -0.26395407 -0.11434209  0.11174308  0.25587817  0.43969785  0.23930971 -0.21215572 -0.09795983 -0.29219825 -0.20029784 -0.19036780 -0.25917702 -0.08892507 -0.16229737 -0.29953687 -0.14745820 -0.06285553 -0.23900203 -0.39563196  0.23658530  0.37481314 -0.20895698 -0.19468367 -0.05554830  0.07494858 -0.38319943 -0.08120388  0.09350805 -0.25864418 -0.23934398  0.10273886 -0.02186614  0.14705518 -0.28477466 -0.26529094  0.08737719
  0.44955540  0.01738728  0.48408192 -0.34265241  0.31716767 -0.20609251 -0.10148046 -0.27123246  0.13241419  0.09998988  0.08239675 -0.42935498  0.36211011  0.18791424  0.30833901  0.23792280  0.47981927 -0.38564153 -0.31700894  0.05532977 -0.26832246  0.10222938 -0.35083188 -0.02669799  0.36313473  0.25212918  0.45163306  0.01028960  0.46739921 -0.31367158 -0.40229456  0.42260235  0.20960074 -0.41210852 -0.41375730  0.03319929 -0.11162287 -0.00860785  0.26849820 -0.47287204 -0.40244187 -0.14298101 -0.39619693  0.46555264 -0.44940230  0.41767173  0.20887775 -0.46430660 -0.46267872  0.39714930  0.09629199 -0.22578346  0.00459972  0.25072715  0.25284366 -0.12703101  0.00808825  0.20971434  0.38852755 -0.01925815  0.40139185  0.49166095 -0.09126214  0.11642075 -0.41501448  0.00044656 -0.34492803 -0.02115817 -0.50265752  0.42914524  0.01159510 -0.39946316 -0.20823926  0.12095927 -0.42835185 -0.15215774  0.04419264  0.28608450 -0.11086209  0.08709178  0.18877923  0.49100282  0.36693258 -0.30106386  0.24725100  0.12529447  0.07741392 -0.23919133 -0.15954148 -0.02861495  0.24699229 -0.25273744 -0.03156121 -0.33883140  0.36914473  0.05895830  0.16721326 -0.47010081 -0.45641230  0.17055977  0.46539521  0.06094561  0.27608046 -0.23865945 -0.31368174  0.35237685  0.11396976  0.23532578  0.14331544 -0.49196851 -0.17263839 -0.16296156 -0.49602794 -0.30078657  0.04086876  0.25609073  0.32935150 -0.37689287 -0.47828907 -0.32538513  0.09929519  0.27350021 -0.07333196 -0.42748174  0.43942654 -0.19948164  0.13609398  0.11115051 -0.16521415  0.18384463 -0.21448926 -0.19651858 -0.25153746 -0.43431352  0.06913180 -0.06074924  0.42265353 -0.31221487 -0.32066481  0.07075328 -0.29935272  0.01156481  0.41267983 -0.29051680  0.21565460 -0.04153620  0.47055308  0.04999286  0.08654675 -0.50276974  0.22961327 -0.30909475  0.27583899 -0.33859233 -0.23141957  0.22047398 -0.03282991  0.40995459 -0.16309582  0.30727214  0.09912030  0.12775222 -0.38391712  0.35299336  0.19890619  0.19070144 -0.20228053  0.12700226  0.38390970 -0.01756288 -0.29691899 -0.41017504 -0.50074221 -0.37881652 -0.19505584  0.22066685  0.08536883 -0.21892599 -0.22381518 -0.32250138 -0.21603088 -0.48852663 -0.12584439 -0.43429996 -0.32104087  0.14884575  0.29221641  0.15202258  0.06454795 -0.36526409 -0.03515315 -0.33081001  0.26792938  0.08609260 -0.47305713 -0.02870443 -0.21891063 -0.17108711 -0.39737003 -0.33041978  0.31610307
 -0.18347550 -0.22960155  0.32655094 -0.05689115  0.08061329  0.05238914 -0.46639062  0.36681166  0.33365421 -0.28388228 -0.34428399  0.35000089  0.09499794 -0.27406964 -0.46676756 -0.25207619 -0.47793572  0.18907526  0.31622021 -0.33947956 -0.34241040  0.48903079  0.43213512  0.24758172 -0.47983139 -0.09204852 -0.46644997 -0.14572773  0.01601984 -0.29131116 -0.32389922  0.33254435 -0.02091271 -0.49734828 -0.22434680 -0.44029942  0.05504086 -0.19073741  0.42651225 -0.11130492  0.02538031 -0.41777174 -0.26130403 -0.37962175 -0.19184138 -0.22807159 -0.13169794 -0.16977710  0.46100367 -0.31547773 -0.00925666 -0.38140673 -0.32644694 -0.07712154  0.36617500 -0.30627832  0.33082994  0.39972503  0.04799395 -0.15315022 -0.39158612  0.22409473 -0.32060587  0.08750117  0.22674645 -0.04495266  0.14720176 -0.21821269  0.26430994  0.07371401  0.17048239 -0.21030975  0.15594227  0.40917836 -0.08993149  0.46410089 -0.31889322  0.27837058 -0.20567621 -0.35788955  0.46289286  0.28506714 -0.23929628 -0.36355408 -0.29205440 -0.37312128 -0.16983240 -0.46122446 -0.47339624  0.37816155 -0.11437468 -0.36498236  0.10225628  0.06501946  0.22251882 -0.17099727 -0.47993319 -0.13027942  0.11079005  0.28437675  0.44343460 -0.21872755 -0.42593300  0.09937687 -0.30954919 -0.01586448  0.06347777 -0.12844241 -0.23749390  0.35780156  0.01366804 -0.27460104  0.14286870  0.27437177 -0.13815512  0.35081430  0.40125050  0.19201249  0.38958984  0.42785426  0.07017405 -0.22478483 -0.43712810 -0.32756967  0.34023463  0.28539072  0.00143307  0.36030144 -0.34488869 -0.38777688  0.14467819 -0.40145409 -0.10650443  0.21874519  0.19792278  0.08394639 -0.29711929 -0.23859945  0.45550398 -0.03461319 -0.38079789 -0.03082797  0.19078578  0.26207082 -0.25645620 -0.44736934  0.11288512 -0.35520570  0.24464316  0.00247497 -0.42735144 -0.18518280  0.27769014 -0.36447954 -0.01275246  0.11792477  0.42091119  0.48868061 -0.02177379 -0.42397750 -0.39909627 -0.37709560 -0.32543160 -0.00560070  0.34164959  0.37249119 -0.42165430 -0.45546969 -0.36610826 -0.46615032  0.00991713 -0.24690615  0.00302171 -0.29929709 -0.48483532  0.24656552 -0.24666643  0.12804980  0.39135982  0.49797673 -0.36947523  0.46400838 -0.18720606  0.40821491 -0.40047115  0.30004148  0.02613968 -0.47955996  0.28872209 -0.49563410 -0.40353746  0.38962583 -0.37272970 -0.22896906 -0.11597487  0.46891990 -0.35647787 -0.03762917 -0.48654979 -0.22258613 -0.00377949
