  0.15487749  3.07468838 -1.56116984 -1.02185369 -4.09507967 -2.14751463 -0.60733760 -1.43091267 -1.12860279  0.20427045  0.96494720  0.87867454 -1.80468330 -1.21745075 -0.77882213 -0.16860860  0.07677250 -0.36235603  0.07655649 -0.16433176  0.71128326 -1.52950510 -1.77595509  0.55932467 -0.45835213 -0.90822369 -1.48362779  1.03143695  0.35626688 -0.22169874  0.02141744 -2.18153631 -1.52219579 -0.82935378 -0.90528301 -0.63395441  1.14852511 -0.19576695 -0.27791701  0.02870999 -1.76827075 -0.52303044  0.45429714 -0.08840730  0.48693208  1.26774326  2.85737567  0.78203239  0.44170764 -0.29585262  0.47636254 -0.88975257 -0.21026079  0.59953093  0.18974423  1.64784797  1.75693060  0.22717818  1.92273940  3.03543904  4.70001262  2.46920196  2.57242055  1.86464493  2.25120024  3.05487966  0.37949765  1.78699637  3.84693402  4.37569695  0.79514792  1.09988360  2.40514360  1.92938561  2.02248054  2.74524716  1.60114488  1.85005253  3.05356190  2.42998835  1.88532916  1.71263928  1.34433607  1.58000688  1.89202560  0.92324587  1.64343133  1.30795075  1.02169363  1.67029974  1.05574154  1.34402430  2.19919301  2.74818511  2.86816619  2.71389606  3.36123092  3.80036928  6.17782393 11.29755153 -0.43989609  0.98201549  3.21421614  2.20659248  1.61709815  1.06838937  0.94496209  0.45074426  0.06055097 -0.65942999 -1.19737410 -1.40106127 -0.93768694 -1.51072714 -1.19060242 -1.17772883 -1.53206654 -1.35387906 -1.59151391 -1.20825959 -1.43788331 -3.59182314 -5.05037442 -6.28531079 -4.77717108 -4.06361083 -1.86691425 -2.89940075 -5.58841274 -5.34830314 -4.88644301 -1.09800901 -3.78747784 -6.19910509 -0.90374223 -5.39882841 -3.94661748 -6.87566993 -5.44714626 -1.14027503 -4.13557640 -1.71410904  1.01189813 -2.10975605 -0.27245653 -1.44402089 -3.67638461  0.17482838  1.59145817 -2.56505490 -0.26386434  1.03719572  0.46314912 -0.40984818 -0.17564172  1.37791895  1.84712270  1.02040804  0.68690665  0.11203638 -1.06528580  0.79707549  0.25653972  0.81397952 -0.20225472 -1.62614762  0.70336445 -0.25223861 -0.22825246 -0.04687806 -0.44549279 -2.64481465 -0.62629137 -0.36045977 -0.14014810  1.57245584 -0.42163347  3.45276610  0.15652412 -1.09815117  1.18778299  0.62594475  1.50246478  0.26822678  0.16128673  1.63610285 -0.17599766 -1.30957081 -0.11173275 -0.44850924  1.50471367 -0.01639646 -0.35429379 -1.55978030  1.70789349 -0.90504601  0.43464329  0.00190491 -2.31126967 -0.65036267  0.72381584
  1.49438620  2.62949506  2.75026347 -6.17665004 -3.84732509  0.76943016  4.60117851  2.85010862  2.12417574 -0.21895054 -0.55581758  3.40193316 -3.90488681 -3.89539160 -3.59833932  4.27168440  2.22088897  0.62121606 -5.75562706 -0.75263173  3.98539976  2.58037596  2.96659204  0.10307706 -4.44980661 -5.23555127  1.06564989  1.36163761 -0.14405506  1.40551637  1.82058489  1.19612445 -1.01733229 -1.30724127  1.97109926  3.70678778 -0.53756441 -4.62961951 -5.10085850 -0.09011581  0.03651195  1.74810037  5.20190385 -0.46548375 -4.12605564 -4.71003951 -1.26766827  2.89161344  2.13541448  3.17983441 -2.25838672 -5.61471469  2.93575003  2.64659641 -1.74284132 -4.87966190 -1.07105167  2.23554142  0.79065320 -1.19515746 -1.45323300 -2.13416873 -0.68380887  1.33172410  0.66083611 -0.04943154 -1.76513475 -3.61953687  0.02859941  0.96421342 -1.48670303  0.65997862  2.17792401  0.74664440  1.31840369  1.18836696  1.09124667  1.86626910  1.51004333  1.40464341  2.15676728  1.66810234  1.47232375  1.66424179  0.82490483  0.40053197  0.20988103  0.31272037  0.55566209 -0.17474807 -0.70172363 -0.13087805 -0.58070077 -1.01088193 -1.14831015 -0.36972378  0.02793071 -2.13086767  0.87814966 -0.30302497  1.66609279 -0.49752348  0.84497131 -0.88379896  1.58421852  0.54673452  0.47044216 -0.12510141 -0.12317899 -0.08519710 -0.61287912 -0.06606784 -0.44329825  0.08242763  0.17058763  0.31169401  0.73025448  0.89151378  1.34601648  1.16606356  1.70922543  1.48495021  0.79754975  0.98762482  1.10572182  0.66703332  1.32351109  1.21245383  0.40931659  0.32194270  0.65801586  1.18830941 -1.17460529 -2.46521261 -0.19788002 -0.42906846  0.32390508  2.72622635 -0.03593098 -6.92612922 -3.45584761  0.43890370  3.00466528  1.79041388 -2.99133361 -4.26548297  1.86203249  3.32999477  0.12776234 -4.46293524 -2.46248688  2.77732904  2.49191774  1.94001700 -2.86587179 -4.83377421 -4.02388759  3.95098415  3.92113147  1.33984476 -1.11158294 -7.33348961 -0.58418040  2.59525354  1.76557459 -0.93174358 -2.74776630 -2.80026126  2.49590538  3.15183118  0.91418654  4.41355831  1.49846197 -6.94327529 -4.52422955  5.92126201  3.26618992  1.58560346 -5.09403052 -1.71907121  3.95882133 -4.98694179 -0.71035366  2.74034258  5.04690040 -0.72395812 -6.54776827 -3.11479504 -3.75692800  6.82589805  2.94882499 -4.70922125 -3.79031905  5.58649499  9.10279141 -2.63259790 -7.62685136  4.57362657 -5.88910990 -2.88717103  1.78323066
  0.78839187  0.67801845 -0.01645434  0.42885838 -0.49087706 -0.00113546 -0.06502601 -0.33261772  0.58371357  0.12860401  0.23258508  0.00254968 -0.35462987 -0.08856828 -0.33768385 -0.86322546 -0.69154749 -0.76895485 -1.24965237 -1.29868957 -1.79542967 -2.46985392 -3.00881912 -2.59549881 -2.39777665 -2.64574228 -1.72580974 -0.99102541 -0.12367173  0.13478325  0.95697318  1.22654901  1.09033736  2.06183993  1.52644188  1.99929024  2.36214889  2.49349888  2.51158504  2.40908157  2.95976787  2.94558789  2.42123279  2.04260270  1.87276405  1.69548439  2.32273643  1.58027487  2.28431629  1.64644088  1.78722763  1.47957497  1.07783309  0.85596783  0.70331820  0.19601702  0.32360502  0.20746400  0.18298689 -0.76443189 -0.21684874 -0.97118427 -1.05521717 -0.84103721 -1.76103090 -1.49249326 -1.96044752 -1.60406990 -2.14562217 -1.51669976 -2.23972787 -2.09249282 -1.39476491 -1.45634340 -1.41368610 -0.58991890 -0.54582620 -0.73824056 -0.50358411  0.45664914  0.77945844  1.26125262  1.01142160  0.85473559  0.95570371  1.35044750  0.37877686  0.24919925 -0.81316007 -1.07719688 -2.27510132 -3.64195366 -4.09031212 -4.29932006 -2.95124373 -2.42050954 -0.30594907  1.49653740  3.87654081  7.81158030  9.92817050  6.86864293  3.64895435  1.62653924 -0.97180101 -3.12100288 -4.13494530 -5.12540642 -4.74891909 -3.96726543 -3.82260919 -2.44914156 -1.00422251 -0.32033602  0.44151771  1.44963856  1.05456204  1.55011048  1.38522399  1.15752054  0.85854885  1.11201404  0.13532669 -0.18404835 -0.05741913 -1.13916220 -0.99647585 -1.44099097 -1.85219641 -1.73894260 -2.10233369 -2.14836925 -1.77793566 -1.97779046 -2.18133402 -1.83424859 -2.11406654 -1.91812249 -1.86243482 -1.74346156 -1.27512467 -0.97712934 -0.55561725  0.24071278  0.23446027  0.57958812  0.90755957  1.15375643  0.85109157  0.89518364  0.99221164  1.70363638  2.39663520  1.95972323  2.70770024  2.80787483  2.52492774  2.58536642  2.41273606  2.99471157  2.39582189  2.95484498  2.40210440  2.08630945  2.30621625  2.42689405  2.44531435  2.23005949  1.24853973  0.88266833  1.36517157  0.38357647 -0.02774997 -0.37200915 -1.49405475 -2.13936801 -3.57574578 -3.59758151 -2.32614529 -2.40537723 -2.49757839 -1.33138447 -0.57342760 -0.46809967  0.01228730  1.16226747  0.41665688  0.93274049  0.61559552  0.10260722  0.08014829  0.12250213 -0.54994471 -1.00725877 -0.95379805 -1.07264477 -1.17626554 -0.46999705  0.05163120  0.39073035  0.18201071
 -0.33549517  0.24610276 -0.00037759  0.04606533 -0.39138632 -0.00220393  0.21903683 -0.26890500 -0.24971651 -0.36644770 -0.05466813 -0.45174207 -0.42774572  0.14852073 -0.28634371  0.46115384  0.28179244  0.47206229  0.00685347 -0.09472839  0.22323749 -0.07505341 -0.48604490  0.46110336  0.10337472 -0.21886610 -0.40709356  0.20538697 -0.02231618 -0.08282391  0.37597981  0.14222665 -0.33668276 -0.12435982 -0.31167026 -0.22803216  0.37347171  0.40740055  0.00309560 -0.37621247 -0.45901483  0.44846027 -0.32792113 -0.38672591  0.09701742 -0.11422737 -0.42553388 -0.12115178 -0.14212696  0.08135727  0.28415723 -0.41885150 -0.49365750  0.29815045 -0.45771112  0.10975310 -0.42067997 -0.36476948 -0.18482530  0.05703849  0.05244180 -0.30880924 -0.30069875  0.21579463  0.06686633 -0.11233364  0.48779801 -0.05962650 -0.20489699 -0.00907077  0.06419653 -0.16387683 -0.06057498  0.23631116 -0.05056665 -0.46352174 -0.37788109  0.02393460 -0.08463827 -0.01997288 -0.39467289 -0.30044567  0.06121034 -0.38829607  0.49773937  0.10353365  0.22149142 -0.42290641  0.23879834 -0.46329907  0.13416692 -0.20872514 -0.27207369  0.33350325 -0.49289521  0.29482768 -0.27879519  0.49493798 -0.26476403  0.01634401 -0.01408925  0.29947068  0.35250236  0.42536481  0.03581670 -0.19802738  0.46187999  0.15797255  0.32594408 -0.12272137 -0.36196331  0.43130842  0.07687047  0.19928482 -0.45694961  0.07464813 -0.19714301  0.26458054  0.15178068 -0.45830546  0.30132091 -0.21401267 -0.16699063 -0.47071256 -0.38046932 -0.15984588  0.32415508 -0.15922425 -0.16486737 -0.44056770  0.35715950  0.32107633  0.35894197  0.20970262  0.24648146 -0.10520106 -0.48828473  0.20840130 -0.44718912  0.33769869 -0.41428064 -0.30911320  0.26904592  0.16262817  0.39020975  0.31213424 -0.26268609 -0.30689604  0.07675165  0.38913133 -0.26516432 -0.12188988 -0.32484382  0.06788195 -0.09256653 -0.20527800  0.40807106 -0.26837636  0.13553329 -0.25676035 -0.20890800 -0.00727148 -0.43564822 -0.34993030 -0.29753304  0.31086838  0.04490324 -0.28578343  0.01930399  0.09774904 -0.44804941  0.10505849  0.28867112  0.32103188 -0.23227746  0.17891654  0.13320153  0.00507125  0.37205542 -0.29001109 -0.10576105 -0.39307251  0.08813424  0.06942917  0.17484254  0.49560075  0.36418480  0.08294793 -0.27274088 -0.00024747  0.32622150  0.01838530  0.49251589  0.39060887  0.16849147 -0.30498018  0.20151406 -0.28656900 -0.09072769 -0.27914537  0.31121707
 -0.04124302  0.33019699  0.17059275 -0.06595180 -0.44420103 -0.21567808  0.28826988 -0.14467344 -0.32449410 -0.21351092  0.49712963 -0.32293827 -0.23533258 -0.21522441  0.00315914 -0.24991169 -0.54466507 -0.40260244  0.17455084  0.71508306  0.22902366  0.26609426  0.71992139  0.09697528 -0.08771003 -0.46097860  0.12088111 -1.11696835 -0.88584762 -1.30040150 -0.99148120  0.26596238  0.50476494  0.41330208  0.06322597 -0.26483838 -0.60761766 -0.77717314 -0.03641029 -0.20709131  0.13814079  0.44300377  0.09508212 -0.39943465 -0.29822436 -0.23798010  0.20210669  0.17090766  0.37427697  0.09047268 -0.03955105 -0.32818002 -0.48079031 -0.18010092 -0.20993368 -0.43018405 -0.05359158 -0.30792884 -0.17751379 -0.63426663 -0.21661102 -0.03846616 -0.68109840 -0.19469535 -0.24215293 -0.32431253 -0.08604447 -0.11070659 -0.03760326 -0.22194288  0.27130479  0.51942921  0.62810542 -0.22374645  0.57865872 -0.24102656  0.05160396  0.09764903  0.11283613 -0.53918833 -0.82785229 -0.93782733 -0.93218023 -1.22154096 -0.74896805 -1.50315569 -0.68490300 -0.54826551 -0.32773145 -0.28158611  0.26524523 -0.39837545  0.48088523  0.12662433 -0.29484948 -0.53425849 -1.08508374 -1.46037676 -0.41654730  1.80865204  5.02632423  1.53577903 -1.17462279 -1.79435888 -1.06506080 -0.97832355 -0.69119075 -0.63191812 -0.39409186  0.07492226  0.52344221  0.36530325  0.53422387 -0.19766137  0.23978721 -0.14998996 -0.61687956 -0.34224378 -0.61373067  0.07971983  0.32569238  0.54916276  0.57744099  0.73969194  0.67838495  0.33815682  0.33390745  0.86832469  0.37379028  0.12612327  0.37617614  0.58610975  0.58802016 -0.17739472 -0.25228101  0.18956719  0.20148485  0.11320729 -0.62866993 -0.62586425 -0.46833846  0.07746287 -0.11363808  0.31058101  0.34861922 -0.17875867  0.11187220 -0.26857278 -0.53618410  0.44087056 -0.37331785  0.56740812  0.52216651  0.65851192  0.49339256  0.22988931 -0.21103133 -0.43963959  0.00707710  0.58930009  0.52994491  0.25638022  0.78397367  0.55400711  0.50610336  0.95536466  0.47804541  0.55004829  1.09917472  0.94457604  1.21607556  1.93410110  2.13078612  1.98946679  1.56798064  1.13879117  0.12356572 -0.15362923 -0.67149637 -0.81223421 -0.95958494 -0.80777905 -0.37112333 -0.10653529 -0.20884779 -0.28584905  0.25216255 -0.07964134 -0.18444533 -0.29413835 -0.21668470  0.26720899 -0.19272237  0.20629564 -0.39157663  0.17045602 -0.06030175 -0.25489221 -0.49663308 -0.19205840  0.18071145
  0.73153795 -6.85209501 -6.45522147  5.28683333 -1.10247586 -4.63739576  1.31960070  8.21143281 -1.21586202 -7.96482091  0.42648606  0.66632041  2.56004000  0.57231055  1.69006203  3.58888836  3.30036299 -4.10207703 -4.53388646 -2.01936417 -3.54814054  3.24716756  3.43522892  2.58473436  1.69656737 -1.14019742 -5.59508343 -0.55902639  6.11009315  6.04267915  0.57573970 -4.42630802 -3.16200323 -4.21578871  2.68422416  4.48519133  4.39000010  4.87743180 -0.10817704 -6.27700732 -3.70721255  4.09849240 -4.04352646 -5.49214928 -0.48349134  6.61751629 -1.01308633 -6.75309215 -4.24977126  3.77220255  4.36910112  4.54194405 -2.13828191 -4.71414473 -4.92113471 -0.17849776  4.08416703  5.38607000 -4.41021749 -2.80975496  2.62527936 -1.58445117 -3.05659874  1.88867138 -1.09293504 -0.66664177 -0.99970104 -1.03715791 -2.40917216  0.52612171  1.21977812  0.42806831  1.44178116 -0.83614171  0.52386019 -1.77293012  0.55013047  2.29455427  1.25481729  1.46082539  2.20590563  2.08020303  1.53834403  2.06958854  1.51611519  1.35723866  0.79779442  0.75661808 -0.14588531 -0.08753149 -0.43817769 -0.45668610 -0.41082199  0.40061637  0.52841031  0.91527410  0.33533598 -1.21888790  1.51588580 -0.96831309  2.09652156 -0.81519391  1.10871610 -1.73981320  0.03341645  0.31352515 -0.13249881 -0.51652947 -1.49786884 -1.20040388 -0.80431105 -0.52289596 -0.78197053  0.40551410  0.37517858  0.62356837  0.69637646  1.19604554  1.56868068  0.97179402  0.78160722  0.92419148  1.22331430  0.54955675  0.31084882  0.43660481  0.35196610  0.31249903  0.89110166  0.26811932 -2.79847802  0.24841843 -0.86272839 -0.67464717 -0.82607838 -0.85345288 -0.30014888 -1.27471524 -0.63000553  0.87448774  1.65716988 -1.89822192 -2.95956167 -2.05829479  1.05968712  1.33599878  0.72241999 -3.61427415 -2.98710108  1.52174649  2.71121029  2.42968116 -5.41630087 -2.38010914 -3.19151383  2.73361633  4.17258511  3.62301318 -3.86603557 -4.44903331 -4.61386514  3.34994268  1.85288787  1.28405224  1.44836329  3.58161045  1.69217225 -3.80591131 -3.89412982 -5.23227312  2.96277325  4.57997403  2.28142847  0.95517083 -3.35583001 -2.35532124 -1.13838259  2.99107379  4.07175445 -5.73396532 -2.57919846 -4.24964981 -2.50536316  4.09589404  4.20434649  2.07291370  4.13542495 -3.29087478 -4.18062442  3.44182011 -7.26621568 -1.71434040  4.06340000  1.57326615  2.85552233  4.45519617 -2.01852686 -6.02049588  0.78358654  8.98736058  1.08015370
  1.15870628 -0.08489534  0.64374814  1.49573886  2.73465982  3.02529370  2.36600544  2.29415561  2.09781258 -0.67094229  0.85073761  2.87600424  2.28542137 -0.19874406  2.34243310  1.82813886  0.85497065  1.39963095  1.75585496  0.38339445  1.20402664  2.14199514  2.93316872  2.00216848  1.41440873 -1.41729480  0.08743376  1.63538878  1.57580882  2.04046975  1.32594420  0.06065602 -0.48258645  0.83148606  1.49901521  2.09849602  1.14000259  0.40467279  0.55110319  1.06489067  1.51885245  0.22545705 -1.43787159 -1.56839194  1.39871446  1.84606989  1.06268502  1.12713524 -0.27680780  0.15802832  1.15141440  1.51406134  1.50422214  0.91578313  0.78475777  0.28876021  0.02212486  0.01531058  0.57369954  0.42030006 -0.19103609 -0.70554833 -0.26893435 -0.95774909 -1.59441094 -2.43907360 -2.13655333 -2.34378132 -1.55697737 -2.38068984 -2.90568364 -3.07165336 -3.56569446 -2.82620749 -3.12370190 -2.73791760 -3.89814444 -3.59547807 -4.28203275 -3.94029438 -3.58366822 -3.17522209 -2.25492194 -1.44346287 -0.48006545  0.59575915  0.59215518  1.34060996  2.09007002  1.85908640  0.43074988 -0.61748164 -2.10944747 -2.80769811 -2.90084298 -1.56423784 -1.37281837 -2.35494400 -3.86983882 -0.90923438  6.37785664 -0.17955394 -3.29304376 -1.96176629 -1.09405233 -1.93393745 -2.58882838 -1.83270506 -1.91287798 -0.70887216  0.11632814  0.92688458  1.14791917  1.02748552  0.70787038  0.13656473 -0.32776458 -1.64747416 -1.98164859 -2.67059274 -3.62619100 -4.10857637 -4.16959852 -3.61916638 -3.98564478 -4.35876804 -4.28819156 -2.92386089 -3.01866003 -3.00053487 -2.82486251 -3.03601517 -2.62953330 -1.45160842 -1.64466248 -1.47504497 -1.21848924 -0.75383737 -0.20531966 -0.39521230  0.11853262  0.47272962 -0.31722027 -0.15215587 -0.07292165  1.31199592  0.86772526  0.95745465  1.64088588  1.59243733  1.63307474  0.94730062 -0.31807377 -0.36269882  1.24408452  1.96528688  2.10946430  1.28415673  2.14058960  1.49677762  2.47874484  1.23593147 -0.47076626 -0.62470736  0.71384539  0.85028128 -0.15096069  1.21036925  1.83924813  0.40441790 -1.18733341 -1.19869629  1.56001503  3.35273853  3.22823751  2.81836327  1.77098288  0.09347251 -1.73352719  0.70009113  1.60640340  2.72284504  3.29644427  3.73275296  2.95377346  1.92717211 -0.88743988  0.46915788  1.65362163  1.59778391  1.13293384  2.31460038  2.70178991  2.52845868 -0.24257613  1.38295800  2.54210217  1.63934599  1.03285649  2.16967211  0.95444157
  0.16712670 -0.27754295 -0.33736946  0.05128430  0.11434048  0.39619095 -0.31807006  0.00535630  0.22343341 -0.43847611  0.32271942  0.03321926  0.14309990  0.27600667  0.07630628 -0.05169074  0.24357472 -0.34642376  0.13273851 -0.06954996  0.31673520 -0.08628980  0.05284832 -0.16720825 -0.34471012 -0.39757593 -0.31872484  0.37482873 -0.34360696  0.37397054 -0.09942946  0.32386374 -0.40323435  0.06353730 -0.12452097  0.21143701 -0.03994060  0.05774239 -0.28287138 -0.31616484  0.11961707 -0.45979429  0.21741398 -0.23692349  0.31656937 -0.20592353  0.21174277  0.06050226 -0.05198979 -0.15516265  0.49130919 -0.23489388  0.25891450  0.04453125  0.09827887  0.41459137  0.14734961  0.27994868  0.28981714  0.30414135  0.15431617 -0.30921603  0.12839601  0.25146864  0.25470386 -0.49574333 -0.03671101 -0.28485112  0.06238706  0.18080569 -0.10062367 -0.31760540  0.22139732 -0.38282552 -0.05414764  0.03835375 -0.08836469 -0.34201877 -0.40075898  0.36003274  0.00320754 -0.40906011 -0.37447088 -0.23748779  0.13586229  0.22419879 -0.32250564 -0.21639728  0.00453855  0.46770233 -0.41186499 -0.34075460 -0.34112350  0.21692379  0.41111276  0.41398983  0.22160510 -0.12516351 -0.37044220 -0.21562681 -0.44396436  0.02928990 -0.03283905  0.27780160  0.14684830  0.41336116 -0.18351433 -0.44117338 -0.42829871 -0.08390576  0.41923188  0.07528383  0.00740985 -0.45486348  0.33817074 -0.35635432  0.26970758 -0.48396386 -0.07238169 -0.22538499  0.48410634  0.01611935 -0.06577579 -0.35665601 -0.26659924 -0.15431210 -0.44232609  0.45532729  0.22082612 -0.31246443 -0.25997668  0.27715765  0.21715764  0.20749600  0.05526618 -0.13566863  0.12120149  0.37210800 -0.07647884  0.19327057 -0.21142766 -0.15687711 -0.23107609  0.29635056 -0.11137043 -0.39253560  0.44036458 -0.34129567 -0.37613064 -0.13164359 -0.06630748 -0.39165199  0.38484809  0.36829110 -0.24793474 -0.38137640 -0.28564199 -0.18987866 -0.42566503  0.43557161 -0.00195552 -0.18525842  0.21310427 -0.28442449 -0.47738254 -0.23123895  0.08030750  0.14422071 -0.35873285 -0.49577616 -0.16211112 -0.06976215 -0.15226058  0.10719208 -0.27304093  0.23673898  0.21503458 -0.33228823  0.39583299  0.33928680  0.03644611 -0.17009534  0.44801788 -0.07832152 -0.30142044 -0.29952865  0.04070039 -0.08665600  0.01100336  0.11544389 -0.15067529 -0.49053862  0.43059813 -0.43716397 -0.27455997  0.45361706 -0.16800500  0.30613721  0.09822249 -0.02635143  0.31074962
  0.95764746  0.59369716 -2.03170107  1.62658184 -1.21012584  0.29570438 -1.26605537  1.37250361  0.51267538 -0.87543100 -0.32409893  0.58827160 -0.30384247 -1.89640872  0.79493287  2.13368991 -1.84084972 -0.48246478  0.02154333  0.13032884  0.87678273  0.51446171 -0.57007398  1.02815798  2.26134714  0.54186083 -3.23870300 -0.00090946  3.54824720  1.14328936 -0.75426794 -0.83236449  0.09145067  1.69041444  1.92852200  2.20742209  1.72779177  1.69191992  1.52657222  2.01146277  0.93910420  0.95558132  2.95588657  3.42181548 -0.59832042  0.24538621 -0.60734449  0.68137493  1.03359007 -0.83020178  0.54677065  0.66757754  0.39822657  1.11308870  0.85580145 -0.27379581 -0.61268876 -1.00689649  1.63682725  0.27182967 -0.57993196  2.34380303 -0.66079529 -0.70340334 -1.51099667 -0.78810572 -1.51963014 -2.11841556 -4.01062059 -1.34912584 -1.70431318 -1.86159362  1.08203629 -3.37796552  2.23377307  0.89064896  3.27820821  4.74643206 -0.64939642  1.36196333  4.01584520  4.11925847  3.73869796  3.48524297  2.72186803  2.02044329  1.26550577  1.12510435  0.64446062  0.20988831 -0.69695261 -0.57580367 -0.08806434 -1.02243477 -1.00695715 -1.43891801 -2.52724842 -3.12601740 -4.44045513 -8.83892559 -0.25333381  8.82981070  4.39724814  2.82476461  2.11619228  2.43415118  1.90991412  1.48726983  0.45205185  0.17444058 -0.59657215 -1.27774704 -1.87937144 -2.16629620 -2.09596609 -2.46004333 -2.53872768 -2.44406996 -2.32021463 -2.42158514 -1.47968464 -0.58105142  0.48417819  0.22613952 -0.01314751  0.29618251 -1.34056441  0.51454810  1.41472660  0.58203342  0.34714508  0.42830377  0.02872128  0.83892400  0.26958511  0.72031129  0.17824456  0.38894936  1.93928271  1.71163041 -1.13109129 -1.24482091  0.00227117  1.69817199  0.68635979 -0.89412043 -0.98372631 -1.57912044 -0.50870548  2.40307350  0.23826839 -2.10592013 -3.46963254 -3.00692553  0.89475604  1.26564532 -3.08142863 -2.63324903 -3.97098656 -1.70535889  0.63513858 -3.04162690 -4.36051609 -3.18103727 -2.63511921 -1.75112296 -2.52859832 -3.13671658 -2.15880097 -2.33331958 -3.36259159 -3.94542044 -3.34789582  0.49651161  4.20383347  4.79438624 -1.81095245 -1.38381817  0.33015401  2.10128450  6.37020017 -1.81751566 -2.12723914 -2.57737216  3.78375242  4.61052084  3.07633061  0.93425305 -0.41050718 -0.47187636 -0.19693400  1.54634758  1.74384703 -3.87013944  2.34448992 -0.59819202 -0.66461401  1.27649691 -1.16531327 -0.51557413  0.73548582
 -2.32718551 -0.75913330  0.10760156  0.27161555 -0.41701543 -1.64090744 -2.54277191  0.34719161  0.03308574 -1.41433880 -1.53747264 -2.56659601 -1.08310082  0.62668630  0.08248484 -1.47627591 -1.38671649 -1.60291338 -2.09572199 -0.78705022 -0.66711461  0.38518338 -0.43969108 -3.02133502 -2.75573377 -0.90020865 -1.78167444 -3.17845587 -0.48572580  0.01828102 -0.74429916 -1.12979757 -1.56007761 -1.65636254 -0.25648778 -1.38516796  0.59246540 -1.03942688 -0.33934770  0.37384208  1.14853589  2.39773903  2.53521049  1.97962914  2.34675475  2.81954886  3.30939844  3.75826946  3.88083905  3.45960965  2.96104712  3.68073438  3.60997417  3.84722352  3.27683335  3.56066120  3.52760610  3.82068522  3.65323447  3.20674043  3.28212755  2.30577796  2.51607057  2.27635176  1.64922200  1.55490543  1.49909087  0.53284118 -0.03729142  0.49272478 -0.70334126 -0.36423610 -0.84883882 -2.70027277 -2.65913661 -7.21018316 -4.31118174 -2.71023745 -2.94186701 -3.74041361 -3.74421506 -3.30731217 -4.02537475 -2.89648009 -2.81915384 -2.28469898 -1.19701420  0.57659740  1.23311683  2.50036860  3.40378569  3.87314106  2.39666863  0.47958169 -0.91708380 -1.16119757 -0.66950230 -0.58941794 -2.38245751 -1.16273220  2.46015688 -0.08841623  0.09685775  1.58009916  1.25198415  0.10801415 -0.30840353  0.80536466  1.99145675  3.05331888  3.50486357  2.52773928  0.93462126 -0.77427795 -1.37921365 -2.21698169 -3.58036973 -4.38331672 -3.93783787 -4.30682468 -4.49852211 -5.02811279 -4.97823197 -4.84948173 -4.51591180 -2.94601937 -2.21279344 -2.84888669 -2.11548314 -1.69293220 -1.00014948 -0.26477401  0.48220956  0.87060303  1.03164446  1.57816976  1.35029207  1.60628770  2.31488324  2.74163954  2.98765334  3.01274326  3.27526966  3.20550694  3.63418770  3.07501694  3.23257060  3.08051948  3.30946613  2.73044816  3.33998319  3.46075112  2.94471344  3.68049324  2.71833517  2.58291389  2.17417634  2.40211348  1.66887910  1.62928308  0.40877455  0.53423140  0.37644889  0.93173000 -0.14738141 -3.06035851 -1.41135968 -0.66898392  0.67741231 -0.15738317 -3.25709742 -1.05440597 -1.69971453 -0.47463110  0.39814498 -0.55145082 -1.06066473  1.21598351  2.11984441 -3.27627900 -4.01473225  1.78497716  1.36637882 -0.62572744 -1.73664948 -2.37566864 -1.47517251  0.46007393 -0.39676611 -2.45744606 -0.77081915 -1.59879130 -0.47325909  0.16892554  0.61042346 -3.71332571 -2.39320843  0.20583585  2.08806346 -0.92295968 -2.28791451
  0.32478443  0.20161760 -0.09007780 -0.24836642 -0.01879860 -0.12396690 -0.45167788 -0.01559408 -0.02390371 -0.21750409 -0.00178403 -0.29268037 -0.31293297  0.07602515  0.28496531 -0.29553745  0.27662861  0.11789082 -0.35181413  0.03336280 -0.45096750 -0.28456187 -0.46867127 -0.29472836 -0.38893055 -0.41868676  0.23928561  0.33189769 -0.38052476  0.45273987 -0.43227708  0.46393916  0.17381467 -0.00298053 -0.26494845 -0.32520397  0.39330455 -0.19571149  0.18092804 -0.10795661  0.11036726 -0.29635885  0.12471887  0.32355122  0.30646788 -0.06295014 -0.44418745  0.11116704 -0.41687433 -0.26773713 -0.32712111 -0.33940206 -0.02377924 -0.26714714 -0.10531511  0.11640487 -0.15640087 -0.33631345 -0.02174129 -0.00677414 -0.35330939  0.07631728 -0.01240935  0.35101251 -0.39608402  0.25327248 -0.44347451 -0.47196674 -0.41157607  0.26834004 -0.04897177  0.22982525 -0.49691834 -0.39308916  0.08454973  0.34075807  0.07512719  0.17155571 -0.01685694  0.18954023  0.43516803  0.18743642  0.38163541 -0.05691091  0.45221113 -0.19153146 -0.40809378 -0.17150023  0.00509915  0.10333057  0.35506609  0.18526415 -0.28683030 -0.12390428  0.06954589 -0.14988736 -0.33791688  0.15834765 -0.09016766 -0.21865141 -0.04346393  0.39099305 -0.45810503 -0.00914088 -0.47170647  0.15599038 -0.13944114  0.13191577 -0.14432374  0.37150389 -0.15101647 -0.18184423  0.08609558 -0.24233399  0.28819961  0.06514421  0.09278976  0.40648168  0.41962416 -0.37664681  0.03465253  0.29882206  0.33199698  0.27044617 -0.30318153 -0.07722264 -0.35878452 -0.12092633 -0.39904124  0.07078404  0.18049314  0.07824168 -0.01793171  0.24234274 -0.41086661  0.03072145 -0.08081555 -0.02886269 -0.31521280  0.29779288 -0.13359959  0.05836704 -0.35860660 -0.52125404  0.34302927  0.45722203  0.07204657 -0.03558100  0.39267259  0.02093736  0.11727669 -0.04296641 -0.15037141 -0.02072236 -0.24240711  0.07669442  0.43240495 -0.07076984 -0.51374052 -0.43606670 -0.46936168  0.19742179  0.17289713  0.04349954 -0.02937346  0.29293733 -0.39482287  0.42084315 -0.20482589 -0.17885586  0.24986329  0.19282802  0.41078245  0.42254447  0.20288144  0.28513709  0.41111789 -0.19365705 -0.21896848  0.33532062  0.35887169  0.42994036 -0.17599028 -0.25976424 -0.05893377  0.11357760  0.34905040 -0.09424871 -0.42472508  0.36794925  0.00247733 -0.36114977  0.09844514 -0.29143674  0.21557122 -0.39771063 -0.46528449  0.35396876 -0.44376672 -0.13732040 -0.29254371
  0.35685046 -0.39434280 -0.33207402  0.30985260  0.33897368  0.48348283  0.25135899 -0.32433844 -0.20521172  0.11685468 -0.43539832 -0.24532049  0.47067751 -0.16552224  0.22514887  0.11337755 -0.28770763 -0.34076332  0.21648551 -0.39247392  0.18841458  0.38138638  0.23132111  0.42159982  0.12086097  0.35677052  0.47868503 -0.00357316  0.43391545 -0.13825495  0.22387326  0.29161000 -0.03170714  0.39274019  0.10245230 -0.19170498  0.37727102 -0.14513992 -0.01499974 -0.32690824  0.47273590  0.05061023 -0.07123648  0.44438890  0.38604561 -0.34514272  0.05870044 -0.40073484 -0.18498466 -0.22389992 -0.29230621 -0.49567898 -0.34163558  0.43987214  0.42675859  0.28005324  0.29746684  0.40626949 -0.22269365  0.23221495 -0.23113858 -0.49796131  0.02469594  0.23803523  0.39566691 -0.37195826 -0.45277649  0.27382863 -0.01620981  0.03311400  0.44780665 -0.04258396 -0.41538159 -0.12253382 -0.09729787  0.47155143  0.03321726  0.46229542 -0.42828783  0.34912247 -0.26071784 -0.21970729  0.35432911 -0.10146841 -0.27894852  0.28197456 -0.32053269 -0.48060231  0.18912306 -0.04234802  0.25249250  0.45886668 -0.03942151 -0.22191388  0.19780897 -0.14283799 -0.09294773  0.24596341 -0.36808090  0.39176763 -0.21999006 -0.41937735 -0.14996888 -0.13458549 -0.04113184  0.25350852 -0.16225696  0.49285925  0.21658067 -0.08975818  0.34277530  0.45666203  0.19133882  0.19791242 -0.14399579  0.41320262 -0.01929961  0.03628552  0.43341438 -0.32936316  0.49474911  0.18671555 -0.36969321 -0.04387823  0.46558296  0.32887997  0.31402498 -0.12664857  0.07553516  0.44661524 -0.23423198  0.35615638 -0.47213335  0.11645173 -0.27775665 -0.01256815 -0.12931764  0.06073216 -0.01894064 -0.41195223  0.47177227 -0.17535547 -0.45447035  0.16394058 -0.47660988 -0.09762862  0.07798513  0.00493701  0.43950791  0.01225582  0.17643754  0.43512662 -0.30015650  0.30761605 -0.10787869 -0.33370216  0.13736821 -0.29297709  0.04052946 -0.28621356 -0.34547566  0.30718447 -0.42917037 -0.31672095 -0.07547661 -0.20604251  0.17159385  0.29608853  0.35557297 -0.34646629  0.38501627  0.32823117 -0.02092633  0.43145688 -0.00690661  0.00338622 -0.16526042 -0.42802189 -0.49077305 -0.22483478  0.08515942  0.18659287 -0.28877420  0.28594300 -0.00483945  0.10430506  0.45319565 -0.36652305  0.31226392 -0.00534873 -0.15182532  0.46767661 -0.19730268 -0.08016744 -0.34824265  0.22799514  0.21454357  0.32408087  0.02480151  0.07083506  0.47834019
 -0.08877073 -0.09945467 -0.04103363 -0.15637385  0.39456792  0.46325869  0.17923077  0.46733291  0.47317641  0.45500962  0.05305886  0.16031344 -0.33324243 -0.16049282 -0.34403079  0.27154694 -0.20681789 -0.21008221  0.08428110  0.28830588  0.13857539  0.05245367 -0.40847070 -0.44102510  0.20483633  0.32020741  0.27424955  0.02969456 -0.15417295 -0.15406480  0.00892058  0.25730164  0.24669862  0.46806748 -0.39892520  0.14138275  0.43142414  0.28040892  0.10886072  0.40481448  0.23570172 -0.33772792  0.06554767  0.40294838  0.00232617  0.22211091  0.17513543  0.29618910 -0.48726305 -0.23984563  0.08526131  0.15209685  0.31341290  0.17759949  0.21187166  0.01903301 -0.00142307 -0.01312160 -0.45052226  0.34515156  0.33356139  0.05914549  0.10319843  0.08100590  0.02796377  0.20502724 -0.27685840 -0.03985798 -0.01380446  0.33275641 -0.13429104 -0.27735090  0.49577884  0.43200542 -0.37365447 -0.00114755  0.15486207  0.30223061 -0.20420394  0.16836098 -0.43684732  0.38183086 -0.17876339  0.37735230  0.06022913 -0.46607950 -0.10278439 -0.44034378  0.02167164 -0.05241042  0.40572743 -0.14382452 -0.49230497  0.00989294  0.43813388  0.03657323 -0.28422515 -0.33794045  0.49745854  0.20273058  0.49561356 -0.13603470  0.42613987  0.49215040 -0.20324254 -0.44670713 -0.00822808  0.45231629  0.35615518  0.28815816  0.12124626  0.41987220  0.17055919  0.44306266  0.29781276 -0.26861971  0.47757158 -0.30439572 -0.20841018 -0.00023681  0.14366976 -0.30226019  0.35630025  0.15166216  0.20786804  0.29461879 -0.31160885  0.42380011  0.45685490 -0.31396144  0.12669891  0.45262267  0.05017176  0.05302901  0.44495177  0.34708976  0.10648451 -0.06308220  0.29964950 -0.03705209 -0.27454579 -0.07865585 -0.11666734  0.39658296 -0.13497656 -0.31819859 -0.37134829 -0.15669018 -0.12185748 -0.07900588  0.34383767 -0.47741446  0.11951277  0.20092189  0.17503246 -0.17183307 -0.00367655  0.36420153 -0.24726140 -0.04604959 -0.44898646  0.38021192 -0.09265262  0.10195749 -0.06599190 -0.14693575 -0.05019540 -0.45875167  0.29073617 -0.24979304  0.00494510 -0.48306166  0.17230242  0.38903666  0.41428417 -0.46191586 -0.42841233 -0.45631801 -0.11785386 -0.04950880 -0.03455293 -0.27323035 -0.02612665 -0.41423201  0.42850828 -0.35027198 -0.08523881 -0.07433681 -0.48523065  0.16834298  0.38046195 -0.43335549  0.04943579 -0.21129284  0.16949936  0.48431994  0.14261870 -0.37987807 -0.47363101 -0.06584775 -0.12886314
 -2.17455110  0.48194148 -1.56030032 -0.86894353 -4.90549427 -0.60339518  1.00122320 -0.90702440 -0.00975577  0.02663420 -0.96083737  1.92536431 -3.52528125  1.02743613 -0.63416571 -1.70697531 -0.34168573 -0.95879634 -1.38655722  0.70930185  0.54610246 -0.29503234  0.60656635  1.72715726  1.30474251  1.37210931  3.14740702  2.28092578  3.81339694  2.14071299  1.06743717 -0.30762992 -0.68998357 -1.62714502 -1.25491369  0.18834081  3.15006658  0.88890875  1.42055634  0.91738839  1.64368879  1.92738303  2.12695517  2.63037324  1.55219038  1.37550827  2.73461798  2.87271750  0.96860041 -0.24594640  1.13689406  0.58728505 -0.45640523  0.37214040  0.52683156  0.86189010  2.71612100  1.76090113  1.49553630  2.42863111  2.75977646  1.54333309  0.41136353  1.55656433  2.23340530  2.05359864  1.43670004  1.95969917  1.69056311  2.65058753  1.55159739  1.72789095  2.23089929  1.22918549  1.84790062  1.67391611  1.87209379  1.55064167  1.10221358  1.48798176  0.96369137  1.35395086  0.84938845  1.07265001  0.63503286  0.66779124  0.53298317  0.52245088  0.36404878  0.44021284  1.00087959  0.29369437  1.00420735  0.25867746  0.17857176 -1.23955535 -3.28635924 -7.10124213 -12.0741228 -6.96939442 -4.43190647 -11.3658538 -13.7121263 -8.53873264 -4.07450096 -1.94182121 -0.63887960 -0.38714950 -0.39455611  0.12542221  0.53655973  0.04595980 -0.09112956 -0.17882159 -0.41691971  0.04818314  0.03828370 -0.28629135  0.21965505  0.10674965 -0.07988462 -0.06524804  0.07385102 -0.79518885  0.15443636  0.44256959  0.86882801  0.55990297  0.07065494 -0.56432667  0.03861470  0.79337388  0.88220782  0.39240606 -0.32610039 -0.45641437 -0.60545285  0.36404747  0.16639870  1.95055387  1.51281707  0.52298981  0.82870003  1.94639277  1.31892872  0.70091323  0.48148495  1.28052368  0.70187052  0.87370357  1.13833609  2.31572536  2.31048217  0.73909439  0.70793504  1.44960345  4.41735565  1.59622505  0.53433353  0.45949565 -1.06441713 -1.51314179 -0.91328525 -0.08814127 -1.87931487 -1.90136378  1.77658314  1.53240982  1.89736518 -0.69561762 -0.66947407 -1.78008790 -1.64552030  0.15277292 -0.00167574  0.21132606  0.64083119  1.55732322  2.83707943  1.43195832  0.66898131  0.57221087 -0.34604635 -1.56929053 -3.07613339 -1.02449164 -2.20817344 -2.67409134 -0.41706751 -1.17968132 -1.23446830 -2.32468575 -2.40463268 -1.63230897 -0.16819890 -2.00889803 -3.07272804 -1.89898004 -2.44543063 -1.33022334 -2.31172522
  0.35640925 -0.19764607  0.29598105  0.40355762  0.13179732  0.16727709 -0.28627087 -0.41714796  0.01047561 -0.51432682 -0.14680128  0.39443359  0.07636659  0.40699453  0.02103729 -0.17966195  0.20601541 -0.44502161 -0.29638246  0.00626365 -0.42685884 -0.01691115 -0.28870283  0.03979142  0.21497908 -0.26446973  0.19009757  0.38865375 -0.20988828 -0.21638392 -0.21707549 -0.33584939  0.10341530 -0.40340881 -0.41422133 -0.24593949  0.28380820 -0.17930896 -0.14071173 -0.18242979 -0.16934368  0.23775483 -0.26161511  0.43427777  0.17290674  0.28809371 -0.21644721 -0.09208930  0.37194792  0.01573683  0.44215585  0.47302637 -0.47368538 -0.31955209  0.03946002  0.26799178 -0.05718462 -0.24302953  0.18444405  0.26110090  0.06883892 -0.50434792  0.45380629 -0.29922792 -0.37919270 -0.43204394 -0.01711981  0.43223502 -0.08406298  0.36934617 -0.22321283  0.27349199  0.13409423  0.04218994  0.23465934 -0.16595315 -0.14265783 -0.45466240  0.26916941 -0.24337783  0.08846033  0.23868627 -0.24302763  0.14221052  0.44678994  0.32441529 -0.06152844 -0.08179612 -0.38963560 -0.34758476 -0.29061793  0.21006123 -0.32023121 -0.30464197  0.44346687 -0.16667430 -0.20429041 -0.04203074 -0.20406606  0.23954501 -0.15126120  0.09770669  0.03996437 -0.48537246 -0.33347759 -0.20129796 -0.12870965  0.04557463 -0.13462130 -0.33820641  0.32391623  0.47606781  0.42319786 -0.39595206  0.14177924  0.39368814  0.45218605 -0.39620906 -0.16497840 -0.41497599 -0.22223350  0.06475417  0.31397685 -0.02527791  0.27551192  0.27098375  0.31976270 -0.41882791 -0.26226759 -0.37614419  0.33005501  0.10131828  0.23204795 -0.12080334  0.12556671  0.40926687  0.19013493 -0.48934722 -0.02954160 -0.42719523 -0.30861352 -0.18519376 -0.42923350 -0.36230139 -0.05699540  0.23739485 -0.44330610 -0.07920355  0.36698750 -0.08237167  0.03166504 -0.32945766 -0.49161857 -0.12820877  0.17183526  0.31056469 -0.33029842  0.01858274  0.41884412 -0.06555541  0.16931835  0.27568788 -0.43756830 -0.07186545 -0.31808010  0.21498188 -0.13542137  0.39936480  0.25302303  0.36223644 -0.50080749 -0.52880491 -0.29603331 -0.40295421 -0.36366744  0.17470070  0.36266285 -0.27830854 -0.37571951  0.25817346  0.16742411  0.18352426  0.45593079  0.20244562 -0.41840078  0.15398501  0.03952013 -0.22140520 -0.29970873 -0.01330662  0.24210320  0.39954169 -0.20695910  0.33549331 -0.14076152  0.00713872  0.08320923  0.25686626 -0.06030882 -0.13039847  0.15260054
 -0.52646355 -1.11655454 -0.82795290 -0.36639958 -0.36991805 -1.08010711 -1.43961657 -1.50040788 -1.40079537  0.41850333  0.64893884 -0.59596543 -0.54872485 -2.04562439  0.37540810  0.28371170 -3.37822893  0.09297813  0.74398811 -3.59165633 -0.77732365  0.18040474 -0.12344066 -0.14362688 -0.95175780 -0.84570781 -0.87429136 -0.31715217  0.08705686 -1.71541102 -2.31708804 -1.88393851  0.78130861  0.60664494 -1.91261087 -0.40541368 -0.32902346 -1.16158854 -1.11358309  0.11589534 -0.53736847 -1.82069460 -2.99437434 -0.43296192 -0.65434077 -0.15031353 -1.42797555 -1.32326977 -1.92004922 -2.00616918 -1.60164891 -1.17192528 -2.07802175 -0.86922164 -1.14077472 -2.59552632 -3.39404526 -0.68280740 -1.39963086 -1.19155078 -2.42549752 -1.58871404 -1.67345992 -2.02603547 -2.00338819 -2.14839638 -2.05001635 -2.70581267 -1.76914066 -2.63553288 -1.68019724 -1.13743908 -0.49313586 -0.48439661 -0.17897296 -0.19300911  0.74407107  0.67836488  0.84193762  1.46331804  0.97860168  1.58847833  1.54014221  0.91554934  1.06004857  0.47375780  0.94422270  0.27960750  0.05928393 -0.34548573 -1.65011484 -1.76714272 -2.52555275 -2.60500141 -2.10589419 -0.48722574  2.25250205  3.76921714  2.73773977 -0.43842763  7.39023178  2.07543999  2.59629369  3.22007215  1.20007981 -1.19008551 -3.20891927 -3.60892027 -2.23354177 -1.17298915  0.01618438  0.86791689  1.23551441  1.94353359  2.80631224  3.08981825  3.11786063  3.47079918  3.20793658  3.23549803  3.52351098  3.49074262  3.03174242  3.21770069  3.02117172  3.02196976  2.64244916  2.41482057  1.59837439  1.75399874  0.31823339 -0.01271192 -0.01483165 -0.51615160 -0.14491011 -0.23105974 -0.22037962 -0.72179902 -0.89316207 -1.37647086 -2.13222519 -1.51298264 -0.99264112 -0.97494078 -1.54624176 -1.49216991 -2.09899248 -2.23086622 -1.20917088 -2.22273369 -2.43860169 -1.68529705 -1.46913126 -1.74041242 -2.67571038 -2.26688629 -0.98442115  0.23586100  0.45556649 -1.57015148 -1.95666567 -1.97259631 -1.34615244 -0.42183640 -1.26430062 -0.39595904 -0.03492552  0.21821047  0.42867179  3.26277748  3.42919330  3.09093365  3.53011796  5.65672055  5.50486396  4.69712551  5.16328734  5.89239292  6.69539236  7.86717578  7.28540822  5.59703529  4.14253516  0.06028509  0.35791039  0.12276226 -0.15314441 -2.31466885 -0.02071173  1.74394968 -1.42930049 -2.02747857 -1.30532190  0.81221937 -0.43924465 -1.12952021 -1.81772682 -0.82986015  0.01327777 -0.52075108 -0.14702942
 -0.01908067  0.22253482 -0.31126926 -0.16068123 -0.75881482  0.73899435 -0.22696815 -0.39774318 -0.04906081 -0.14585813 -0.22150330  0.02218581 -0.19846550  0.00612383 -0.22818977  0.25262431 -0.20754969 -0.12214745 -1.12089733  0.42409005  0.25378795 -0.72165875 -0.51135022 -0.05773060  0.10334894  0.39563694  0.33812901 -0.91139109 -0.80469944  0.26375137  1.02024642  1.18314833  1.81135629  1.67405517  2.43697676  1.65471016  0.86931107 -0.11559020  0.07760010  1.56348084  1.85442649  1.89072930  1.66866881  0.95961844  0.71298201  0.09909541  0.77905168  0.47011988  0.48188199 -0.55825389 -0.36743549  0.31305549 -0.07324936 -0.80212161 -0.52928096 -0.45921799 -0.30080771 -0.75016638 -0.77169422 -1.50950696 -1.57046607 -1.30104195 -1.64439583 -1.27373416 -1.23735732 -1.88228095 -1.88928898 -1.23872461 -0.83868626 -1.23923866 -1.01671901 -0.71466202 -0.87223045 -0.57419593  0.26777669  0.07387795  0.36217162  0.90998439  0.35045061  0.68185187  1.27995609  0.88248787  0.38869103  0.59063079  0.61149949  0.07012326 -0.75556484 -0.75677890 -0.86704468 -1.29902507 -1.47273425 -1.73430888 -0.60708914  0.25288728  1.78431850  1.04054577 -0.62954828 -2.98428397 -4.04452914  1.25504621  9.73474825  0.84083353 -4.45116410 -3.94994368 -0.92011242  1.23648428  1.66405057  0.95422044 -0.44942602 -1.63195096 -1.51422436 -1.15674971 -0.58714317 -0.13852277  0.90349826  0.74894599  0.81034067  1.16387955  1.15607435  1.23729445  1.18533696  1.78558671  0.99891043  1.02287321  1.20741061  0.94618708  0.31883365 -0.40700291 -0.08508104 -0.78883040 -1.02248641 -0.56216299 -1.16288475 -1.54347693 -1.48058878 -0.99655877 -1.15293767 -1.88443558 -1.06842218 -1.34746545 -1.43848365 -1.47421877 -0.91013740 -1.13643445 -0.96392376 -0.51757408 -0.82102121 -0.21385236  0.15372338 -0.42175230 -0.16054718 -0.41262205  0.67135927  0.96069191  0.43697348  0.54959922  0.10182031 -1.13635024 -0.88997004  1.04374451  1.86016258  1.88926285  2.07387659  2.36403505  1.94033387  2.14623875  2.56379609  2.09290395  2.31660049  1.48125897  1.05568006  0.49634419 -0.66080293 -0.62259929 -0.54061044 -0.16870996 -0.32403938 -0.02242466  0.25411091 -0.16545205 -0.12035446 -0.43385000 -0.09028977  0.71987754 -0.29989258  0.00637026 -0.36393757 -0.36675153  0.09633444 -0.14180300 -0.13960917  0.09143260 -0.33962150 -0.03974194 -0.00311746 -0.03764494 -0.40746740  0.06694716 -0.41367765 -0.08032600  0.29164825
 -0.10275524  0.14955378  3.79220396  1.46857060 -2.68089570  0.17797197  2.87192784  3.21163639  0.27809203 -0.01579822 -1.37164927  1.16324403  0.96177680 -0.39280149  4.83750248  2.25223503 -3.07823917  1.67775454  1.18552444 -0.89406375  4.92673280  2.41881712  2.55485162  2.40854479 -0.85852771 -5.05272693 -3.43426107 -0.48434037  2.28383059  2.23199720  4.41428901 -1.94053268 -3.45416327 -2.62606150 -3.00837255 -1.05980908 -0.84215217 -0.84461022 -3.22163956 -3.22956224 -2.32105774  0.13236234  0.99405142 -2.33703677 -1.67487738  0.74089956  1.84100662  2.87629945 -0.14069257  0.10862477 -0.22015632  1.72015945  2.23692919  0.09634760  0.06274965 -0.30186013  0.85566012  0.10926435  0.82490571  0.77722196  1.24016022  1.32246615 -0.18417084  0.48412209  2.47226167  0.41391024 -0.41879547 -0.81703744  1.04619050 -0.94545539  1.42415019  0.45571653 -1.62752721  0.57360982 -0.50293553 -0.07105788 -0.71291850 -1.53781838 -1.63944510 -2.14158007 -1.65244364 -1.19112570 -1.18287983 -1.49318440 -1.75221624 -0.86792690 -1.26697365 -1.39539119 -1.59892819 -1.76147977 -1.12125528 -0.52631230  0.24614635  2.57221685  3.09107156  2.05603468 -0.54084281 -2.46507775 -1.58812323 -0.38917076 -1.23462182 -0.49915542 -2.31291137 -4.26596644 -1.11569865  1.39148184  2.44074399  2.06973320  0.57012436 -0.02153650 -1.09194408 -1.19226134 -1.32300691 -1.66139477 -1.73247846 -1.07411784 -1.61537411 -1.17501169 -1.67254860 -1.40653063 -2.19024567 -1.89633950 -1.42288763 -1.00096597 -1.40001131 -2.32595239 -1.41194132  0.06561570 -0.48847338 -1.61656132 -0.71271662 -1.13738134  0.27516298  0.45923307 -1.51349912 -0.33832156  0.37725528  0.89919387  0.05000708  1.42161643  0.04419495 -0.15037325  0.24120455 -0.06636179 -0.59619721 -0.43295569 -0.00736172  0.62340536  1.95124576  2.02316407  0.85748310  0.09040436 -0.27420690 -0.06014027  0.47985299 -0.07256726 -0.17254153 -0.62063776  1.87804725  3.34374877  0.20210735 -1.48159455 -1.32610837 -1.65858852 -1.26534771  0.11508265  0.65905411  0.97148340  0.52917826  2.20534532  2.60662398  1.41922696 -0.00907309  0.43902020 -1.87775123  1.08213430  5.66732182  4.40365927 -4.10985861 -2.95129842 -0.28815892  5.22125077  2.67817005 -2.50876204 -2.58986789 -0.43316153 -0.61726253  1.67996735  4.32811132  0.51026492  0.48539092  2.46013400 -0.17881355  0.32503753  0.90141017 -1.70857097 -0.05401785  2.89661828  1.96348664  1.42457572 -0.18041172
  0.38987772  0.30762758  0.05726671  0.19534640 -0.17445599 -0.35240680 -0.30661044  0.01529743  0.01004258 -0.36559469  0.27804117 -0.02032395  0.23286810 -0.19706012 -0.01200718 -0.20204498 -0.26336612  0.04453088 -0.12428697  0.46245072  0.03898880  0.47313685  0.23368695  0.32456803  0.43498913 -0.40648228  0.31720241  0.25769362  0.28000472 -0.43294175 -0.21012190  0.16986062  0.37466233  0.34712029 -0.13481857 -0.29982015  0.49468617  0.05854284  0.21544850  0.00469910  0.19291807 -0.00654084  0.48434443 -0.07424491  0.29636766 -0.02769423  0.22367839 -0.46703049 -0.48319500 -0.40064004  0.49538859  0.05576230 -0.42753470  0.22904408 -0.11970119 -0.49257692  0.32253059 -0.30252959  0.26508620  0.10250502 -0.23550163 -0.44506593 -0.22766446 -0.36086972  0.40202407  0.13748667 -0.16071990  0.39668023 -0.30400045 -0.44530117 -0.09865048  0.38888763  0.04812799 -0.11433584 -0.18538715 -0.15553388  0.35794025 -0.46173844 -0.12259410  0.37471540 -0.36240850 -0.12723573 -0.06955266 -0.28997366 -0.39822226  0.31071538 -0.28258165  0.42427706 -0.49184586  0.48247251  0.02674946 -0.22738087 -0.46262748  0.29905002 -0.08828608  0.43936071 -0.06349892  0.25095957  0.33600794  0.13246883  0.30562665 -0.26267415  0.02132587 -0.14627427  0.12296293  0.33591278  0.19816715 -0.01911997  0.37415183 -0.42444986 -0.14442801 -0.48828070 -0.05171023  0.28599425 -0.27827973  0.05004204  0.09668421 -0.06088657 -0.02570571  0.10481412 -0.07843750 -0.49897869  0.37741210 -0.04108447  0.30005388 -0.21088920 -0.10173682 -0.26345664 -0.45994025 -0.26573875  0.36900296  0.34567816 -0.02842059 -0.10967970 -0.30060544 -0.40546812 -0.27377906  0.39754730  0.07539512 -0.39964636  0.47307611  0.43094395 -0.38795176 -0.07866012  0.21691121 -0.16625936  0.47135330 -0.18643386  0.27282418 -0.05438266  0.41834964 -0.30564418 -0.05339227  0.29573066  0.15324024 -0.25336937 -0.41518912 -0.44852728 -0.01685684 -0.37516041 -0.21429687 -0.14788439  0.47048728  0.25725202  0.24240542 -0.33014847  0.35175412  0.46859686 -0.43263023 -0.07287947 -0.43107779 -0.45958271 -0.14196492 -0.31906074 -0.03827524 -0.42508614  0.01464879 -0.06695177 -0.11154981 -0.21255784  0.37863366 -0.19323291 -0.01823567 -0.17479365 -0.39753902 -0.36503314  0.07179912 -0.31276478 -0.31359520 -0.44509006 -0.18795481 -0.02791930 -0.09300052 -0.21749337 -0.27069324 -0.35062125 -0.04766875 -0.41896660 -0.38205212  0.01967397  0.00812788
 -0.62198617  0.64740150 -0.45014567  0.62377041  0.23516383 -0.40664480  0.92210204 -0.08530973  0.16374740  0.43738546  0.15983652 -0.53452736  0.11323444  1.18811099 -0.66582305  0.50282324  0.57322909 -0.30851259 -0.49235723  2.66921483 -1.10078105  0.04172388  0.51646062  0.30629481 -1.07387148  1.22963950 -0.70411033  1.40890612 -1.04741502  0.26966000  0.26988948  0.36628903 -0.41544621 -0.85545764  1.14043649  0.74646384 -0.21494797  0.30378221 -0.13129126 -0.41753431  1.18806465 -0.75359039  1.39554046  0.87228299 -1.79992994  0.87599128  0.43234203 -1.53307984  1.24738741  0.79458080 -0.59748334  1.95492255 -1.09605088  0.19179092  0.07167312  1.16433941  0.48819215 -0.26128002  0.32107959  0.30492174  1.43450790 -1.68562823 -0.13402321 -2.97458938 -2.42326376 -0.66841859 -1.40640727 -1.17422395 -1.86532833 -2.37300033 -3.77150128 -4.25687282 -4.13594000 -3.79249046 -4.19825406 -3.76585879 -4.02884701 -3.98813899 -3.29859669 -3.83454211 -3.75009912 -3.22722656 -3.65495006 -2.84513047 -2.88858197 -2.43374136 -1.81767607 -2.22001582 -1.76341192 -0.63463446 -0.30779255  0.62125796  1.19122845  1.59354390  3.21687561  1.96247428 -0.36486634 -1.70171970  4.73088586  2.18101694 -6.14977010 -0.48172057  2.25106207 -1.88096706  1.21119795  4.14734214  5.15174692  3.73959713  3.43178972  2.66250211  2.24594651  1.66089412  1.58366873  1.66650790  0.72466240  1.41706259  0.75383949  1.19299795  1.19750258  0.65467372  0.84704196  0.76016189  0.69913117  0.84066737  0.97251443  0.57247321  0.69157225  0.27890074  0.11872756  0.64264264  3.25042291  1.28012411  1.32988150  3.03827929  1.10868209  1.32281361  0.56134778  1.18609932  1.94291144  0.48730022 -0.71883252  0.92114071  0.05445291  0.92865401 -0.42363636 -1.37545280  1.08066903  0.78523240 -0.59460032 -0.03944672  0.10440691 -0.20014798 -0.13162668  0.83610221  0.00282730 -0.32028062  0.93966631 -0.72573921 -0.40661463  1.13957877 -0.96364614 -0.04393824  1.20763103 -0.45141940  0.45038772 -0.08994063  0.43778232 -1.11548777  1.25071359 -0.19361641 -0.09972330 -0.43804020  0.16957963  0.18292760  1.08922339 -0.18831122 -0.50173480 -0.18381289  0.97011987 -1.29880791  0.79194442  1.11426624 -1.66222118  1.15288727 -0.87907003  0.66964024 -0.00178273  0.54013992  0.18155716 -1.24753068  1.35597198 -0.75177046  0.67583230 -0.27037511  0.67051975 -0.79290898  1.30388270 -0.68818297  0.61148314  0.12321330 -0.14428262
 -5.03324420  2.82485623  4.53546837 -3.34904409  5.07443604  5.90088229 -4.93822065 -2.46814688 -1.98709128 -3.02608359  4.20649142  3.26171177  4.18869319 -1.60947934 -3.98988575 -5.05960899  5.27325171  6.02119168  3.97060748 -6.61827771 -0.60703040  1.03085936 -4.27548598 -5.28605029  4.93905805  0.56289911  2.26225139  5.25640308 -2.61598279 -4.37160345  0.79703927  4.57819788  2.83076504  0.07811146 -2.24763985 -2.24686681 -3.11764571  0.64489817  2.15530002 -1.33918879 -3.57031722  2.31766509  2.63863741 -1.22039441  4.17707266 -2.69125193 -4.72054483  2.21647108  2.49767489  1.59991948 -3.01036757 -4.87797208 -3.83828764  1.91174075  3.22205032  1.32819122  4.28501704 -2.12817014 -3.66723865 -4.66775459 -4.23949608 -2.49868423 -1.03366596  3.70198394 -3.01162531 -2.70253950 -0.94334544  0.08482585 -3.40252314 -1.68123501 -1.19678081 -0.76678058  0.24793639 -0.38466131  0.20713607 -0.26435779  0.81273054  1.56583383  1.52755100  1.73297372  1.99158692  1.74975820  2.52010883  2.73517778  2.47702317  2.85200754  2.41121987  3.09812724  2.18766583  1.97251069  1.51229945  0.87151595  0.21453266 -0.22609733 -0.76316137 -0.89914462 -0.42282429 -1.09182213  1.03089296 -2.21664966  1.80077018 -1.21226559  2.57861655 -0.45581399 -0.00968498 -0.52681417 -0.46271640 -0.98030733 -0.41476992  0.87525502  0.97126861  1.41311452  1.74445408  1.80124301  2.75836892  2.29949744  2.36049328  1.65046090  1.79417586  2.02276327  1.37718698  1.56282928  0.81496736  0.13324998  0.69078636  0.61129140 -0.12613980  0.20087054  0.14309272 -0.02714122 -2.27182300 -0.33810525 -0.55859150 -0.45639227 -1.12725036 -0.34226788  0.78970024 -2.40564470 -3.23490794 -2.67048933  4.82299436 -0.90699442 -3.55281439 -4.84261023 -3.54528599 -2.04386691 -3.51012079 -4.58325405 -1.94669707 -3.94676922  1.02647678  4.94554886 -0.43747770 -3.06850562 -3.16543937  5.10997456 -3.85719160 -3.22169162 -1.12761416  2.65901932  3.66449793 -1.18783778 -5.97717569 -1.32481046 -1.95389547  2.03793267  6.32350820 -2.41254019 -6.86470265  4.98550603  6.22283782 -2.30860449 -8.01414528  0.19748311  3.36633640 -1.81861539 -0.28144258  0.12789204 -3.63602149  1.59979449  6.60442609  0.20065267 -4.35269347 -3.30290125  0.24967710 -5.99768633 -2.18003495  7.37558780  7.64636418  5.86594416 -0.81834109 -3.93781719 -3.94674936  1.43906941  3.69613620  3.55158978  2.66221909  2.48702860  1.90247946 -3.12140123 -4.12215223
  0.16974061 -1.02733160  0.93053097  1.33293844  3.77120603  4.00276124  3.88664439  4.42109653  3.23516278  1.85687827  1.61920990  1.83042731  3.40519294  1.60577338  2.84183879  2.05680391  2.55628626  3.26350563  3.32320166  1.95908537  0.98792912  2.73275020  2.63671408  2.48218814  2.34871520  1.67155868  2.91654029  2.30193441  3.16688195  2.49294340  0.80390722  1.20916323  1.93037062  2.09374164  1.35635487  0.68280360 -0.76961364  0.84672668  0.16163854 -0.04524631 -0.99382874 -1.75911994 -0.54327277 -0.98067148  0.38433982  0.56529398 -0.53300478 -2.55806216 -0.68143925 -0.47894040  0.04824393  1.60696736  0.60957745 -0.26966773 -0.77527327 -0.64578195 -2.23357912 -0.97953068 -1.07992003 -0.53751297 -0.76295434 -1.29914430 -0.17264310 -1.87870046 -1.41972219 -0.83524728 -0.76752825 -1.74705834 -0.33448689 -0.56617282 -1.81910067 -0.92891375 -1.53747606 -0.72888071 -1.25739679 -0.63853522 -0.56486802 -1.28348779 -0.15618814 -0.23767966 -0.00901293 -0.02218943  1.22972427  1.15916916  0.97019882  2.03430181  1.24034407  1.09191614  1.53451709  0.74354486 -0.87383854 -1.18819632 -2.53468077 -2.93026937 -4.14732698 -3.55665709 -0.79030228  2.57720952  5.83721708  7.16942861  4.20634174  0.67230585  3.68105401  1.63014470 -1.12413264 -2.81725809 -3.85110739 -4.44690991 -3.24065760 -3.05786963 -1.98193361 -1.44825880 -0.81260367 -0.25336024  0.36839911  0.03311997  0.03856026  0.49126620 -0.07031856 -0.37297143 -0.13294522 -0.53732503 -1.15024003 -1.01004727 -0.61656589 -0.93564701 -0.73234803 -0.57655863 -0.83939922 -0.08114852 -0.76312672 -0.45749638 -0.74084244 -0.55309302 -0.40495309 -0.32480810 -0.04464203  0.02464224 -0.54753509 -0.42847483 -1.11560394 -0.58885940 -0.72440219 -1.77151294 -0.86907425 -0.14138291 -0.68893573 -0.16692241  0.01526739 -0.57080194 -0.43861888 -0.85812585 -0.52084936 -0.45137365 -0.26055553 -0.61040613 -0.39279866  0.50890555  0.72730385 -0.27754221  0.40925549  0.79671191  0.26347354 -0.04921286  0.91177837  1.57281869 -0.08447069 -0.38817476 -0.18082946 -1.15891529 -0.57663375  1.01164226  0.16197822 -1.51540159 -5.09028320 -4.24237111 -1.03301445  0.46406265 -1.03273799 -1.40965523 -0.61889789 -1.33187389 -0.95341182 -2.08479327 -1.96254623 -3.65958232 -0.56400548 -0.82252415  0.88678945  1.36655109 -0.33443245 -0.65806690 -0.01706589  0.55324238 -1.86585454 -1.11043754 -0.98509138  0.65436923  1.30923905 -1.00570707 -0.05572665
  0.63173550 -1.78637434  0.74277251 -1.83463729 -1.00214444 -0.05960976 -1.11181981  0.88092664 -1.50462949 -0.16917054  0.34819336 -1.63776124 -0.29035294 -0.77176817  0.27152137 -1.26872939 -0.00130614 -0.87462979 -0.33252054 -1.33477712  0.04526937 -1.95324376  2.48127661 -1.70988987 -1.49242417  0.06838335 -1.00287227 -0.66097519  1.08314955 -3.89003887  1.74346875 -1.45062026 -0.40939609  1.46216877 -0.92197057 -4.72994066  0.43326492 -0.35519469  0.21766691 -0.86060040 -1.23412585  0.86706174  0.47919293 -2.89094112  0.89415114 -1.16594960 -1.25943112 -0.28513897 -0.54970435  0.97382403  0.16139283 -0.66489773 -0.14269937 -0.08965557  0.35098636 -0.80036848  1.31821961 -0.29394316 -1.67771319  1.66944355  1.61011481  0.81401533 -1.28305708  0.28195651  3.02882238  2.05266250  1.13977571  1.70046635  2.03122040  1.07272105  2.71988575  1.33841157 -0.90622016  2.67938259  1.54169166  2.51806388  0.83606008  0.62429473  1.80431977  1.17010325  0.08080769 -0.22403009  0.36651411 -0.57565413 -0.13054165  0.42963993 -0.32746557 -0.11590745  0.26885009  0.68876823  1.46505546  1.43092657  1.36443041  0.53867296 -0.45657117 -0.69319917  1.30881606  1.88966440 -1.49105850  1.49973219 -4.55783246  1.93165998 -0.97834273  1.97823877  0.59227085  0.30667445  0.36541988  0.42349631  1.60090590  1.19288648  0.81519779  1.13520308  0.98131908  1.03670405  0.44457975 -0.15174679  0.56962792  0.25629517 -0.19407942 -0.25178785  0.63500559  1.53235011  1.95411443  2.11698753  1.68362238  1.75205064  1.09966636  0.77337167  1.93920599  2.05034559 -0.42874388 -0.15108392  1.34231229  0.68793923 -0.45064072  1.66513258  0.72646865  0.37225796 -3.03805199 -0.03690869 -0.18692450 -0.07145027 -1.60729392  1.34526357 -1.07962435 -2.24876319  1.15275424 -0.72765249  0.02238407 -0.30414122 -1.02129183 -0.59824965 -0.30900290 -0.91720056  0.79311584 -1.53979759 -1.07225809 -0.90356236 -0.01657359  0.88062472 -1.89238881  0.05230853  0.03257751 -1.70032552  0.86011648 -1.06271442 -1.84648320  1.23340484 -2.21817912  0.54032895 -1.06939824 -0.52901252  0.11951599  0.74102277 -1.78921705 -2.56970813  0.09201999  1.28328761 -2.39597155 -0.42169654 -0.11131127 -1.49120586  0.52954003 -0.73048956  0.79518222 -0.75007503 -2.05360917 -0.51534007  1.19742539 -2.17853860 -1.36023740  1.23556736 -1.06243657 -0.52892447 -0.51638775 -0.56180266 -0.48322354 -0.22451977 -1.72275860 -0.73809935  0.82656234
  0.53063279  1.09486203  0.73321238  2.68809685 -1.59557229  1.00409925  2.18539158  1.67337242  0.65433640  0.91843888  0.45505391  3.27419932 -0.77652517  0.26491520  2.59453793  2.08627819  1.18222832  0.27662502  0.95504156  3.05826731  0.04803839 -0.47576795  1.70165755  0.27574674  0.38206477  0.08797377  0.58894920 -0.74730446  1.98124092  1.67031133 -0.65120802  1.08088761  1.88241132 -1.54253939  1.88491530  2.50796955 -0.55587994  1.82085273 -0.62151235  0.96044273  0.20638286  0.99271848  2.08845211  0.32382194 -1.12063648  1.21662714 -0.65552240 -0.70298723  0.13857983  0.03646901  3.32848017  2.44263451 -2.20274097  0.36480125  1.51998313  0.28099027  0.68840971 -2.83554227  4.84380766  2.01146995  1.36807454  2.73021875 -2.59881056 -0.88731522 -0.86885398 -1.30796353  1.58339356  3.54631758 -0.31686133 -6.66644091 -3.84965341 -6.65289285 -4.83047618 -5.22170260 -3.87398904 -4.67834671 -2.21742637 -2.93817903 -7.72710184 -4.95305977 -2.28576549 -2.01042973 -1.74856290 -1.80017825 -1.92880005 -1.34272159 -1.28109485 -0.40673151 -0.52973492 -0.18900199  0.34121071  0.84664829  0.20726278  0.87442825  1.16872373  1.72542545  2.92080269  2.13558700 -1.10757438 -1.37233418 -4.07004115 -1.71096657 -1.52708048  1.98429711  3.14166645  1.41234622  1.58628698  1.01992005  0.67913734  0.08414758  0.14669093 -0.10089852  0.24783119 -0.80724762 -0.48148405 -1.61308321 -1.40586716 -1.31363636 -1.83562233 -1.98077500 -2.73701064 -3.38827916 -3.70711176 -3.46831168 -2.15893056 -3.70540637 -2.76897062 -2.35843023 -3.99612217 -0.50202553  1.99278291 -1.08594143 -4.54823933  1.06948077  0.09420096 -1.90983060 -1.16724521  0.70299301  3.57869467  0.83686749 -1.90359940 -0.78848077  2.69971352  0.74416901 -0.02020998  0.80704176  0.55715775  0.44840074  2.46249485  0.38924704  0.61367587  0.03834301 -2.31668894  2.83389378  1.57007880  1.99596467  0.82466267 -0.12217020  1.01624629  1.52733503 -2.10426670  0.67876267  2.80431977  2.19642708 -1.19883031  0.87399554  0.51066072 -0.20874183  4.50817274 -0.95264592 -2.99843822  1.00531222  4.10161736  0.18162228  0.87516362 -2.79139406  1.30527012  0.59041732  3.21133491 -1.68393186 -1.60810564  1.95043706  2.98750504 -1.46030175 -0.42175382  4.33491399 -1.49853002 -1.39011474  6.14524977 -1.03093672 -1.80128743  2.63578167  2.72356421 -1.63774301  3.55777533 -0.93644883 -0.07203364  2.79123211  0.36961554  1.86539941  0.11697696
 -1.38722876 -0.94272449  1.87387104  5.87031786  5.97028357  1.24470447 -3.57056001  3.82367011  5.96887125  3.40487381  0.33490463  0.95679060  3.38945442  1.33833993 -0.70205323  6.63296200  2.36604557 -0.24491340 -0.30280272  0.51158551  9.30095411  1.88685344 -3.61973289 -0.93049960  2.77869960  3.66105991  4.05842411  4.25237579 -2.03339103 -0.45372354  3.88054318  2.13291350  1.16557448  3.02070505  3.45298408  2.83867841  2.84101309  0.50586937  0.15898447  1.45152492  0.97260426  6.13686965 -0.69533620 -1.10749573  3.44830245  3.61076683 -0.92645543  3.54675163  0.80689147 -2.36270318  1.39108844  3.48197567  1.43781517 -0.03457425  2.13934295  0.49761958  1.63265094  0.94136696  1.16780049  2.12084046  2.28814600  3.68154965  0.40299198  3.79840553 -0.54228771 -4.58202236 -2.10543892 -4.78272963 -4.19742358 -6.74761948 -5.10014517 -4.95437256 -5.15526635  2.32189581 -2.48848099 -2.35383396 -4.60126468 -4.73589627 -4.54322771 -4.83706883 -3.91367121 -3.92650863 -3.75370790 -2.82239077 -2.32093325 -1.18425586 -0.60201385 -0.86137475 -0.44422718 -0.20265648 -1.14983499 -1.72156090 -2.45655492 -2.27443508 -3.53031710 -3.41885520 -2.18523039 -1.54109030 -0.91504726 -4.50958539 -2.69646593 -1.02914191  0.33598970 -1.19838893 -2.64340081 -3.31137518 -3.05652705 -2.07150703 -1.07491308 -1.06458373  0.20839379  0.24010218  0.13381362  0.27605949 -1.11040380 -0.96560640 -1.72305688 -2.26978433 -2.78259420 -4.15145248 -4.11740718 -4.68450379 -4.24653504 -2.27818756 -3.14759357 -4.90363192 -4.50134672 -4.45228568 -3.91963805 -2.74832715 -2.92471076 -4.69832441 -4.58467242 -4.74596602 -2.78366783 -0.45479096 -2.09983033 -3.12856207 -0.91343868  0.64351570  1.40451904 -0.52948312  1.98723188  3.56920616  0.43589852 -2.22531552 -3.78953702 -3.09203572 -3.47514065 -1.29660186  3.62294221  2.65475708  0.17870343 -1.16813707 -0.67081672  1.85912082  2.58807491  1.40121085 -0.15559113  0.31665530  1.52861488 -2.46030883  3.19486937  4.68653456  3.72015114  2.14111041 -2.73670043 -1.93325687  3.03652701  4.72072247  0.31224598 -0.73068633  3.03648891  6.62053580  1.10366183  0.48684572  1.36148836 -1.58720925 -2.87390156  7.59087766  8.22963991 -0.97253687 -2.98621396  1.76915855  5.91081120  4.89121388  5.21973855 -2.59941745 -0.46893468  4.48417019  2.18440281  3.45646806 -1.11818373  3.54285598  7.09775934 -0.29437619 -1.58581183  2.78300350  4.76358818  4.52495044 -1.71514181
 -0.17511339  0.39127159  0.28564167 -0.08091679  0.27934737 -0.33302953 -0.28882271 -0.24810016 -0.15700199  0.04104799 -0.25913200 -0.11305274  0.41755302  0.25490822 -0.03300279  0.42370194  0.22562111  0.31559215 -0.28499724  0.15343710  0.33324831  0.31914847 -0.23536215 -0.23205569 -0.14396929  0.34848086 -0.23285645  0.19587178  0.25676732 -0.43774636 -0.32270895 -0.41821731  0.45365775  0.46306870  0.00100538  0.23314756 -0.36981573  0.21233071  0.48519911 -0.02666162 -0.24646103 -0.27376867  0.36045347 -0.32873663  0.48131410 -0.17237215 -0.40485498  0.20711695 -0.35659695 -0.18966780 -0.13926023  0.47683792 -0.37033210  0.12556538 -0.25502958 -0.01411301 -0.02576511  0.01230265 -0.31805244 -0.26880885  0.07474542 -0.14057202 -0.18683637  0.02859349 -0.17731270  0.31435999 -0.23806773 -0.04693693  0.02688247 -0.25267697  0.42659328  0.28061337 -0.02625363  0.28723885  0.45206908 -0.04474693 -0.38494055 -0.45259286 -0.33743664 -0.24134338 -0.14206582  0.02349876 -0.26430899 -0.01220049 -0.35073734 -0.01913891  0.47388757  0.12370002  0.49336774 -0.34395925  0.35509859  0.06832253  0.01568000 -0.33152461 -0.40286929  0.33858300  0.48305113 -0.14072268 -0.20814230  0.01014093  0.10680167 -0.28135504 -0.20906014 -0.41927405 -0.49394510 -0.25682449  0.03614241 -0.37872417 -0.20925659  0.19886667 -0.11990617  0.14883952 -0.27747227  0.11594716 -0.36319909 -0.12804872 -0.40303243 -0.38915442  0.49580552 -0.40951408 -0.23296744  0.35104517  0.15894352  0.28284085 -0.48035871  0.25618686  0.12152823 -0.49721100 -0.38444635  0.41346945  0.01300931  0.22243344 -0.36780640  0.30403259  0.30324890 -0.36165458 -0.45268669 -0.16049474 -0.24025627 -0.16181241 -0.46148941  0.13998337  0.48717929 -0.23880373 -0.24390634 -0.37585214  0.13331919 -0.14676370 -0.26482852  0.12930514 -0.05609537  0.00238809 -0.01946425 -0.39696515 -0.21458348  0.00036547  0.35941069  0.40713419  0.00334418  0.47515444  0.32079403 -0.48345592  0.19777871  0.45317868  0.32076789  0.00121900 -0.40828464  0.36827269  0.34091596 -0.14834890 -0.29334779  0.37961849  0.49182658 -0.30597620 -0.35899286 -0.25188766 -0.18163651  0.27451808  0.10154080  0.05372816 -0.09598173 -0.45435682 -0.44368357  0.38475646 -0.35111764 -0.15806136 -0.11467194 -0.49150174 -0.25072347  0.38887369  0.48385194 -0.42973161  0.40561583  0.18182989 -0.47635268  0.22658441 -0.31675083 -0.38443860  0.09505235 -0.47564483 -0.03260330
  1.33643343  2.46895033 -0.35928924 -3.26496995  0.97295646  4.66450038  3.15002084 -3.13374242  0.44103766  2.26036173 -0.22183715 -1.11132066 -0.91176189  2.49147567  1.50097302 -1.04715497 -4.02689045  3.59388459  3.59174155 -0.01063366 -2.34605574  1.98569030  0.62702940 -0.76053393 -1.54573603 -2.51373617  4.63352042 -1.98352367 -1.42339770  0.00087990 -3.42501870  0.97067706 -2.54070941 -2.48081369 -1.14372824 -2.57285274 -4.59615987 -3.12443260 -4.01354087 -3.10832222 -7.49863277 -2.36348727 -5.17368596 -5.41400231 -5.12843131 -8.12772759 -6.91182908 -5.48763110 -7.17365246 -8.00451669 -6.42586313 -6.71840493 -5.44700329 -7.90729532 -5.16170711 -6.63400922 -7.59020042 -5.70821045 -4.82091532 -6.71092123 -7.74308133 -3.83863491 -7.66213214 -2.65294190 -5.27857186 -5.70993866 -6.48470857 -5.49180081 -7.00483700 -5.35660444 -2.28929086 -6.29526655 -1.34201048 -5.24677077  0.38790008 -5.61758931  0.93921975  3.84797083 -5.63913614 -0.62787749  3.45293931  3.96148768  3.79020148  4.52183982  3.79434615  4.67881346  4.18125501  4.60606501  3.84202094  4.36028420  3.58468921  3.54832200  2.34279100  2.03069802  0.30220680 -0.98702396 -0.77391425 -0.96484680 -3.14840516 -13.7432201 -0.00046574 12.78959296  5.11908145  0.80292223 -0.98550185 -1.66914198 -0.28486747  1.07216107  2.49894951  2.88553784  2.96837823  3.79707906  3.89416037  3.27194803  3.51972387  2.71805846  2.88460237  2.57692029  3.16843670  2.57838058  2.87545236  2.16249789  3.18161952  2.99074208  2.93747584  2.41445261  1.49399707  2.39253466  2.62982160  2.05818233  1.54643831  1.87849411  1.48906377  2.30236724  1.93349211  1.10567303  1.13191924  0.99877561  0.87228704 -1.40383299  1.41622355  2.77526294  0.62367606 -1.48278850 -1.61743867  0.89470566  4.56427918  3.52091867 -1.50886357 -1.73481390 -2.29039190  0.73660524  5.80900446  2.00275734 -2.46897551 -2.61968070  0.59689000  6.18466000  3.61836142 -0.59115655 -2.07144211 -0.09827821  3.94126381  4.93992699  0.46732032 -1.73299646  1.15654110  0.49272096  4.26965075  5.49441496  5.60290486  3.26581967 -0.04209702  0.75192987  4.47781386  6.82811611  6.35153086  4.03386775 -0.37229979 -1.29834461  1.86002507  3.65709548  5.65566841  4.23605935 -0.48430049 -1.23898511  2.08002617  1.80327482 -1.92805007 -0.56812596  1.07246969  5.57547837  6.55324157  2.58690280 -3.53848233 -0.28274775  6.27751189 -3.11742847 -3.55337829  4.09052719  1.14875879
  0.96680233 -1.36924880 -0.13532212  4.15832644 -1.47351089 -4.52609732 -5.95420841  3.90223165  3.97664532  0.41929698 -4.60752089 -2.59022279  4.83189685  7.79853587 -6.87146747 -0.03673393 -1.89461735 -6.80711755  3.82293027  7.29051389 -4.75113287 -3.17009632 -1.01086393  0.33997867  4.00089563  2.66055167 -3.51944274 -5.04879059 -3.21366115  2.48090555  3.55521166  1.94170288  2.18682800  4.29478131  1.65058426 -5.07478523 -5.37902919  2.03036513  4.35505127  3.46539385 -0.49995294 -3.98594428 -5.20441906  6.29199057  4.71599239  0.72565303 -0.44969975 -3.60917068  1.55853901  2.03537993 -0.59446359 -2.18969433 -1.80069130  1.05317322  0.56828270 -2.59656637 -0.45248497  1.36149179 -2.52911659 -1.10663701  2.34614751  0.46209750 -3.31748646 -1.84919111  0.07882179  0.21835136 -0.45171089  0.47425356 -3.59850144 -0.33481437 -0.41104671 -0.36082946  0.62431397 -2.25115213  0.79440639  1.20181420  1.03476128  2.02322678  0.80309302  1.13496488  1.95932906  1.85792408  1.99101410  2.32120422  1.58430434  1.93292859  2.19779498  1.15137666  0.65353484  0.26965158  0.63292349  0.30279609  0.05205948 -0.24528786  0.14302819 -0.06110528  0.15210225 -0.23184761  0.58732225 -0.67912159  2.10873624 -0.90717126  0.18565539 -0.43261177  0.16048410 -0.64042838 -0.52673459 -0.44814890 -1.38719147 -0.72378037 -0.96560446  0.18034681 -0.04935905  0.77797776  1.01519354  0.76169283  0.71229272  1.12518006  0.90950543  0.62006603  1.03971222  0.42855383 -0.04184428  0.14970148  0.77859961  0.86913226  0.86966483  0.30495644  0.35266322 -0.57689278 -3.89371918  0.80129730 -0.77450694 -1.41453599 -0.58175064 -0.22104623 -1.34472860 -3.43658528  0.73838726  1.89593865 -1.06013967 -3.93243138 -1.02228681  2.24130338  0.32051690 -4.61255250 -2.10952501  1.21163172  2.58327959  4.19720151 -4.35603270 -5.70627469  0.41435486  2.80349371  1.19517376 -2.07463506 -3.22629315  0.11124734  0.06034156 -0.75001425  1.05969317  4.19577406 -2.84896918 -1.69424035 -3.52103604 -0.55380015  2.25784886  1.57123496  1.26882354 -0.43201209 -6.04253977 -1.99911798  1.18728833  3.13583111  1.30400237  5.02073303 -5.81660111 -3.46604205 -2.27345214 -4.85053263  4.56651999  6.08953402  6.40872006 -3.96568253 -2.59110741 -0.48129564 -0.18416347  0.00841891  4.37911603 -3.03053651 -2.66543657  3.49421834 -1.13364791 -7.78818848  3.05061251  1.04588468 -0.03374700  1.39245608  2.46124606  4.05489544  1.40100481
  0.32980413 -0.66753586 -0.13837263 -0.42301164 -0.04235053  0.68656606  0.56557678 -0.14294530 -0.19661269 -0.31254067 -0.48106038  0.04801071  0.07324084  0.42616367 -0.51218823 -0.53793269 -0.30525587  0.21905680  0.15533049  0.03624004  0.13135322  0.22842246 -0.75388107 -0.43799402 -0.26980912  0.51760081 -0.92571560 -0.48618786 -0.18168310  0.58176423  1.31658433  0.97647257  0.31705414 -0.04770199  0.32682529 -0.53774335 -0.08947014  0.34837621  0.68583419  0.05255968  0.93120430  0.71691985  1.29441769  1.27290780  1.24797241  0.24777493  0.20005777 -0.44089914 -0.08988219  0.35506136  0.53344995  0.79498325  0.27233691  1.09302449  1.15855284  0.39571637  0.93032393  0.22010105  1.23807999  0.87025705  1.42203574  0.96727794  0.84458155  0.32850317  1.70046300  2.18302193  1.95124484  1.67577291  0.47937504  0.69272359  0.29866480 -0.69245389  0.11978122 -0.21571165 -0.86679812 -0.57981461 -0.97018291 -0.24808872 -0.70803217 -0.50091065 -0.64683318 -0.36838770  0.22765425  0.97789419  1.22570020  1.72962247  2.68419204  2.56156180  1.17087370  0.82798657  0.12682545 -1.32246063 -1.44829531 -0.51264406  1.13416493  3.13050851  5.15774267  5.81107547  1.22995337 -6.43558639 -7.73653954 -9.90825341 -2.24116916  3.15422370  4.60777961  2.71660153  1.68544504 -0.28142123 -0.78561452 -0.66178268  0.19243856  0.46064458  0.79953559  1.32771127  0.89222468 -0.08411086 -0.32602713 -1.49662616 -2.54937278 -3.41012386 -3.60203156 -3.86323057 -3.86332006 -3.41902279 -3.01779328 -2.68322333 -2.20430811 -1.85406768 -1.26404362 -0.73606955  0.46916621 -0.71803542 -0.05477004 -0.13269848 -0.05893939  0.90873369  0.83092572  0.97192971  1.07492246  1.52869815  1.70733714  1.88700238  0.55358436  0.59327754  1.68738132  1.84086094  1.46709228  0.23159294 -0.24591375  0.81382401  0.87275129  1.25070729  0.77015147  0.84544624 -0.05963422 -0.00932771  0.93310237 -0.22978604 -0.36915977 -0.32274802 -0.87186666  0.03358517  0.12139685 -0.32478348  0.02473076 -0.11057018  0.16624774 -0.22161030 -0.18938721 -1.77662803 -0.60116025 -1.59875430 -1.62349148 -1.46548193 -0.07366047  0.09851135 -1.37524164 -1.45610171 -2.23204233 -1.17557646 -1.09381522 -1.38841548 -1.23560001 -0.33494178  0.87543400  0.84803312 -0.06481818 -0.09578222 -0.80603846 -1.25510853  0.19325801  1.51257912  0.01602134 -1.00570135 -1.43857409  1.13237670  1.13983170 -0.53011420 -1.31278540  0.63889202 -0.00431466
  0.31810518 -0.14407978  1.28194129  0.23431651 -0.02621473  0.14095510  0.97811281 -0.54870513 -0.83526835  0.43606463 -0.22287037  0.56307986  1.68680704  0.38253296 -2.03388125  0.10768572  1.40128409  0.04281174 -1.36235547 -1.15392096  1.18097617 -2.81763030 -1.46382391 -0.06575501 -1.65450348  0.03436852 -1.57034203 -0.43342430 -0.91684055 -2.65123045  2.36471551  0.55913211 -0.13954661 -1.26273225 -2.38344153 -1.45032671  0.46694047  0.01529770 -0.01435363 -0.30875478 -0.96384280  0.01993766 -0.08307227 -2.56821615 -1.03299808  0.09749220  0.33407849 -0.39687181 -1.04477255 -0.03480064 -0.23493193 -2.54998117 -0.57154229 -1.02757256 -1.49447351 -1.28107594 -0.06593157  0.13455392 -1.82597396 -1.55393085 -3.51429450 -1.51353841 -1.80613526 -0.54440621  1.25634320 -0.87226462 -0.13218858 -0.61086645  0.74285777 -1.81855795 -0.83849461 -1.67558091 -2.38466886 -1.11910089 -1.09427850 -2.12616978 -1.23838965 -0.37264829 -2.83536297 -1.63438661 -0.61205538 -0.31742567 -0.35468357 -0.56865732 -0.03044769  0.23289088 -0.18794757  0.21146833  0.13215805  0.10010271 -0.23604745 -0.21658406 -0.55762127 -1.95243684 -1.86887488 -1.86086363 -2.33796530 -3.37894819 -7.25069334 -10.6866658 -0.82508953 12.27072323  6.28621867  3.97126548  2.81589299  1.19274760  1.17345338  0.49100846  0.23217877  0.15507841  0.18102270  0.92775439  0.72257393  0.27435702 -0.55508828 -0.48759423 -0.85031749 -1.20332412 -1.76493861 -2.14494523 -2.34101081 -0.39087925  1.02561415  0.89204720  1.05004673  0.05617273 -1.54071882 -0.05084970  2.23648590  0.79108020  0.97263305 -1.18660057  0.60134309  2.01713651  1.28359033  2.17072093  1.36871715  0.97085457  0.73219915  1.29678812  1.54821743  2.83986204  1.65575170  2.59613715  1.48933930  0.54752471  1.70036049  2.12059153  1.65836980  2.35624845  2.27529923  2.49103682  2.12861546  1.19661522  1.90500337  0.23718111  0.25454562  0.98988477  0.85353854  0.63642330  0.59831022  0.45697594  0.86374875 -0.64519202 -0.93535538 -2.39132695 -3.12144910 -3.01522737 -3.98936701 -6.19929734 -6.34024029 -3.98662761  0.05323556  0.57527353  2.19726369  2.40866921  2.71555620  2.32894602  1.55942204  2.60762409  1.34164499  1.81288219  0.73473212  1.06723449  1.95634520  2.21383010  1.70508979  1.67702565  1.80131862  2.36066345  1.64556691  1.40496768  1.03803081  1.20823327  1.86089294  2.62624961  1.81698591  1.18883143  0.36055500  0.90374275  1.03014403
  0.88233597  3.86337157 -1.03644154 -1.36165026 -0.65990646  0.46566910  0.64671822 -0.52594124 -1.14925371  1.39357646  0.82870790  0.91552852 -1.75604750 -1.07939346  1.08860663 -0.37896058  0.37886902 -0.96531045 -0.64777650  0.84498663  1.29294781 -0.89038892 -0.61938889  0.63254242  0.80715970 -1.05184567 -0.96702219  1.28550512  1.20379003  0.01902965 -0.05603690 -0.56332456 -0.77437129 -0.19346878 -0.34752689  0.03884842  0.58747616  0.26176494  0.30436598  0.25373430 -0.17362659  1.25738070  1.17209185  1.65432029 -0.08107450 -0.74193008  1.89502150  3.12405627  2.71271176  1.03260888  2.95270775  1.68204391  2.63809978  2.32982168  2.26305366  3.53608811  3.29776010  2.17304662  2.16582431  1.39323521  2.48737180  0.17705804  0.06822904 -0.81091756 -1.98502524 -0.86673400 -2.07286771 -0.84189038 -3.79505996  0.11108819 -2.92410612 -2.19775230 -0.06752968 -2.86423353 -2.61829039 -3.11038067 -3.04532053 -2.88441786 -2.66903140 -2.90930902 -2.41168669 -2.29608958 -1.82398758 -0.97302609 -0.74573102 -0.66532980  0.44569612  0.14213758  1.27843037  1.17272688  1.56438950  1.96344834  2.42246142  2.68508257  1.98944660  0.84785106 -0.41684981  0.25800568  0.85025239  1.88923652 -1.05214982  0.55879588  0.62448353  0.88637609  0.99706255  0.97214755  2.34659328  2.47373785  2.04628014  1.73906542  1.02210113  0.63813998  1.00084816  0.31437945 -0.69183048 -0.60607994 -0.72680684 -1.12104168 -1.79947561 -2.18953507 -3.02906290 -2.85957555 -3.22380114 -3.82790753 -3.39283021 -2.99601787 -3.64653331 -2.30732199 -1.68090791 -2.93691416 -2.86650835 -1.23781387 -1.77488886 -1.93476260 -1.10500966 -2.56914385 -0.99878314 -0.54709201  0.88398686  0.99521108  0.02372204  0.15898931  1.31726075  1.28449699  1.88444264  1.11729848  0.18497950  1.12399620  1.01278290  1.10036514  0.98769738  1.68542324  1.36517497  0.15376526  0.76561473  1.82659900  0.30746597  0.11422469  0.12467280  0.76697527  0.98876590  0.19888816 -1.41110142  0.11617712  1.15458820  0.08624738 -0.96695206 -0.51095605  0.11112038  0.38487622  0.79192985 -0.92900575 -0.28384167  0.17590523  0.65777484 -0.31889114  0.02816178  1.64306324  0.16403712 -0.37688822  0.28637670  0.44794661  1.19650355  0.29238723 -1.09198710  0.65663171 -0.88260788  0.25351361  0.47840664 -1.70700493  1.04649529  1.00476921  0.51663575 -1.74418499  1.04516668  0.30270630 -0.32628405 -0.07056142 -3.05456177  0.06509383  1.51143779
 -0.35989464 -0.01955575 -0.48943042 -0.11701677 -0.59613449 -0.19337966 -0.36308131  0.17622135 -0.02948408 -0.16054878 -0.10432507 -0.43251443 -0.43346279  0.39520389 -0.48329600 -0.47126526 -0.51493653 -0.49907227 -0.08248459  0.07469511  0.08703363  0.47459308 -0.13475204  0.07995870 -0.12951460 -0.44554698 -0.18771609  0.33974785 -0.12588386 -0.42060875  0.02021435  0.10335039  0.15470463  0.13844372 -0.39707858  0.17355098  0.54369254 -0.18710313 -0.10349291  0.04045205  0.16789763  0.30492194  0.12310738  0.25524267  0.23073403  0.18230176  0.33292792  0.26679205  0.23318404 -0.20763349 -0.13002171 -0.16620355 -0.23433059  0.22020217  0.38633831  0.09886616  0.22970415 -0.35176050 -0.11580708  0.54700808 -0.33222587  0.34039159  0.08179318  0.24931960 -0.09936400  0.10224654 -0.16346454 -0.14534707  0.32204970  0.13701400  0.29551704 -0.11328029 -0.16481927 -0.19161737 -0.47130637  0.45010093  0.37337435  0.24426227  0.10253172 -0.00044092  0.44367164  0.40063051  0.28910108 -0.30259034  0.14181319  0.22334909  0.35563138 -0.08245913  0.37158750  0.65953533 -0.22277646  0.23714729  0.10297571 -0.08263746 -0.42754554 -0.80586691 -0.62875172 -0.06588833 -0.30371955  0.36911048 -0.30043861 -0.49589978 -0.34598664 -0.18298604 -0.45109424 -0.55048065 -0.34037496 -0.50743226 -0.57030291 -0.39501497  0.36151627  0.69080822  0.71192186  0.21427516 -0.19525074  0.13939718  0.62176283  0.27961452  0.15214299  0.10834467  0.11888453  0.21557316 -0.23047530 -0.20417347 -0.15684509  0.14726692 -0.17142681  0.01893452 -0.19749356  0.15558822 -0.04136566  0.04065374  0.22917925  0.24143067 -0.42374698 -0.41939261  0.53011627  0.04691121 -0.20175424  0.56179241  0.12244489  0.51632608  0.53042501  0.07519122 -0.02742693 -0.39367699  0.53060271 -0.04047686  0.29611066  0.12891723  0.53885334 -0.09971249 -0.16468386 -0.20201840  0.17991496  0.15408187  0.41242357  0.46784348 -0.37492232 -0.33928771  0.06309146  0.01721409  0.12907140 -0.28418175 -0.32081607  0.12221889 -0.29137242 -0.38477712 -0.42866748 -0.09092976 -0.41900908  0.09812887 -0.17284259  0.50946788 -0.43277392  0.18945900  0.50001402  0.47478923 -0.48307001  0.15380769 -0.05030959  0.38857674  0.37356542  0.09257012 -0.51246520 -0.14288705 -0.43721015  0.23655448 -0.31356593 -0.42377338 -0.69023921  0.17858020  0.03114809 -0.11685763 -0.64754211  0.19054983 -0.48863885 -0.41012631  0.34737428 -0.37850074  0.01708360
 -2.32935398  3.81987853  3.44120316  2.19566953  1.70447635  1.30511135  1.26696373 -3.33260604 -2.66887642  4.10573964 -1.40080538 -4.77502012 -4.51265694  3.73184001  6.96688705 -3.78606316 -3.18867937  2.60760204  1.46604642  1.02185061  1.71799314  1.27213458 -2.07069014 -2.85518506 -2.50557995 -0.59749226  2.40573033  5.97212269 -6.05947134 -2.84998835 -5.93681586  4.83319489  3.18134521 -2.82274772 -4.71665301 -2.85386344  2.43668305 -0.20975760 -2.04975581  0.91424791  2.59223670  1.39952569 -1.46474172 -4.11335739 -3.21226033  2.13740291  3.16237421  3.16641756 -2.61810411 -6.92642941 -0.55010669  1.97260774  3.80785762  1.75983821  0.29276082  1.01093140  0.40556006 -7.08111103  0.73362766  2.33419523 -0.52777720 -0.41402627 -0.46247614  0.26809587 -1.46037617 -1.47992009 -0.42612711 -0.80643529 -2.26499928 -0.65760512 -0.13678806 -0.74441293  0.53922846  0.02801184 -0.04986416 -0.55670513  0.01342450  0.01918772  0.21991179  0.57689432  0.22744598 -0.24469100 -0.15046233  0.05977724  0.56735252  0.48523929  0.62344184 -0.25556883 -0.32468831 -0.03407154  0.02603079 -0.57037596 -0.41536322 -0.46482062 -0.00876341  0.17208949  0.04865360  0.32448265  1.37606093  0.23503616  2.13947872 -1.77072752 -0.19730936 -0.70333316 -0.39640679 -0.71660446 -0.84808830 -0.09608338 -0.29585830  0.44458793  0.64739376 -0.04290736  0.09229156  0.23605691  0.62500316  1.17037631  1.17156149  0.67728174  0.36159197  1.34892826  1.23315354  0.87808891  0.18983073  0.25682061  1.42178951  1.41650149  1.54003349  1.02071439  1.05400621  1.02232756  0.53911888  0.89359998  0.65051946  0.48947724  0.66045833  0.60239371  0.50047591  0.64813146  0.04156706 -0.87952495  1.02421983 -0.82050586 -1.32787460 -0.28276686  0.41078461  1.15309066  1.59225887  0.70526765 -4.39643598  1.35179698 -0.71629610 -3.70143704  1.33929096  2.36364101  2.64194513  2.73540385 -1.15110594 -1.92020919 -5.27731749 -0.35960236  4.09728274  1.65592240  0.04209909  1.30385273 -0.23109149 -4.40951571 -2.71943091 -4.71100826  5.17869533  2.60863089 -2.84709598 -1.77163553  2.95649916  3.51656357 -5.88125306 -3.99569255 -2.63716833  2.84651699  2.88373828  1.16165229  0.64083573 -0.00470881  1.00722778  1.90096245  0.85107076  1.38868098  1.27045972  1.31215306 -0.31649054 -5.36118969  0.34008802  2.70984765  5.74578956 -0.69469669 -5.64806005 -4.70902415 -0.57968871  1.97533168  3.65442816 -2.10576343 -3.01300432
 -0.27825771 -0.32793219  0.47034181 -0.11332233 -0.16973430 -0.15808099 -0.09723509 -0.31070277 -0.13604956  0.17046894  0.29922324 -0.47021968  0.51673353  0.29225821 -0.06254427  0.13632020 -0.34981646 -0.10948476 -0.09449371 -0.26978262 -0.13442269 -0.38256567  0.50686260  0.12284693 -0.28947921 -0.34065181  0.22463487  0.03041990  0.12732431 -0.01945515  0.34136701  0.33091800  0.13347303  0.29186742 -0.30309274  0.44234194 -0.38805245  0.07752846 -0.39062346 -0.04644033 -0.27425118  0.38646512 -0.03863670 -0.27933662  0.15693999  0.37709116  0.33511973  0.28511577 -0.25426869 -0.28131026  0.49329729  0.08921726 -0.18591531  0.47819040 -0.30984147  0.00274207 -0.38432665  0.39299941  0.51139542  0.22128173 -0.14805224  0.33121442  0.03055847  0.46364704  0.10132505  0.20569856  0.38421012  0.19137744 -0.23874255  0.47179042 -0.37691039 -0.03481702  0.33645869  0.06266728  0.16405782 -0.02837581 -0.08182391 -0.02243577 -0.26479974  0.14224888  0.17457798 -0.29315546 -0.29010237  0.46705390 -0.33661340 -0.12156413 -0.05188726 -0.24266802 -0.25029886 -0.06224052  0.45678240  0.07964326 -0.25320952 -0.03517029  0.02040841  0.32464414 -0.35365319 -0.12018923 -0.00935558 -0.11781758 -0.17297992  0.09047732  0.32612334 -0.35619813 -0.36518770 -0.02826618  0.09638015  0.03321068  0.42885606  0.31058443 -0.34596015  0.08168482  0.49542342 -0.15825573  0.02641171 -0.36361174  0.19769039  0.45198542 -0.12885183  0.42480639 -0.13282287 -0.19458930 -0.01794944  0.09177449  0.24844009  0.48123534 -0.10401303  0.37527441 -0.15730795  0.36953865 -0.25856305  0.15403440 -0.05565590 -0.44922275  0.27963237  0.05971654  0.00212448 -0.14514340 -0.42873238 -0.09115610 -0.35693104 -0.29725314  0.46792359 -0.38414854  0.02191500 -0.02817404 -0.27021176 -0.30284853 -0.09870754  0.07835123 -0.40064793  0.24588663  0.36128501  0.05893634 -0.18462298  0.08741229  0.01795407  0.18918067 -0.05947924  0.33847159  0.03656880  0.15992845 -0.02954363  0.45889729  0.18870628 -0.27189284 -0.00324234 -0.33098532  0.06110136  0.04600626  0.05581337  0.18214112  0.22679724  0.00179844  0.27602954 -0.27320308  0.45173646  0.48391635 -0.09778456 -0.16846953  0.04077361 -0.02017379 -0.44449695 -0.12026561  0.51605987 -0.15214122  0.44399525  0.01087037  0.51374292 -0.13866268 -0.17371509  0.02730292  0.49817266  0.27339173 -0.03702846  0.16396176  0.47917777  0.43817969  0.31285029  0.02198184 -0.03287590
 -2.58171564 -0.84600269  0.57505018  0.60895070 -0.82637239 -3.54695303 -1.62296379  1.00894286 -0.89987202 -1.27602468 -1.49709222 -0.62477416 -2.05561933 -2.72660092 -4.02930935 -1.59869251  1.62768435 -3.06279242 -4.19297142 -5.04755071 -3.18999655 -2.77555549 -3.44680209 -3.64624008 -3.52164136 -2.53655063 -3.60261867 -2.79555693 -3.65603718 -4.44890316 -2.09379185 -3.99995833 -4.12862588 -2.40561889 -2.39377288 -3.26522187 -3.76243786 -3.10655224 -2.03617063 -2.03757510 -1.70081844 -1.90006859 -2.11459119 -0.63665756 -1.45079647 -0.35544405 -1.26604632 -1.19610797 -2.66002937 -2.31347580 -2.25044219 -3.29161129 -2.40824828 -2.82969814 -1.66505322 -3.39998755 -2.88175957 -2.84582832 -3.03023119 -3.81377369 -3.62638904 -1.64850246 -3.31203670 -2.00787097 -1.76277002 -2.46235149 -2.45444369 -1.74539327 -3.47324318 -3.75423888 -2.54011214 -3.36516234 -3.47896088 -3.27201406 -1.94206186 -3.75454941 -2.84606027 -1.84897163 -3.88005773 -3.29479891 -2.83773812 -2.28355336 -2.62933183 -3.02245040 -2.67595629 -3.35207592 -4.04757580 -3.64930911 -4.60847396 -3.99216188 -4.23094971 -4.34650337 -4.16501388 -3.79101210 -2.12951824 -0.80721142 -1.74659757 -5.70627688 -12.2480372 -24.1795189  0.01445461 24.91783870 11.18296915  4.97898565  3.36947893  2.76061082  1.09034084 -0.85451521 -1.83223159 -3.10279885 -3.23012616 -3.10307670 -1.87001848 -1.86253743 -1.89041487 -1.16428492 -1.69772519 -1.26023596 -0.93614092 -1.19415011 -0.88716520  2.51646475  4.64857191  4.76156142  4.06965585  3.09095009  0.01619098  1.77955383  6.27107363  4.76956584  7.36557877  3.15598364  4.69821137  7.65117168  6.57191844  7.48984367  7.75790926  7.33257181  7.08035118  7.39417541  6.67124588  8.09739360  7.50132096  7.62607069  6.72561279  6.00701553  7.07301306  6.49234063  5.27692475  6.81376326  6.88699311  6.34735490  7.83155455  7.27948313  6.49707130  5.93002894  7.18984201  4.99628855  6.44658701  7.64324520  5.81060609  5.43339605  5.73135178  5.01023261  5.30295626  4.32731811  6.92153082  6.95260316  4.59095145  2.57852726  3.83606567  2.24680333  4.90730191 -1.05462895 -5.57837139 -2.61363378  0.67620959  1.24520943 -1.81041017  0.37965775 -4.25633049  0.89768782  0.90681857  1.44956774 -3.17607585 -1.61256846 -2.59781724 -1.35809442  1.15319531 -0.12623355 -0.43373909 -2.74676532 -0.89733402  0.13657663  0.54820516 -1.72872657 -3.18916982  0.96152391  1.30198000 -0.91046867 -2.81878329
 -4.79518630 -4.35488783 -1.08615595  2.32792602  0.19949959 -1.30790114 -0.08171919 -6.43806786 -7.34155450  0.51336451  1.82225251  1.47089400 -1.31054085 -3.05756211 -4.31084326 -2.88566799 -2.23132037 -0.08716762  1.10154622 -1.62236409 -4.68468123 -6.61148958 -2.51905357  0.44143267 -0.70053361 -1.77910140 -2.29329077 -0.96217962 -2.58652587 -1.41957744 -0.43240509 -2.70158281 -3.32076015 -2.19343106 -1.76109508 -2.71604896  0.56890974 -0.89600808 -0.07677544 -0.33613500 -0.07099758  1.19745312  0.88416144  0.58477395 -0.39984324 -0.07692126  1.48644940  1.71841790  0.44731773 -0.58688405 -0.32951187 -2.00670309 -0.32846362  0.89532235  0.66641884  1.42419401  1.08803620  1.07847005  1.22123722  1.14450583  1.72254049  0.86068886  0.47689344  1.26274160  0.77446570  1.70497476  1.10203233  1.28754028  0.45351600  1.63604840  1.44141706  1.25619334  1.29306022  1.46724838  0.91797733  0.37650051  1.24034977  1.34487691  2.08475053  2.28627064  2.48669838  2.15598104  2.63665313  2.44418636  1.80921283  2.20641183  1.70638167  1.08979026  0.67606080 -0.02558853  0.20507399 -0.42755557  0.65055786  1.03930430  2.33293590  1.60767170  0.84241894 -1.12637779 -0.19742889  3.86288534  3.60095591  2.76404411 -0.45131756 -0.70044794  2.34286981  3.39379079  2.37446031  1.87043616  0.95610455  0.81523655  0.48065399  0.78210153  1.04587263  1.57731630  1.78358075  2.34427219  3.17198833  2.84985465  2.89154423  2.51770399  2.74406498  2.11889719  1.97301983  1.76104790  2.00273556  1.55133500  1.53857769  1.15903670  0.90582567  0.53232866  0.71054150  1.00759659  1.38813748  0.63822061  0.05465688 -0.09324005  0.70949660  0.37134398 -0.12009446  0.34126962  0.03475865  0.44960771  0.70792233  1.87551878  1.44941397 -0.28948734  0.95922047  0.97034857  0.55074877 -0.46086424  0.16957331  0.67995299  1.57491074  1.50128718  0.03111131  1.64033039  0.78274068  0.50558470 -1.17355018 -0.01461502 -1.50353324 -1.86801625 -0.85504384 -0.35941894 -0.80643331 -1.75708636 -0.49197597 -1.43317861 -2.04923764 -1.24803898 -2.39716339 -2.82073696 -2.83260323 -1.42040775  0.23884549 -0.74160939 -2.05009090  0.13383556  0.32534685  1.94231103  2.88567199 -1.20703103 -5.88023846 -5.52178429 -4.89002858 -1.08786138 -1.16543767  0.54719842 -0.31824216 -2.63533103  1.05404541 -2.32148425 -3.74480705 -5.91230763 -0.74097051 -1.37744068  0.54852239  0.47319517 -1.08110808 -0.73897906 -4.67244381
 -0.42884562 -0.42957329  0.05544435 -0.12892507  0.45249420  0.10818266  0.22038329 -0.01126050 -0.09443126  0.15690272 -0.18403395 -0.15719062  0.48101291  0.36919882  0.48244374 -0.14864546 -0.40590540  0.37597625 -0.07138735 -0.09691652 -0.04772088  0.12435385  0.42960982  0.31138575  0.38671359 -0.39186492 -0.38519690  0.11912302  0.42448265  0.20386155  0.45969817  0.49557930  0.27422969  0.01508553 -0.13339866  0.22667498 -0.37677782 -0.41305981 -0.28462806  0.02875012  0.24380554  0.03130462  0.37153046  0.22479144 -0.09952148  0.35394998 -0.42388014 -0.00545717  0.22989235  0.00469496  0.39758522 -0.31787196 -0.37099663  0.32714931  0.49346874 -0.48432663  0.43524178 -0.39176890  0.13475681  0.35968505  0.31205340  0.09441517  0.35522478  0.08624292 -0.39054005 -0.27821612 -0.18712561 -0.26736273 -0.19132158  0.02820089  0.26134174 -0.44756141 -0.44053903  0.13282824  0.27718637 -0.04010457 -0.01326566  0.35326185  0.45439358 -0.28341878 -0.14208884  0.35193292 -0.10133663 -0.01313103  0.17903643 -0.10791335  0.00249720  0.11423318  0.00027279 -0.36279117 -0.02612783 -0.18772191  0.23157313 -0.17095765  0.39846252  0.34097032  0.05076063 -0.28872854 -0.42645472  0.35938233  0.23941965  0.33483866  0.41177450  0.29883857 -0.03236997  0.18892920 -0.24129457  0.45433606  0.04216047 -0.28693529 -0.32912063  0.40003056 -0.43504592  0.06949754 -0.11314662  0.24394392  0.46153745  0.38930384 -0.14186955 -0.03823618 -0.47353323  0.33195772  0.27399886  0.25799984 -0.33903559  0.17243147  0.09894679  0.21170800  0.38369158  0.17248412  0.07108369  0.12310552  0.00731628 -0.01714965 -0.07806700  0.47492964 -0.32824382  0.18060826  0.42922986  0.21387630  0.39362939 -0.39993614  0.11386049  0.45853676  0.16951433 -0.49933341  0.20243325  0.13100440  0.38992287 -0.43948413 -0.40727990  0.41634142  0.39242545  0.36667061  0.17429354 -0.44665770  0.03905510 -0.22680686  0.26500333 -0.07730090  0.44562984 -0.16396007 -0.45424227 -0.04710073  0.31884370 -0.03235591 -0.07221710  0.49055394 -0.35179343 -0.14303274  0.20438544 -0.45820830 -0.04301325 -0.18179892 -0.49971676 -0.37354410 -0.18117647  0.20267315  0.25741737 -0.29129662  0.26314550  0.35009237 -0.37500300  0.15551983  0.21670850  0.29923359  0.20880421 -0.24429311 -0.42762715 -0.02624220  0.17836007 -0.48204104  0.30975514  0.22407623 -0.02918173  0.12856102 -0.30831547  0.39856690  0.11908121 -0.16014150 -0.24449917
  0.28243287  0.07283453  0.59853083  0.83454866 -0.84861759 -1.64452780 -0.94710594 -0.25351335 -0.12236422 -0.43865710  1.69590399  0.60976744 -0.11864708  0.93413490  0.20220581  0.42959356  1.20527464  1.81427431  1.92896660  2.37024292 -0.03396432 -0.01573908  0.59463842  0.31580205 -0.16075446 -1.40915566 -1.28594797 -1.26332427 -0.38437420 -0.64504975  0.01421828  0.09695380  0.73670654  0.56532262  0.61747915  0.11209086 -0.06088472 -0.74223054 -1.79946632 -1.78099596 -1.27368334 -1.49651124 -0.54575575  0.16169170  1.35518646  1.45362938  1.07595770  1.39384058  1.29949174  0.62857729  0.50290574  0.62434110  1.07048308  1.00047888  0.94321722 -0.12796168 -0.33214328  0.63210019 -0.04530596 -0.33796387 -1.07938198 -0.89184852 -0.84985828 -1.05330144 -2.23421836 -2.03594468 -2.70852303 -2.61880963 -2.80127160 -3.08388199 -3.19336269 -3.62681210 -3.40203506 -2.93083459 -3.48142927 -2.66250531 -3.00055034 -2.68502258 -2.11656276 -1.99232457 -1.02347357 -1.15417021 -0.19316076  0.41608725  0.70970385  1.53659643  2.18559841  1.80399467  1.73186280  1.32107698  0.97634429 -0.53581965 -1.25560512 -2.58202049 -3.92326762 -5.30353182 -5.60570368 -4.41284641  0.53008096 12.97598100 25.02558009 11.64245260 -1.22165776 -6.78534926 -7.34375073 -6.66982476 -6.46617776 -5.40116848 -3.89971626 -1.87781453 -0.62250892  0.52797289  1.59406757  2.52355067  3.70319091  3.40556016  3.63654436  3.24551368  2.77896551  2.65588950  2.08876530  0.97260664  0.36734270  0.28922796 -0.95754522 -0.75669851 -1.13573630 -1.90395216 -2.25404700 -2.55520861 -3.50459596 -3.18366752 -2.90261664 -2.43305641 -2.49819353 -2.85396641 -2.30407453 -2.02037396 -2.02196329 -1.91605775 -0.98127663 -0.79242637 -1.48736606 -0.84642666 -0.87605782 -0.12905611  1.21681007  0.43144122 -0.16536566  1.16816971  1.28976053  2.37362920  1.63123213  1.06080558  0.34127371 -1.05415337 -1.42462189 -1.16468885  1.30544510  2.32325317  3.51528592  3.10134359  2.38329270  1.37662091  1.46057491  0.58348819  1.16472474  2.16061667  1.87893297  1.87648223  1.48312331  0.93860132  1.96034644  2.84638829  1.97629169  0.85407428  1.90679414  2.32703993  3.24024724  3.49166487  4.03543000  2.85773206  1.38518450  1.25772019  0.07654152 -0.75228019  0.37091438 -0.50685330 -0.98890101  0.52667544  1.30121566  1.29742897  0.69373642 -1.17655099 -2.87705697 -0.32255305  1.06866180  1.22024651 -0.86926139 -0.52031980  0.50480491
  3.32145840  3.48966458  2.59770230  3.28752302  3.04342756  2.53983789  3.31361584  2.87216811  2.61163849  2.70140654  2.88020781  2.58686875  2.49098261  3.13452471  2.87239106  2.61100612  3.66491207  2.84814897  2.53460180  0.64246447 -2.63407454 -1.59275553 -1.71073435 -2.74443411 -3.77919577 -0.84307816 -1.54181967 -1.30938458 -2.73912673 -2.82428383 -3.16385950 -0.66795238 -4.50435943 -4.16000736 -2.30074491 -2.92497430 -3.15848155 -1.07862395 -1.80187331 -3.94107028 -1.99389335 -1.98390529 -2.30267144 -2.30469886 -1.11462387 -3.00697453 -2.22052540 -3.15279646 -1.01853110 -2.56229738 -1.51446939 -2.91314162 -4.06797153 -0.92664213 -2.28775020 -2.42556274 -1.81992915 -1.06227075  0.16604162  1.55159749  2.39407945  1.97127379  1.78226454  1.93783594  1.93046318  1.34798787  1.44249460  2.22876190  1.90594327  1.87164918  1.18034589  1.77597858  2.32807362  2.08641379  1.86741172  1.73285301  1.56445726  1.48661734  2.24668456  1.49542175  1.88293314  1.41766162  2.08569811  2.30443738  1.41501634  2.14751960  2.12748621  1.86583227  2.00825093  1.73150708  1.49417896  0.62426252 -0.35452532 -1.35027689 -1.27456175 -0.55597636  0.23012329  0.60153158  1.43281324 -1.16146743  0.06576232 -1.16230916  2.78192566  1.63991959  1.71310214  0.04221528 -0.77975889 -0.75591641 -0.56333363  0.12674836  1.33558285  1.91785880  1.62874982  1.96890867  2.35402070  1.90352073  1.82363510  2.12713293  2.43380969  1.61091782  1.88735881  2.34499612  2.24777472  1.18325364  1.40692236  1.64621466  1.79400647  1.82880076  1.43727997  1.95750812  1.89077550  1.54904051  1.18295537  0.66419246  1.23418574  1.24142402  0.56582473  0.09605768 -0.04373745 -1.55904496 -3.10099888 -1.78506158 -2.49243011 -2.48538875 -3.21002192 -3.82547072 -2.95712958  0.11438277 -2.86408994 -3.45742213 -0.61381545 -1.55211716 -2.47272173 -4.25978556 -1.28327229 -3.04429557 -2.55678720 -0.59729546 -0.95463687 -3.31728446 -1.98922369 -2.30447028 -1.54170524 -1.94231452 -2.86212148 -2.80773072 -2.29398086 -3.35068159 -2.65444611 -1.44457020 -3.92188381 -2.18004941 -1.54909434 -1.99062292 -1.61531843 -0.78902233 -2.85236092 -2.97726220 -1.22166021 -3.66351161 -0.13908112 -0.49116493 -3.19156489 -1.73217678 -2.45083914 -2.36008543 -0.90337620  2.41033986  2.45173823  1.41503948  1.12154219  1.93514936  1.73369565  1.72614448  1.62110161  2.39358008  2.96836262  2.97269714  2.94071210  2.70311728  2.89510584
  2.95338003  4.93900570  1.95921285  4.57131603  1.85834536  3.60253382  5.31226152  2.50449051  2.89315120  5.99339780  2.10880502  4.53027995  1.70069150  5.15981180  2.69173607  2.76660571  4.02054388  1.52368552  1.44640151  5.10529357  4.20747589  0.68143356  3.19624805  6.15625173  2.16082341  3.79713968  1.39498201  3.48514014  2.60048571  1.75328879  3.50331103  1.09073357  2.45478193  3.53441629  2.73431983 -3.71568118  1.34734789 -2.53426543 -6.72469185 -6.31220882  3.22269362 -1.33994097 -2.91079275  0.86142938 -1.53118852 -8.22018185 -6.02358083 -0.76407913 -1.67700876 -2.06784587 -1.52859991 -1.33430345  1.56822541 -3.63141873 -5.03403281  0.08311584  0.01911262 -1.19347945 -8.99064977 -4.82921798  0.39364981 -3.57601298 -2.12425074 -4.01034590 -4.53167910 -4.92140575 -4.69520821 -0.73976692 -4.96141275 -5.65299318 -6.19124959 -1.47199607 -5.68925562 -4.87502374 -4.59309139 -4.97112635 -4.47467407 -4.52883024 -1.24581568 -2.70242635 -2.89211194 -2.83710061 -2.79963040 -2.11617458 -2.38764379 -1.86551887 -1.11487852 -0.93199194 -0.51188530 -0.26217109  0.42230577  1.07733019  2.12111690  2.15168213  2.58397851  1.50834556  0.02236499 -0.93935099 -6.12559484 -6.64432744  2.25121954  7.48846971 -0.62487496  1.36279137  1.17430652  2.18077291  3.07138419  3.53489919  2.53306760  1.92590856  1.24834267  0.90672585  1.17034384  0.38774251 -0.45062111 -0.69527364 -0.24558540 -0.66937626 -1.11118118 -1.67026481 -1.32767756 -0.17819468  0.60483251 -0.02508969 -1.57780800 -1.14025120 -4.01762814 -4.02472901  0.45540123 -2.37993144 -0.32332405 -3.53854075 -2.37652091 -1.49265505 -2.17767772 -2.41180019 -1.92447049 -0.77321978 -2.11393393 -2.83543261 -0.48554151  1.39853219 -4.89317876 -2.02813847 -3.32589678 -5.83786585  0.42833611 -2.13188024 -7.03072164 -2.13166840 -1.27610641 -3.09352688  2.47028196 -1.83677198 -2.08678483 -3.51409526  1.27744063 -2.00301721 -1.85544208 -0.83471195 -2.34578708 -4.71476647 -2.16604748 -0.82726814  1.58751505  1.61613754  2.71313649 -0.07941396  1.84322442  0.17875718  2.48187277  2.24702350  4.58200217  1.24799814  4.14644913  3.87168377  2.39709653  3.52460432  3.89309715  2.72096430  3.35085609  5.93244752  2.39054621  2.09595641  2.73705789  4.48630214  2.73480334  4.64452333  1.42220864  1.68455096  4.58465695  3.64956624  3.23423209  2.37732838  6.40980535  2.63627590  3.07294195  3.63719646  3.40834903  3.59262377  2.67915687
